6574 50
</s> 0.008005 0.008839 -0.007661 -0.006556 0.002733 0.006042 0.001882 0.000423 -0.007207 0.004437 -0.008713 0.002499 -0.001503 -0.001914 -0.006631 -0.003764 0.005159 0.006051 0.005938 0.003195 0.003090 -0.007605 -0.008192 0.009939 0.007603 0.006180 -0.001208 0.008031 -0.000990 0.001469 -0.000298 -0.005966 0.002625 -0.002675 -0.007651 0.009508 0.008759 -0.002190 -0.000452 0.001018 -0.007275 -0.008014 0.009109 0.000126 -0.005165 -0.006084 -0.006153 0.003394 0.000403 0.002662 
[entity_start] -0.125920 -0.155758 0.086431 -0.134707 0.036718 0.072415 0.009244 0.032505 -0.130613 0.100846 0.099328 0.033673 -0.048603 0.069105 -0.166489 0.186621 0.079799 -0.093851 0.041943 -0.036945 0.022468 0.035695 0.118871 -0.113076 0.037620 -0.029159 -0.082611 0.093265 -0.084894 0.086301 0.118073 -0.091056 -0.001267 0.002043 0.067180 0.114223 -0.022059 -0.184387 0.090832 0.106381 0.008432 0.131049 -0.185119 -0.207058 0.161782 0.037786 -0.080123 -0.014762 -0.082365 0.131472 
[entity_end] -0.091467 -0.171023 0.136341 -0.106482 -0.059540 0.073705 0.055706 0.011922 -0.084819 0.132219 0.063159 0.005153 -0.014590 0.058671 -0.157541 0.204286 0.033508 -0.061834 0.010892 -0.021183 0.040939 0.056818 0.147954 -0.162307 0.061794 0.028249 -0.098314 0.038463 -0.047889 0.122913 0.056229 -0.040356 -0.072235 -0.000452 0.131628 0.091943 -0.031833 -0.162181 0.031899 0.137955 -0.026805 0.136180 -0.199882 -0.202092 0.179203 0.080960 -0.114157 0.005674 -0.103765 0.091373 
- -0.278303 0.001775 0.105281 0.409683 -0.257613 0.134286 -0.072235 0.010816 -0.097126 0.148675 -0.013487 -0.221605 0.282262 -0.192241 -0.401168 0.565931 0.374720 0.230007 0.636263 -0.004478 0.055126 -0.144753 -0.100141 -0.022944 0.371855 -0.069789 -0.078881 -0.167129 -0.146129 0.051065 0.727159 -0.043175 -0.155405 -0.151394 0.502263 0.349395 0.235537 -0.348774 0.015683 0.191414 0.103123 0.404821 -0.609741 -0.591805 0.471840 -0.144575 -0.485383 -0.132983 -0.327637 0.273760 
and -0.018958 -0.148661 0.258994 -0.180602 0.278920 -0.003699 0.174298 -0.001387 -0.108285 -0.009301 0.034692 0.227445 -0.120392 -0.012887 -0.208139 0.193434 0.128507 -0.175687 -0.103994 -0.054075 0.060193 0.190136 0.182471 -0.070896 0.048130 0.006707 -0.203383 0.091534 -0.160227 0.173666 -0.015359 -0.073523 0.091061 0.010679 -0.091580 0.032465 -0.259940 0.028855 -0.042004 0.081155 -0.104274 0.245617 -0.234534 0.093313 0.107724 -0.000970 -0.034462 0.075937 0.066610 -0.028506 
of 0.049075 -0.245691 0.334584 -0.201616 0.173028 -0.036761 -0.194784 0.179268 -0.268927 0.057701 0.180176 0.115168 -0.103388 0.098495 -0.159065 0.268278 0.048154 -0.326852 0.078677 -0.119885 0.043631 0.043856 0.231677 -0.320500 -0.026307 -0.075016 -0.128939 0.107635 -0.202090 0.087286 0.134646 0.139509 0.039406 0.075810 0.131626 -0.100171 -0.322150 -0.184999 0.015214 0.040032 -0.211941 0.032637 -0.046065 -0.046904 -0.024746 -0.038115 0.000118 -0.028215 -0.023852 0.001466 
the 0.083083 -0.010191 0.321612 0.118840 0.021248 0.068321 -0.185918 0.127977 -0.231907 0.009563 0.040785 0.114684 0.124088 -0.244532 -0.231056 0.266648 -0.064590 -0.031349 0.145825 0.111284 -0.054137 0.078291 0.033286 -0.041701 -0.021300 -0.272418 -0.110402 0.259022 -0.440689 0.231620 -0.131422 0.005529 -0.132072 0.195172 -0.119110 -0.019838 -0.499468 -0.062884 -0.008273 -0.093446 0.182315 -0.014380 -0.057075 0.363410 -0.002708 -0.037441 0.192610 0.132387 -0.066894 0.053624 
with 0.101151 0.081557 0.360054 -0.169956 0.150628 -0.129626 0.300098 0.174591 -0.023121 -0.069649 0.149630 0.122099 -0.010515 -0.036694 -0.208630 0.443878 0.090712 -0.183533 0.013476 -0.109194 0.110005 -0.109983 0.175641 -0.171418 0.010882 -0.046645 -0.163305 -0.019006 -0.206197 0.013549 0.033982 0.128992 0.079449 0.039989 0.096613 -0.022629 -0.347250 -0.022735 0.093448 -0.081212 -0.182722 0.104588 0.022218 0.050297 0.139831 0.007655 0.134274 -0.106610 -0.166500 -0.183253 
was -0.140581 0.004113 0.158404 -0.248920 0.210452 -0.190315 -0.358927 0.060947 -0.269089 0.112656 -0.149648 0.210450 0.049207 -0.126241 0.006437 0.402328 0.082873 0.051675 0.146689 0.208559 -0.049183 0.275006 0.223424 -0.261518 0.307446 -0.343700 -0.127269 -0.094250 0.124615 0.209764 -0.139523 -0.364473 -0.217776 0.276477 -0.169800 0.281610 -0.457906 0.029887 -0.206816 -0.147866 0.056814 -0.014345 -0.290920 0.065744 0.157871 -0.163361 -0.036250 0.031685 0.014040 0.320452 
to 0.222516 -0.073305 0.312013 -0.007139 -0.045030 -0.043312 0.080517 0.086264 -0.134914 -0.035470 0.027357 0.050446 0.136183 -0.324343 -0.388408 0.083909 -0.129350 0.051713 0.082909 0.169890 -0.025938 0.133311 0.207857 0.041146 0.188268 0.115256 -0.172704 0.138355 -0.142919 0.107105 -0.233098 0.076784 0.058894 0.302243 -0.179171 0.126122 -0.290575 0.171450 0.007781 -0.104665 0.379646 0.113750 -0.205751 0.284122 0.433042 -0.086683 0.153536 0.213417 0.257277 0.103169 
a 0.208978 0.131531 0.348454 -0.017423 0.136610 -0.093699 -0.290836 0.153751 -0.002948 0.019931 0.121303 0.190313 -0.073779 0.061494 -0.182258 0.472169 0.023648 -0.170539 0.085682 -0.051614 0.178505 -0.077217 0.323915 -0.128688 0.260246 -0.181974 -0.148260 0.083433 -0.301921 0.078147 0.017027 0.127582 -0.190759 0.083783 0.014423 0.132257 -0.374507 0.044356 -0.016670 -0.031034 -0.130972 -0.019567 -0.073394 0.095784 0.002951 -0.093961 0.239919 -0.130515 -0.121704 -0.124689 
* -0.208225 0.019180 -0.011865 0.375725 -0.278428 0.237137 0.066002 -0.085310 -0.249531 0.110746 0.077964 -0.154261 0.184846 -0.107315 -0.615447 0.416930 0.552359 0.387466 0.894756 0.103656 0.066575 -0.125102 -0.107083 0.023382 0.448875 0.081227 0.154577 -0.151841 -0.135063 -0.016304 1.037719 0.017273 -0.149396 -0.013775 0.707724 0.454782 0.195573 -0.353573 0.164257 0.095944 0.104284 0.610448 -0.612465 -0.606866 0.584449 -0.262672 -0.531992 -0.040938 -0.374189 0.243396 
on 0.021017 -0.004473 0.292653 0.063469 0.086772 -0.233116 -0.209429 0.041534 -0.100122 -0.146796 -0.122109 0.234694 -0.042157 -0.325646 -0.204621 0.098669 0.220936 -0.116844 0.008868 -0.235499 0.015874 0.203096 0.175649 0.090294 0.136734 -0.190453 -0.358929 0.151286 -0.339369 0.239990 -0.050556 -0.044869 -0.042460 0.062772 -0.173250 -0.057402 -0.378534 0.075091 0.082924 -0.032430 0.157833 -0.023262 -0.295233 0.092651 0.270203 -0.099946 -0.161897 -0.294574 0.130623 0.274950 
for -0.017037 0.012584 -0.114953 -0.325489 0.050486 0.181063 -0.306635 0.355605 -0.205152 -0.017602 0.013783 0.369870 0.034339 -0.218270 -0.248519 0.364710 -0.098596 -0.243054 -0.012981 -0.074594 0.017231 0.240073 0.326490 -0.122141 0.005412 0.315252 -0.126276 0.110250 -0.257109 0.209923 0.035111 0.079730 0.116129 -0.038459 -0.068592 0.121888 -0.126238 0.016657 -0.040233 -0.177554 0.216792 0.258364 -0.113547 0.231214 0.104290 0.115681 0.094570 -0.101533 0.068484 0.096671 
mg 0.213452 -0.270915 0.276561 0.210830 0.436656 0.192360 -0.194818 -0.684610 -0.341186 -0.371482 0.270094 -0.042586 0.144377 -0.603812 0.412228 0.080374 0.673358 -0.324042 -0.178084 0.018501 0.307038 0.181072 -0.124077 -0.160573 0.112950 0.190450 -0.532813 -0.149034 -0.046986 0.578187 -0.012870 -0.139027 -0.168476 0.072153 -0.074223 0.032672 0.069551 0.308600 0.530306 0.350891 0.236788 0.281067 -0.242139 -0.597022 0.756516 0.934677 -0.085313 0.454396 0.133331 -0.012535 
in 0.069785 0.018298 0.256115 0.051858 -0.020896 0.249367 0.252050 -0.056933 0.006808 -0.055177 0.084361 0.138821 -0.291071 -0.047814 -0.273469 0.470912 -0.006851 -0.068380 0.166514 -0.035080 -0.085739 0.024688 -0.162228 -0.052175 -0.088630 -0.070471 -0.240077 -0.081645 -0.395042 0.033320 -0.083199 -0.109105 0.027563 0.082180 -0.117390 0.044576 -0.521392 -0.076480 -0.103885 -0.088005 -0.152978 -0.038647 -0.009992 0.322795 0.213047 0.024852 0.262672 0.085537 -0.139932 -0.157542 
blood 0.376207 -0.241536 0.351890 -0.131346 0.331247 0.229329 0.163513 0.531748 0.451482 0.268297 0.046024 0.172286 -0.023215 0.152992 0.037191 0.130359 0.250670 -0.210755 0.160920 0.299972 -0.494431 -0.207879 0.179260 -0.389365 0.197231 -0.655259 0.244025 0.141625 0.144230 -0.246723 -0.098288 0.227423 -0.519459 0.027244 0.089923 0.564131 -0.130550 -0.561430 0.087624 -0.138511 0.423734 0.297097 0.069279 -0.321530 0.210584 -0.124289 -0.437346 -0.211341 0.198517 0.055924 
patient 0.008278 0.358170 0.283212 0.194670 0.157979 0.082757 -0.072954 0.164315 -0.167312 -0.166467 0.283035 0.286906 0.181551 -0.312657 -0.253933 0.261553 -0.138296 0.087822 -0.055761 -0.018276 -0.334279 -0.172632 0.125351 -0.162416 0.304287 -0.358395 -0.143213 0.137645 -0.455374 0.334021 -0.045817 -0.092519 -0.166141 0.219664 -0.206129 0.145803 -0.540808 0.273928 -0.269946 0.005225 0.355587 -0.280469 -0.055617 0.191260 -0.064521 -0.188257 0.219251 0.082810 0.048259 -0.177721 
no -0.391905 -0.112256 0.351541 0.168051 -0.158583 0.145244 0.183778 -0.116889 -0.177006 0.232204 0.391596 0.350060 -0.051027 0.263466 -0.463106 0.397817 0.008554 -0.484010 -0.352972 0.081333 -0.293432 0.163447 0.148692 0.188409 -0.179571 -0.064476 -0.109099 -0.084736 -0.220076 -0.433455 -0.109035 -0.020420 -0.160882 -0.347424 0.143031 -0.275059 -0.188488 -0.329652 -0.064220 -0.331183 -0.171448 -0.597449 -0.587582 0.121375 0.296548 0.581600 -0.001112 -0.120032 0.001573 0.205780 
p.o. 0.541179 -0.346998 0.431452 0.355853 0.867082 0.420397 0.128431 -0.567471 -0.582607 -0.421577 0.257622 0.091353 0.013267 -0.252901 0.405826 0.097551 0.700634 -0.369166 -0.424117 -0.128343 0.260253 -0.009822 -0.200415 -0.025252 0.204661 0.213091 -0.477763 -0.134719 -0.334967 0.623403 -0.088869 0.119657 0.481042 -0.318347 0.307272 0.466723 0.198161 0.281410 0.438390 0.115646 0.233349 0.103427 -0.199956 -0.604308 0.852337 0.945480 -0.037201 0.454542 0.342639 -0.082081 
or -0.069556 -0.438179 0.267147 -0.072401 -0.441273 0.380374 0.218748 0.331542 -0.188254 0.549692 0.825186 0.282262 0.342050 0.233270 -0.375389 0.039353 -0.259193 -0.359946 -0.399804 -0.200669 -0.256816 -0.072499 -0.157606 0.172379 -0.205141 0.217016 -0.094160 0.031038 -0.427838 -0.356182 0.263857 0.084916 0.104226 0.267731 0.015076 -0.175843 0.027176 -0.232344 0.296882 -0.307574 0.529822 -0.430032 -0.219845 0.064400 0.255679 0.503649 0.111990 0.559365 -0.173399 0.109438 
an 0.184282 0.216452 0.296430 0.106437 0.176510 0.027858 -0.253572 -0.167761 -0.254828 0.089303 0.062100 0.405752 -0.038449 -0.062101 -0.057046 0.339763 -0.069436 -0.188121 0.075791 0.010029 0.227348 -0.254790 0.590366 -0.289717 0.507995 -0.012602 -0.154784 0.093953 -0.226821 -0.079252 0.389854 -0.175150 -0.293949 0.158171 0.053752 -0.378605 -0.324480 0.059228 -0.083661 -0.066373 -0.033897 0.058995 0.016026 0.430484 -0.109411 -0.355726 -0.049243 -0.002048 -0.116667 -0.122399 
he -0.232883 0.060509 0.220129 0.124058 0.042785 0.026132 -0.101151 0.046105 -0.174078 0.007227 0.207262 0.460028 -0.072563 -0.214378 -0.262619 0.345467 0.161183 0.041476 -0.207413 -0.231203 -0.581204 -0.100809 0.175606 -0.236547 0.428001 -0.176947 -0.221946 -0.072785 -0.264384 0.171791 -0.237119 -0.080728 -0.043346 0.367796 -0.309728 0.052430 -0.403586 0.371167 -0.405104 -0.317854 0.175686 0.019178 -0.279542 0.371825 0.080081 -0.186724 -0.042258 -0.019577 0.190552 0.112217 
at -0.105205 -0.144092 0.016112 0.131443 0.398521 0.000715 -0.407326 0.078902 -0.110784 0.145910 0.167548 0.116976 0.121942 -0.247419 0.178878 0.282671 0.140806 -0.010598 0.246262 -0.063607 -0.119496 0.482351 0.454932 -0.035105 0.074789 -0.620872 -0.279305 0.303553 -0.363825 -0.031433 -0.171686 -0.049417 -0.013345 0.208548 -0.192421 -0.484581 -0.036688 -0.416250 -0.051806 -0.230868 0.111879 -0.176869 0.092594 0.062809 0.235554 -0.216231 -0.011763 0.216080 0.326246 0.613247 
po -0.159553 -0.291228 0.309042 0.549989 0.360229 0.405357 -0.687328 -0.881573 -0.238019 0.465162 0.495375 -0.087985 0.139178 -0.599608 0.873915 0.064075 0.518448 -0.171847 -0.304283 -0.071797 -0.018428 -0.117836 0.045259 -0.176376 0.023676 0.214640 -0.559650 0.107114 -0.052569 0.789236 0.036195 -0.266806 -0.034994 0.040027 -0.060677 0.080894 0.320762 0.136559 0.438289 0.666102 0.122248 0.245576 0.091058 -0.028116 0.931998 1.056490 0.147692 0.203368 0.214653 0.055558 
as 0.202652 -0.352398 0.062071 -0.273027 0.020033 0.214376 -0.165269 0.026028 0.102832 0.244692 0.542566 0.291588 -0.298737 0.006798 -0.313980 -0.381708 -0.388569 -0.491002 0.009125 -0.132566 0.233886 0.545801 0.052503 -0.166319 0.652467 0.130739 -0.156208 -0.070500 0.133914 0.600814 0.273095 0.189077 0.251013 -0.042715 -0.088627 -0.189519 0.220440 -0.344757 -0.024803 -0.121950 0.276256 -0.088930 0.144267 0.752023 0.570544 -0.188664 -0.182371 0.093506 0.086110 -0.061997 
glucose -0.174996 -0.290209 0.313987 0.629899 0.089158 -0.534191 -0.047200 -0.075691 0.150454 -0.089490 -0.286104 -0.308480 -0.064950 0.154038 -0.373853 0.392317 0.331289 0.025668 0.707209 0.544188 -0.410457 -0.206555 -0.347108 -0.425062 0.689458 0.214607 0.204278 0.342224 0.198638 -0.163393 0.393154 -0.596836 0.217747 -0.098816 -0.111011 1.184582 -0.123910 -0.794314 0.388676 -0.531256 -0.132607 0.234284 -0.094351 -0.487811 0.123468 0.031846 -0.602387 0.183254 -0.063077 -0.510056 
is 0.164117 0.662039 0.240237 0.032280 0.212318 -0.079968 -0.294725 0.248626 -0.260737 0.185386 0.502931 0.313255 0.273462 -0.173364 0.126762 0.413919 -0.294867 -0.081715 0.276719 0.085956 0.161561 -0.200882 0.107181 -0.186841 0.583775 -0.228957 -0.124970 0.220141 -0.230417 -0.057569 0.060469 0.019349 -0.205122 -0.157627 0.124986 0.167607 -0.395852 0.024767 0.293099 0.014161 0.017356 -0.260073 0.167692 -0.051239 0.173230 -0.121512 0.521182 0.083661 -0.214150 0.017923 
left 0.160321 -0.280362 0.292423 0.214469 -0.138295 -0.029432 0.358626 -0.577325 0.210486 -0.020860 0.180403 0.276996 0.011983 -0.079535 -0.384123 0.528687 -0.140996 -0.128792 0.230709 0.025511 0.152262 0.524312 0.330986 0.000752 -0.442305 -0.373494 -0.272466 0.118996 -0.555061 -0.277998 0.078536 0.104669 -0.170761 0.159376 0.581058 -0.332150 -0.346726 0.084250 0.060717 0.163532 -0.366290 -0.035026 -0.078572 0.657786 -0.085988 0.039312 0.229680 0.078492 -0.188629 -0.404557 
right 0.156298 -0.257234 0.446989 -0.090359 -0.200340 0.184574 0.222874 -0.425560 0.234120 0.019792 -0.001709 0.157987 0.065622 -0.059559 -0.415625 0.518410 -0.331247 -0.335315 0.473895 0.270409 0.522369 0.404830 0.113536 -0.069833 -0.496255 -0.425376 -0.506954 0.000790 -0.500278 0.035834 0.310627 0.016389 -0.097386 -0.195156 0.334439 -0.040631 -0.519949 0.254193 -0.018053 0.332277 -0.185775 0.098902 0.113582 0.551461 -0.146001 0.096710 0.591323 0.128583 -0.158371 -0.566741 
count -0.545041 0.087740 0.479102 0.004348 0.369886 -0.434874 0.149072 0.478248 0.020862 -0.128509 0.115643 0.166089 0.546879 0.008598 -0.037560 0.883949 0.756876 0.021864 0.373126 0.298339 -0.238625 -0.641296 0.084641 -0.889344 -0.443902 -0.198570 0.714137 -0.238496 0.987315 0.139281 0.163545 0.141272 0.109958 0.194121 0.022480 0.770945 -0.130022 -0.784947 0.389381 -0.759143 0.317063 0.101150 0.236186 0.153422 0.264998 -0.000586 0.531967 -0.659517 -0.210287 0.408216 
she -0.253456 0.017671 0.255894 0.025120 -0.003906 0.099278 -0.172186 -0.050478 -0.175241 -0.218750 0.069152 0.463690 -0.015243 -0.172534 -0.332148 0.260924 0.238333 -0.012670 -0.222065 -0.135017 -0.535791 0.053339 0.235059 0.002032 0.497593 -0.237271 -0.321295 -0.028956 -0.391138 0.148499 -0.111072 -0.007446 -0.047992 0.345644 -0.301752 0.081318 -0.294540 0.424653 -0.329477 -0.248581 0.230482 0.074729 -0.541754 0.321575 -0.038717 -0.194650 0.032002 -0.013545 0.094102 0.072409 
/ -0.591168 -0.158099 -0.065653 0.159429 -0.375997 -0.289465 0.306702 0.240788 0.322694 0.100015 0.569263 0.371534 0.462822 -0.038020 -0.548712 -0.364321 0.045605 -0.320612 0.056883 -0.246218 0.147437 0.411289 0.049286 0.105134 0.321695 -0.079474 -0.770660 -0.290894 -0.260559 0.391223 -0.361941 0.233461 0.717741 -0.093502 -0.101000 -0.217474 0.644370 -0.425734 0.659649 -0.003471 0.034629 0.286687 -0.360174 -0.357297 0.352409 0.294080 -0.091774 -0.354268 0.194453 0.064481 
pain -0.349200 -0.683776 0.288359 -0.036202 -0.337957 0.449752 0.033848 0.006336 -0.109306 -0.196042 0.633375 0.158059 0.130811 0.268851 -0.253726 -0.027767 -0.360836 -0.503902 -0.831168 -0.168073 -0.602743 -0.203938 -0.325652 -0.031735 0.015267 0.195877 -0.157467 0.049820 -0.609103 0.171633 0.017716 0.213077 -0.099295 0.761739 0.139676 -0.082298 0.078036 -0.389465 0.283260 -0.065484 0.337593 -0.289545 -0.556010 -0.002921 0.309158 0.310927 0.077513 0.010967 -0.121250 -0.028629 
his -0.004914 -0.211866 0.038500 -0.171408 -0.044403 0.020873 -0.400894 -0.025222 -0.097117 0.144807 -0.002528 0.393249 -0.049725 -0.113501 -0.101200 0.450034 -0.079443 0.003779 -0.021184 0.037389 -0.280187 0.036352 -0.043304 -0.386043 0.110900 -0.273072 -0.182694 -0.032797 -0.040205 -0.115020 -0.124437 -0.004806 -0.026876 0.217942 -0.294788 0.100214 -0.414802 0.043278 -0.253321 0.010832 0.292445 0.001516 -0.136984 0.233647 0.031460 0.066135 -0.058410 0.207180 0.153862 0.012497 
had 0.027979 0.086238 0.105403 0.078875 0.214069 0.096822 -0.199855 -0.041022 -0.154971 0.089435 -0.057767 0.628775 0.014470 -0.018370 -0.208590 0.136567 0.016845 -0.225415 0.212879 -0.146689 -0.360442 -0.157044 0.205580 0.034186 0.465917 -0.457434 -0.166126 -0.159427 -0.325741 0.007075 -0.102511 0.121185 -0.094567 0.401983 0.048990 -0.279111 -0.336456 0.173324 -0.227606 -0.186072 -0.128505 0.004020 -0.542678 0.243717 -0.007516 -0.144801 0.135917 -0.174585 -0.021561 0.076730 
her -0.035055 -0.178868 0.151599 -0.104542 0.045770 0.025350 -0.251128 0.034458 -0.069960 0.065914 0.006802 0.310976 -0.133249 -0.103875 -0.246014 0.252293 -0.045169 -0.056809 -0.118714 0.178984 -0.322255 0.072214 0.148181 -0.100138 0.101515 -0.068831 -0.142374 0.210409 -0.186044 -0.059717 -0.107592 0.047108 0.038379 0.128028 -0.212048 0.186952 -0.471267 0.039727 0.055390 0.027791 0.237488 -0.103585 -0.201716 0.416577 0.324102 -0.123254 -0.004822 0.063297 0.017899 0.147198 
ct -0.675154 -0.678235 0.187492 0.913793 -0.116324 0.055805 -0.386649 0.039874 0.596751 0.284050 -0.352989 0.234458 -0.237123 0.671271 -0.220830 0.284890 0.492332 -0.054297 0.673916 -0.569623 0.436752 -0.362664 -0.553083 0.151490 0.592488 -0.081307 -0.109590 -0.121149 0.148685 0.071580 0.146957 -0.252926 -0.567861 -0.006092 -0.077289 -0.363980 0.373280 0.146384 0.458626 0.347183 0.389253 -0.184596 -0.199842 0.384462 0.364761 -0.478344 -0.355234 -0.369119 -0.678134 0.410786 
which -0.060881 -0.166129 0.227339 0.228900 0.090555 -0.016435 -0.608153 -0.105778 0.015997 0.289330 -0.057626 0.502299 -0.152265 -0.036872 -0.308848 0.135049 0.215631 -0.246588 -0.050014 -0.117125 0.016038 0.028072 0.281960 -0.132860 0.209752 -0.087787 -0.022365 0.100024 -0.130833 -0.037120 -0.171225 -0.134725 -0.345786 0.177330 -0.031076 -0.157557 -0.083543 0.154656 -0.169479 -0.326670 0.077930 -0.004335 -0.282823 0.666961 -0.013689 0.019079 -0.047067 -0.256415 0.048731 0.091473 
potassium 0.565463 -0.698119 -0.259830 0.382234 0.120184 -0.526060 -0.432391 0.795381 -0.458300 0.074273 -0.130033 -0.224251 0.632751 -0.174199 0.390572 0.375603 0.123106 -0.596463 0.864316 0.603393 0.032200 0.883366 0.581499 -0.822662 0.042220 0.207711 0.695517 0.436684 0.155446 0.312993 -0.222777 -0.720917 0.535128 -0.065609 -0.569980 0.430592 0.632057 0.115605 0.340886 0.195626 -0.455907 -0.050881 -0.802072 -0.466289 0.072471 -0.044432 -0.290127 -0.081154 -0.720728 -0.117386 
creatinine -0.166568 -0.419070 0.503460 0.295359 0.302608 -0.999383 -0.022791 0.354256 0.253187 0.124810 0.091203 -0.346737 -0.138430 -0.023189 0.351071 0.340777 0.472195 -0.033595 0.622689 0.018774 0.091968 0.062299 0.333189 -0.581366 0.888845 0.426610 0.650865 0.464313 -0.003800 -0.138892 0.204056 -0.761460 0.676660 0.488637 -0.634669 0.723152 -0.421122 -0.399247 -0.203423 -0.370147 -0.362856 0.255429 -0.347658 -0.190584 0.060729 0.073989 -0.136363 0.641613 -0.082928 -0.395007 
showed 0.043383 -0.113021 0.559679 0.199467 0.038905 -0.183256 -0.391812 -0.067067 0.211434 0.180059 -0.197654 0.496361 -0.115418 0.337659 0.021633 0.288831 0.234704 -0.558784 0.367508 -0.321480 0.360415 0.447440 0.546400 0.077459 0.221421 -0.201064 0.065203 0.033122 -0.309130 -0.173970 0.042477 0.181476 -0.418066 -0.085649 0.255114 -0.299048 -0.378792 -0.198714 -0.215322 -0.257817 -0.129300 -0.162155 -0.137217 0.533643 0.105009 0.196026 -0.164733 -0.100185 0.184232 0.291384 
sodium 0.740819 -0.872347 -0.213880 0.180059 -0.053720 -0.388926 -1.011823 0.663030 -0.705139 0.010840 0.040346 -0.003412 0.502390 0.204469 -0.237986 0.537511 0.004419 -0.370004 0.618242 1.009375 0.231544 0.334735 0.444297 -0.637642 0.032943 0.295773 0.756304 0.343108 0.245915 0.611511 0.001160 -0.462171 0.102281 -0.071137 -0.555926 0.242293 0.183166 -0.110630 -0.026401 0.026307 -0.415045 -0.181419 -0.528363 -0.428781 -0.022385 0.463514 -0.153971 -0.553206 -0.516472 0.103731 
pt -1.180892 -0.260431 -0.717048 0.287250 0.399305 -0.134442 0.093075 -0.378732 0.462143 -0.107735 -0.373993 0.635933 -0.019275 0.333710 -0.567952 0.324187 0.281010 -0.019057 0.487916 -0.136494 -0.288618 0.013918 -0.084304 -0.140433 0.897532 0.272794 0.336503 -0.278973 0.164433 0.584552 0.182579 -0.256232 -0.478529 -0.280168 -0.032974 0.585731 -0.224181 -0.016054 0.055683 -0.545434 0.021547 -0.048276 0.283090 -0.129990 0.440340 -0.096148 0.059061 0.113219 -0.488447 0.334193 
history -0.339113 0.522097 0.540303 -0.720921 -0.207543 0.069455 -0.065706 0.051607 -0.121206 -0.048544 0.492470 0.037090 -0.262238 0.143046 -0.194831 0.744159 0.001497 -0.027269 -0.474087 -0.420314 0.076136 0.018953 0.319146 -0.671501 0.298081 0.362553 0.023919 0.117318 -0.636416 -0.129819 0.058074 -0.025498 0.268337 -0.205566 0.085210 -0.240838 -0.508336 0.356562 0.131579 -0.039021 -0.294925 0.044426 0.533161 -0.163532 0.447723 -0.048638 0.480950 -0.651823 -0.435001 -0.713721 
chest -0.461129 -0.374324 0.616140 0.148082 -0.337362 -0.047387 -0.303722 0.126604 0.082100 -0.068337 0.260170 0.566556 -0.304100 0.485143 -0.558632 0.162345 -0.174185 -0.420392 -0.430612 -0.475348 -0.166089 0.100765 -0.260592 -0.063838 -0.303289 0.191479 -0.133330 0.017072 -0.651427 0.019599 -0.121969 0.431343 -0.306224 0.755382 0.288298 -0.101131 -0.453064 -0.204525 0.405173 0.066551 0.304449 -0.051613 -0.562685 0.055328 -0.140391 0.215413 -0.107819 -0.264640 -0.173193 0.468886 
white 0.185579 0.361366 0.757477 0.097067 0.402725 -0.362371 0.254439 0.574556 0.460926 0.372621 0.213632 0.436403 0.349651 0.375624 -0.117009 0.365148 0.649761 -0.058733 0.499355 0.517572 0.356668 -0.366706 0.296018 -0.848830 0.073549 -0.559946 -0.116725 -0.127399 0.868114 -0.090145 -0.197133 0.296921 -0.324328 0.559717 -0.224853 0.534433 -0.264782 -0.648934 0.470889 -0.452111 0.289518 0.091235 0.246969 -0.190822 -0.079416 0.106915 0.222696 -0.462815 0.011150 0.128268 
wbc 0.121202 -0.234506 -0.501317 0.154603 -0.004376 0.637155 0.605276 0.711024 0.596293 0.229139 0.247856 0.376223 -0.311278 -0.662506 -0.223691 -0.368994 0.792066 0.451723 0.178175 0.367317 -0.229912 -0.188344 0.619702 -0.357041 -0.019452 -0.246239 0.634508 -0.280724 -0.297619 -0.192809 0.682748 -0.092707 -0.943364 -0.325536 -0.027520 0.275470 0.106397 -0.397132 0.069287 -0.076102 0.307308 1.024629 -0.185630 -0.475643 0.415292 -0.600206 -0.479999 -0.131740 -0.527384 0.133675 
normal -0.380892 0.204222 0.451015 0.488142 0.238076 -0.407742 0.372957 0.074913 -0.006537 0.134810 0.670867 0.579367 -0.411580 0.351768 0.350572 0.320033 0.431099 -0.134823 -0.007714 0.174010 0.216915 0.625710 0.694357 -0.081048 -0.560877 -0.313740 0.317797 0.522770 -0.158623 0.002969 -0.244883 -0.057832 -0.228398 -0.250875 0.180832 0.124031 0.360390 -0.362257 -0.039176 -0.280295 -0.735994 -0.195735 -0.843234 0.500666 0.227997 -0.088161 -0.469859 0.345173 0.073626 0.224982 
mcv -0.052652 -0.108906 -0.666691 0.348377 -0.374834 0.586330 0.013474 0.263630 -0.980806 -0.048840 -0.320620 -0.151632 -0.030194 0.683619 -0.399252 0.469512 1.174516 0.989786 0.850443 1.069210 0.009778 -0.362767 0.197583 -0.196884 -0.336830 -0.538971 0.489819 0.098614 0.201103 -0.329709 1.313292 0.177774 0.534038 -0.743974 0.369882 -0.185300 -0.378460 -0.068121 0.751919 -0.335594 0.697600 1.009994 -0.081789 -0.211395 0.713369 -0.445418 -0.265374 -0.077215 -0.419584 0.287372 
bun 0.121750 -0.846479 0.563554 0.168716 0.167201 -1.063205 -0.051616 0.332301 0.084994 -0.080421 0.254127 -0.037388 0.452116 -0.067696 0.400940 0.388650 0.607261 -0.080741 1.063199 0.320863 0.284558 0.058229 -0.040457 -0.625569 0.581991 0.202514 0.819654 0.429540 0.101759 0.036631 0.720180 -1.102597 0.755113 0.192974 -0.623571 0.790188 -0.117802 -0.099777 -0.373060 -0.218583 -0.225530 -0.134088 -0.497569 -0.475656 0.041049 -0.052408 -0.186567 0.390505 0.071627 -0.586282 
hct -0.260554 -0.187346 -0.528204 0.201703 -0.764687 0.446813 -0.044623 0.217171 -0.176642 0.011805 0.109395 0.279980 -0.145295 0.131995 -0.534359 0.099228 0.772751 1.082017 0.673723 0.611274 -0.095325 -0.215890 0.282858 -0.288413 -0.453177 -0.222010 0.600156 -0.208723 0.239599 -0.277998 1.272320 0.627700 -0.299321 -0.189610 0.236049 -0.456873 -0.101141 0.043676 0.322113 -0.271975 0.888425 1.273006 -0.137067 -0.478214 0.980253 -0.360189 -0.419393 0.309614 -0.782788 0.307348 
5 0.705790 0.709448 0.029943 0.263152 -0.428591 -0.074846 -0.132708 -0.012196 0.352590 -0.325764 0.177052 -0.281081 -0.375233 -0.914335 0.509048 -0.087853 0.640951 -0.374925 0.605473 0.112467 0.151274 0.103906 -0.251781 -0.730683 0.156513 0.123475 -0.762648 0.742575 -0.347393 0.201380 -0.146370 -0.008106 -0.306119 -0.704904 0.360703 -0.012352 0.350610 -0.520463 0.221097 0.588060 0.677934 -0.006005 -0.533227 -0.668314 0.289443 0.750989 0.166234 -0.270143 0.110668 0.212146 
status 0.458945 0.044913 -0.301262 -0.437184 0.360371 -0.066987 -0.002277 -0.346195 0.176147 -0.333609 0.421268 0.404955 -0.254093 -0.234237 -0.877573 0.701055 -0.085770 0.286568 0.167949 -0.370427 0.176198 -0.577302 -0.177542 -0.031767 0.195303 -0.352803 -0.326274 -0.231438 -0.364512 -0.040271 0.348053 -0.108619 0.959834 0.412943 -0.295202 -0.497826 -0.108772 -0.320040 0.039353 0.314185 -0.246759 -0.516408 0.023664 0.439780 0.435454 0.329220 0.593573 -0.369821 -0.542940 -0.580906 
rbc 0.452574 -0.030229 -0.596674 0.121505 -0.366666 0.803751 0.688339 0.639366 0.551971 -0.029615 -0.031387 0.499268 0.059796 -0.775353 -0.238178 -0.210883 0.502336 0.547030 0.483938 0.793723 -0.070129 -0.161846 1.017990 -0.168607 -0.184128 -0.081233 0.362249 -0.806484 -0.336043 -0.176359 1.187633 0.185363 -0.816325 -0.031248 0.260564 0.194007 0.414585 -0.236863 0.243929 -0.039301 0.974824 1.335659 -0.469992 -0.607065 0.599124 -0.790711 -0.397727 -0.340894 -0.538462 -0.263911 
hgb 0.262361 -0.299979 -0.913031 0.240712 -0.517668 0.776507 0.050117 0.345025 0.120366 0.299084 -0.350791 1.012943 -0.319590 0.015013 -0.419443 -0.217399 0.667788 0.364857 0.972969 0.808303 -0.196450 -0.159694 0.951164 -0.274209 -0.145392 0.081665 0.569355 -0.779640 0.307776 -0.244672 1.514604 0.195368 -0.568838 -0.218982 0.331905 -0.145595 0.189773 -0.181786 0.166292 0.016438 0.781635 1.299479 -0.481613 -0.546586 0.874084 -0.423338 -0.493969 0.319732 -0.746952 -0.178948 
were -0.045077 -0.068455 0.094508 -0.290748 -0.114256 0.221871 -0.369963 0.062629 -0.166404 0.362478 -0.088094 0.410898 -0.073633 -0.178805 -0.184902 0.265758 0.040336 -0.194575 0.010082 0.250169 -0.051302 0.584483 0.177972 -0.229611 -0.206012 -0.397262 -0.023224 0.168591 0.037111 -0.050713 -0.207451 -0.108119 -0.115384 -0.114453 -0.345462 0.387921 -0.188144 0.186482 0.049508 -0.048601 0.213927 -0.151154 -0.469916 0.388391 0.340232 -0.015494 -0.127984 0.188580 0.147898 0.265034 
negative 0.010712 0.105235 -0.044285 0.117778 0.551497 0.037551 -0.316308 -0.136564 0.527152 1.428353 -0.334169 0.560508 -0.028395 0.668565 -0.586928 0.301144 0.106401 0.176120 -0.639395 -0.155606 0.615886 0.254836 0.104035 -0.870704 -0.163675 -0.548919 0.090996 -0.191752 0.220511 0.007511 0.318822 0.140444 -0.147255 -0.227141 -0.502668 1.010659 0.745381 0.059181 0.270913 -0.321354 0.399266 0.411727 -0.688439 0.422689 0.316726 -0.389053 0.840023 -0.289652 0.138161 0.103208 
chloride 0.553652 -1.035331 -0.206130 0.311514 -0.271727 -0.790578 -0.274814 0.580742 -0.291337 0.402125 0.606850 -0.475996 0.881337 -0.450049 0.642995 0.195382 0.655233 -0.291693 1.164794 0.814739 -0.137449 0.710671 0.668977 -0.595032 0.208701 -0.001928 1.179221 0.160816 -0.091855 0.219871 0.282142 -1.077276 0.724752 0.116802 -0.495141 0.161075 0.549697 0.074996 0.111932 -0.101486 -0.511620 0.164981 -1.032857 -0.674418 -0.114170 0.117137 0.064452 -0.130473 -0.665352 -0.734510 
rdw -0.586622 -0.644742 0.048352 1.689625 -0.429501 -0.145800 0.284061 0.563669 -0.056760 -0.425890 0.353780 -0.726193 -0.234611 0.599710 -0.532303 0.735223 1.707149 0.726968 1.242270 0.361274 0.727464 -1.065748 -1.086696 0.295345 -0.018093 0.045818 0.513193 -0.142077 -0.076334 -0.007045 0.652884 -0.469072 0.021040 -0.685336 0.011526 -0.072527 0.166547 0.594365 1.431572 -0.165962 0.783770 0.219214 -0.207762 0.067397 0.585412 -1.489890 -0.034370 -0.359076 -0.802260 0.485844 
mch 0.040526 0.057029 -0.175795 1.368970 -0.561368 0.442897 0.468943 0.913803 -0.985288 -0.506073 -0.108320 -0.455216 -0.163742 0.667866 -0.293736 0.920885 1.537313 1.052948 0.907422 1.449269 0.111920 -0.097789 -0.024176 0.079484 -0.254867 -0.209640 0.833742 0.282380 0.195100 -0.541717 1.190330 0.080214 -0.101412 -0.465643 0.328786 -0.194081 0.019078 0.470692 1.331672 0.365867 0.714005 0.668234 -0.025603 -0.042800 0.953125 -0.416778 -0.418067 -0.187802 -0.362591 0.182379 
q.d. 0.223604 -0.695945 0.161204 1.096024 0.807389 0.517376 -0.270789 -0.739096 -0.342144 -0.063218 0.806777 -0.298343 -0.200985 -0.139827 0.662837 0.123787 0.565346 -0.153628 -0.229903 0.225187 -0.197423 -0.161032 -0.104650 -0.288642 0.540495 0.675249 -0.261340 -0.033633 -0.075930 0.834230 -0.643037 0.019238 0.358865 -0.474421 -0.055277 0.316601 0.538223 0.877835 0.566626 -0.165558 0.042217 0.087261 -0.159961 -0.604265 1.034944 0.868453 0.148871 0.094488 0.439641 0.260445 
mchc -0.625077 -0.678434 0.024365 1.187483 -0.657670 0.349552 0.702105 0.692557 -0.565122 -0.412038 0.296656 -0.611582 0.059932 0.604557 -0.368339 1.016368 1.866734 1.110180 0.951203 0.589078 0.147260 -0.463181 -0.622746 0.214250 -0.343966 -0.354896 1.129902 0.260245 0.157857 -0.317265 0.852202 -0.567448 0.084975 -0.357677 -0.025102 -0.166368 0.063712 0.811908 1.013001 0.426691 0.663376 0.390213 0.098537 0.142462 0.914084 -0.794757 -0.635138 -0.262187 -0.605181 0.645443 
day 0.204024 0.027817 0.061390 0.107192 0.359681 -0.152072 -0.509112 0.341614 -0.458585 -0.340948 0.363595 0.188599 -0.083632 -0.549135 0.553756 0.039238 0.513536 -0.080605 -0.102572 -0.101847 -0.132861 0.335282 0.014096 0.227920 0.196326 0.081760 -0.635520 0.014330 -0.477856 0.596184 0.208077 0.238483 -0.142411 0.126358 -0.235000 0.042538 -0.264440 -0.031194 0.633054 -0.071013 -0.148898 -0.208009 -0.413613 0.150252 0.016511 0.328910 -0.213084 -0.333057 0.268920 -0.080458 
total -0.441110 -0.743595 0.048299 -0.375852 0.429086 -0.126378 -0.802056 0.187080 -0.213055 0.048185 0.194920 -0.297224 -0.151159 -0.420872 0.062832 0.236695 0.138777 -0.056635 0.745240 0.336947 0.527683 0.073146 0.203099 -0.194776 -0.165504 -0.263203 -0.599965 -0.055504 0.126727 -0.226834 0.740858 -0.462532 -0.265320 0.938871 -0.399297 0.283926 0.381389 -0.378043 -0.630158 -0.018617 -0.306397 0.074578 -0.468626 -0.529532 -0.289290 0.195085 -0.204224 0.281375 -0.774821 -0.518914 
that -0.002441 0.072202 0.241892 0.265730 0.153149 0.024310 -0.518408 -0.349093 -0.161624 0.149882 0.095790 0.366245 0.145349 -0.321706 -0.364659 0.269339 -0.178931 0.044306 0.031148 0.015722 -0.321462 0.028514 0.097712 -0.176464 0.331956 -0.436369 -0.255434 0.084331 -0.248477 -0.317821 -0.084623 -0.004719 -0.107874 0.357923 -0.138688 -0.031329 -0.310861 0.216162 -0.256787 -0.180421 0.352247 -0.061599 -0.303138 0.594396 0.029835 -0.047560 0.140496 0.236543 0.022869 0.455301 
from -0.029218 0.000583 0.163856 0.015700 -0.225081 0.187579 -0.250904 0.643786 0.160367 0.434429 0.094851 0.479171 -0.056957 -0.331753 -0.366916 0.262871 -0.093767 -0.138629 0.070427 0.015162 0.244145 0.140406 -0.167548 0.045594 0.115490 0.360879 -0.150742 0.159767 -0.260422 -0.008485 -0.269794 0.139557 -0.036837 0.284463 -0.116007 -0.089411 -0.340403 0.073908 0.132089 0.134709 0.269792 -0.029848 -0.120364 0.154944 0.207709 0.178522 0.279848 0.320420 -0.100131 0.076483 
20 0.391970 -0.536994 -0.364307 -0.124793 0.644522 -0.619265 -0.358695 -0.125902 0.004967 0.205260 0.182514 -0.425532 -0.320150 0.141224 0.600305 0.409780 0.246523 -0.336508 0.268342 -0.305708 -0.102729 0.429923 0.168176 -0.215579 0.137266 -0.016442 -0.091784 0.270887 -0.305609 0.338191 -0.106032 -0.297137 -0.013201 0.209329 0.627100 0.353945 0.000479 -0.033410 0.562948 0.177877 0.068433 0.282211 -0.087507 -0.663315 0.638394 0.447786 0.240425 0.150044 0.441099 0.245448 
this 0.054494 0.129289 0.314057 0.172108 0.191144 -0.005229 -0.509363 -0.014591 -0.141990 0.005601 0.267215 0.415405 0.178611 -0.441477 -0.046241 0.237422 -0.419701 0.188432 0.136269 0.286273 0.110164 -0.348354 0.260253 -0.277187 0.687650 -0.520088 -0.165790 0.255518 -0.374299 -0.187167 0.005533 0.034711 -0.099661 -0.057832 -0.123358 0.175624 -0.395816 0.309484 -0.208042 -0.423199 0.166358 -0.459392 -0.066489 0.180019 0.178663 -0.130908 0.282065 0.188045 0.104641 0.312431 
plt -0.858542 -1.000476 0.135157 1.354922 0.156455 0.599309 0.312626 0.652060 0.239676 0.221429 -0.341652 0.367909 -0.198157 0.799347 -0.603973 0.606598 1.312413 0.120298 1.239939 0.063283 0.287195 -0.584592 -0.752286 0.347803 0.369413 0.832082 0.079552 -0.344865 0.377101 -0.048544 0.316941 -0.194461 -0.262957 -0.871845 0.121519 0.474454 0.368749 0.179985 1.005774 0.211500 -0.224518 0.055304 -0.131794 -0.286597 0.727105 -0.967379 -0.369359 -0.602044 -0.688985 0.505968 
disease -0.020616 0.474674 -0.004751 -0.555400 0.086426 0.152474 -0.073149 -0.258390 0.139988 0.102905 0.221300 0.289390 -0.187909 -0.052389 -0.693168 0.645557 -0.211398 0.131402 -0.163333 -0.422731 0.029947 0.234660 0.212400 -0.174893 -0.072236 0.035760 -0.134440 0.476243 -0.304670 -0.272214 0.354249 -0.239119 0.516399 0.171517 -0.152024 -0.834217 -0.134189 0.010329 0.127885 0.327188 0.287035 0.007130 -0.056586 0.342285 0.183174 0.214873 0.224450 -0.746100 -0.631167 -0.780220 
post 0.524578 0.176711 -0.350809 -0.549396 0.302898 0.134636 0.159849 -0.284086 0.487971 -0.348802 0.337671 0.308894 -0.268147 -0.178902 -0.924021 0.895661 0.174997 0.630572 0.136181 -0.197771 0.440162 -0.170799 -0.199933 -0.020237 0.190154 -0.225252 -0.458113 0.082157 -0.256836 0.046261 0.333906 0.062881 0.943953 -0.031163 -0.249954 -0.462857 -0.194285 -0.476108 -0.083439 0.399166 -0.432329 -0.315691 0.014898 0.525045 0.325870 0.601226 0.571110 -0.446915 -0.665326 -0.483643 
hematocrit -0.385590 -0.000273 0.356563 0.151262 0.094367 -0.833555 0.145413 0.382593 -0.010451 -0.318528 0.442193 0.143237 0.558658 -0.128936 -0.574356 0.424165 0.643532 0.276579 0.307834 0.283131 -0.261793 -0.433812 0.540856 -0.648167 -0.342440 -0.327747 0.532130 0.145721 1.282679 0.252000 0.157561 0.495777 -0.069794 -0.058816 -0.436763 0.696424 -0.599077 -0.577464 0.631022 -0.301747 0.582809 -0.009826 0.196612 -0.005276 0.336428 0.182432 0.311585 -0.178292 -0.072993 0.233022 
revealed 0.229035 -0.070751 0.352016 0.202455 0.154020 -0.004713 -0.687399 -0.140819 0.036081 0.077035 -0.229416 0.680613 0.131526 0.375621 -0.269254 0.263904 0.346168 -0.376952 0.202909 0.081974 0.483687 0.207687 0.405727 0.000203 -0.157040 -0.405164 0.218779 0.300553 -0.122172 -0.433226 -0.035560 -0.115282 -0.260808 -0.152985 -0.065788 -0.416093 -0.280396 -0.123142 -0.076764 -0.152395 -0.072480 -0.205857 -0.215836 0.355010 -0.082305 0.160540 -0.084035 -0.304688 -0.208515 0.033570 
by 0.007711 -0.082094 0.597424 0.073628 0.349446 0.060883 0.145697 0.168032 0.260594 -0.327289 0.316275 -0.075116 0.065440 -0.232319 -0.010721 0.278267 -0.123650 -0.217171 0.211593 0.048163 0.429781 -0.015792 0.014476 -0.309154 0.174911 0.358512 -0.138065 -0.166622 -0.051791 0.165217 -0.238211 0.085608 0.205411 0.479342 -0.191747 0.097621 -0.274013 0.269286 -0.092704 -0.424798 -0.149629 0.299525 -0.457604 0.969869 0.135936 -0.297689 -0.154698 0.007030 -0.093031 0.095995 
but -0.212223 0.004955 0.144430 -0.281847 -0.229895 -0.041512 -0.013055 -0.244138 -0.101317 0.428546 0.177213 0.461297 0.005997 -0.120394 -0.300185 0.262732 0.171329 -0.290421 -0.132536 0.374241 -0.164286 0.047112 0.185817 0.042098 0.133961 -0.225414 -0.290804 -0.149846 -0.057065 -0.439975 -0.028003 -0.266979 0.217985 -0.083896 0.011228 0.120748 -0.223991 0.213926 -0.250877 -0.455427 0.201953 -0.292247 -0.563035 0.631789 0.322297 0.062855 -0.008704 -0.122900 0.478557 0.370823 
2 -0.114402 -0.312511 0.244285 -0.297512 0.526509 0.261542 0.004753 -0.129813 -0.475663 0.056156 0.421153 -0.181284 -0.365533 -0.108874 0.087371 -0.112033 0.477948 -0.180347 0.180827 -0.083080 -0.110875 0.159400 0.066834 -0.256557 0.184012 0.321563 0.151951 0.174273 -0.371653 0.855059 -0.025564 0.045266 -0.281360 -0.373270 0.141963 -0.113647 0.836027 0.084704 0.229628 -0.333211 0.030033 0.213770 -0.370288 0.114251 0.000788 0.178213 0.015207 -0.652942 0.334330 -0.217026 
b.i.d. 0.588048 -0.591170 0.408300 0.546627 0.872407 0.656358 0.301476 -0.908462 -0.524805 -0.540082 0.267161 -0.256169 0.137441 -0.408678 0.868789 0.200507 0.560187 -0.149501 -0.287872 0.159413 -0.092118 0.160766 -0.324850 -0.211454 -0.198708 0.279502 -0.138159 0.029643 -0.551637 0.855578 -0.329551 -0.077111 0.002294 -0.322059 -0.109031 0.212308 0.220337 0.462969 0.703032 -0.381183 -0.210373 0.374014 0.137916 -0.577823 0.957123 0.640270 -0.134663 0.399699 -0.125599 0.410973 
am -0.064018 -0.147115 0.197223 0.499215 0.591185 0.727373 0.136445 0.805764 0.510805 0.288108 0.221926 -0.161738 -0.290459 -0.668885 -0.000055 -0.302267 0.471027 0.081491 0.004398 0.669856 -0.315735 -0.108248 0.178463 -0.121891 0.685668 -0.201439 0.764443 -0.208170 -0.216027 -0.604252 0.081646 -0.475998 -0.450446 -0.122445 0.564806 0.400332 0.473321 -1.157736 0.338202 0.205101 0.696489 0.863317 0.144431 -0.394042 0.665884 -0.463024 -0.504387 -0.067396 0.009280 0.395240 
100 0.792259 -0.573623 0.018482 0.118741 0.774260 0.066128 0.064402 -0.508657 -0.337519 -0.144189 0.087521 -0.237761 -0.028609 -0.162215 0.399418 0.444277 0.360647 -0.327439 -0.161234 0.018079 0.027208 -0.098923 0.057903 -0.198517 0.215857 -0.133217 0.003962 -0.011748 -0.413301 0.762114 -0.365851 -0.147042 0.157927 0.213359 0.158532 0.160512 0.148342 0.012470 0.376693 0.201906 -0.280739 0.159844 -0.059635 -0.559018 0.365423 0.736097 -0.144848 0.154703 -0.020763 0.193757 
time -0.274332 -0.182282 0.456977 -0.039430 0.309209 -0.667123 -0.702238 -0.158879 0.003401 -0.410914 -0.595090 0.123728 0.662360 -0.239743 0.053815 0.840602 0.334345 0.176295 -0.135040 0.232055 -0.175228 -0.033478 0.413791 -0.645510 0.109518 -0.455624 -0.163583 0.294026 -0.312949 0.219666 0.508809 0.292692 -0.061270 0.424867 -0.239492 -0.377371 0.131542 -0.342283 0.235420 -0.088542 0.270205 -0.304208 0.233053 0.334556 0.034081 -0.105145 0.124542 0.611110 0.049567 1.050290 
be 0.294881 -0.082917 0.051338 0.189165 0.039428 -0.174392 -0.322635 -0.222576 -0.067848 0.214020 -0.135298 0.263987 0.018717 -0.591280 -0.277647 -0.069756 -0.047132 0.275244 0.205421 0.144619 -0.381341 0.146193 0.166022 -0.024889 0.405204 -0.114020 -0.298104 0.131665 -0.026589 -0.334211 -0.277573 -0.131964 0.098268 0.355108 -0.143239 -0.101431 -0.315534 0.416829 -0.026294 0.056255 0.612232 -0.068026 -0.071982 0.511944 0.293149 -0.065661 -0.104438 0.384648 0.080077 0.130821 
neg 0.208659 -1.238648 0.421991 1.062942 0.280259 -1.113686 -0.893052 0.153534 0.850518 0.985845 -0.063252 -0.243976 -0.883373 -0.730311 -0.415102 0.529922 -0.974007 1.536341 0.219653 0.813345 -0.521957 -1.149499 0.485877 0.872721 -0.832371 0.233540 -1.501151 -0.419438 -0.813474 -0.744220 -0.762005 -0.984542 -0.008050 -0.559020 -0.314173 0.674138 0.689454 -1.311914 0.180641 -0.391854 -0.228586 0.317746 -0.528428 -1.110834 0.153408 0.351567 -1.416108 -0.734108 -0.469157 0.065856 
admission 0.299479 0.103166 0.116805 -0.054365 0.107504 -0.435001 -0.817431 0.330016 0.088497 -0.078849 -0.169624 0.289089 0.148482 -0.226464 -0.196805 0.489899 0.252977 -0.064189 -0.011120 0.122825 -0.142142 0.025804 0.244979 -0.098620 0.088281 -0.275945 0.129267 0.158882 -0.182417 0.373668 -0.081201 0.334633 -0.037414 0.218286 -0.415828 -0.185357 -0.586191 -0.022549 0.060314 -0.332548 0.160788 -0.149216 -0.425829 0.207943 0.072867 0.222219 0.023178 -0.193120 0.188792 0.482208 
calcium 0.238315 -0.459570 0.190100 0.076350 0.127393 -0.193673 0.184238 -0.133186 -0.341213 0.251468 -0.484623 0.044396 -0.266660 -0.223319 0.536416 0.235641 0.207139 0.026569 0.144298 0.071269 0.119801 1.225667 -0.205411 -0.750044 0.053340 0.299746 -0.041377 -0.377396 0.315655 0.195646 0.639883 -0.026201 -0.141660 -0.005383 -0.462239 0.215944 -0.312697 -0.805012 0.278151 -0.304720 0.172199 0.616985 -0.162656 -0.666782 0.108472 -0.016496 -0.615032 0.410397 -0.641254 -0.383010 
s/p -0.810073 -0.282731 0.590321 -0.180205 0.190442 0.253609 0.927658 0.252137 0.367166 -0.615193 -0.459588 -0.186060 0.191519 0.000342 -0.085383 0.512037 -0.910965 0.282856 0.516371 -0.156337 1.217716 -0.087905 0.106545 -0.218863 -0.360052 -0.253427 -0.796336 0.180034 -0.088092 0.021393 0.451547 0.213705 0.617640 -0.385330 -0.251025 -0.466095 0.021437 0.009130 -0.168767 0.298233 -0.154720 0.293497 -0.286997 0.398192 1.023337 0.819380 0.508987 -0.118062 -0.154320 -0.398201 
1 0.055400 -0.226530 0.063141 0.088177 0.334918 0.360696 -0.174912 -0.161711 -0.468450 0.016097 0.505783 -0.283219 -0.114062 -0.244292 0.017869 -0.037905 0.390765 -0.353248 0.117324 0.103396 0.093649 -0.480402 0.316367 -0.146535 0.418969 0.357908 -0.367347 0.002176 -0.414440 0.652691 -0.130767 0.010441 -0.426425 -0.217990 0.243146 0.029279 1.001895 0.309499 0.145316 0.108614 0.034353 0.548286 -0.398686 0.070652 -0.060007 0.492122 0.336869 -0.239542 0.397728 0.324570 
artery 0.483240 -0.144869 0.016375 -0.632445 0.511971 -0.363824 0.292198 -0.450339 0.266035 0.128981 0.401990 -0.208488 -0.712989 0.282469 -0.691507 0.432745 0.007134 0.763602 0.269587 -0.188600 0.034900 0.386918 0.135431 -0.377557 -0.180083 -0.154381 0.236564 0.077318 -0.881644 -0.070797 0.344233 -0.257846 0.294384 0.740809 0.194419 -0.899079 -0.180786 0.089100 0.240719 0.444461 0.438035 0.070953 -0.100209 0.731227 -0.072401 0.083184 0.282258 -0.688636 -0.276765 -1.246435 
creat 0.604007 -0.117283 -0.273770 1.493397 0.144219 -1.052074 -0.489420 0.181317 -0.307789 -0.203141 0.141539 -0.532353 0.188974 -0.278191 -0.928453 0.277195 0.396169 -0.472120 0.751144 0.840253 -0.071282 0.943450 0.117028 0.443053 1.124446 -0.001165 0.258749 0.356161 0.804626 -0.101257 1.283646 -0.567856 0.519135 -0.046460 0.585183 0.545704 0.266437 -0.752074 -0.415813 -0.229710 0.325100 0.659570 -0.540220 -0.652873 0.446396 0.082403 -1.007074 0.109626 -0.217739 -0.277487 
who -0.399076 0.361105 0.655620 -0.241926 0.236649 0.177867 0.071415 0.064915 -0.060085 -0.134576 0.327519 -0.063771 -0.052540 -0.494482 -0.151069 0.859332 -0.320392 0.162207 0.221246 -0.199150 0.377426 -0.219348 0.116088 0.269564 0.177195 0.687789 -0.320735 -0.147025 -0.477139 0.148083 -0.095332 0.348650 0.367832 0.460008 -0.449047 -0.083968 -0.564814 0.115647 0.185564 -0.155192 -0.138769 0.147634 0.125323 0.340938 0.292661 -0.099608 0.060257 -0.576115 -0.331470 -0.079333 
pressure 0.398641 -0.166987 -0.051617 0.152730 0.488973 0.184893 0.062173 0.138447 0.015561 -0.021109 0.672784 0.024395 -0.316807 0.691432 -0.025915 0.498362 0.092856 -0.372549 0.198728 0.014421 -0.755320 0.487210 0.191535 -0.389889 0.061034 -0.692595 -0.187021 0.280476 -0.326587 -0.139926 -0.164364 -0.018179 -0.184007 0.073448 -0.215747 -0.122158 -0.734219 -0.182828 -0.068363 0.196059 0.304887 -0.167948 0.383034 -0.336748 -0.047741 -0.392047 -0.631020 0.196283 0.653630 -0.006145 
coronary 0.556114 0.135519 0.212999 -0.478539 0.801599 -0.548434 -0.537529 -0.316631 -0.136655 0.260096 0.295309 -0.099200 -0.118963 0.290171 -0.884249 0.693409 0.228981 0.960540 0.380918 -0.845850 -0.255024 0.255382 0.129432 0.030593 -0.074520 -0.014524 -0.024536 0.298570 -0.837256 0.077128 0.213010 0.126300 0.511114 0.529040 0.053140 -0.789348 -0.360990 0.020345 0.356272 0.224582 0.046704 0.172014 0.134391 0.722996 -0.103428 0.093702 0.397059 -0.714570 -0.686438 -1.074250 
cell 0.219292 0.163355 0.519345 0.003206 0.630759 0.090668 0.216941 0.282151 0.775007 -0.180419 0.234182 0.371838 0.350670 0.294152 -0.428553 0.421241 0.437706 -0.152217 0.260700 0.107941 0.271717 -0.697537 0.575442 -0.966237 0.034327 -0.775015 -0.103935 -0.486281 1.257954 -0.398541 0.321157 0.794028 -0.056777 0.381276 -0.296309 0.539706 -0.151279 -0.586809 0.217165 -0.212140 0.296855 0.125700 0.064816 0.141474 0.158056 0.276273 0.320251 -0.429400 -0.432129 -0.315341 
prn -0.182417 -0.835639 0.374753 -0.102041 0.106483 0.802139 -0.338234 -0.850203 -0.675591 -0.139456 0.863727 0.125588 0.385882 -0.788478 0.890545 -0.280466 0.301339 -0.488200 -0.556897 0.165490 -0.312287 0.073244 -0.140047 -0.146222 -0.438897 0.399638 -0.926550 0.098482 0.082202 0.928940 0.061255 -0.543501 0.141196 0.351344 -0.110400 -0.172130 0.637949 -0.485137 0.587994 0.402418 0.243822 0.123457 -0.335491 0.374638 0.480915 1.140057 0.082935 -0.512354 -0.232663 0.027459 
10 0.015854 -0.468371 -0.063265 -0.218125 0.420707 0.036210 -0.183518 -0.666945 -0.179390 0.165658 0.052538 0.046313 -0.083265 -0.393120 0.027977 0.280295 0.439880 -0.269737 -0.045524 -0.227966 -0.062176 0.275251 -0.072564 -0.371772 0.307978 0.101290 -0.301175 -0.116244 0.055957 0.463805 -0.043331 -0.039233 -0.381016 0.008300 0.267603 0.130080 0.084739 0.206272 0.160439 0.500858 -0.173825 0.092091 -0.345507 -0.858813 0.411703 0.499649 0.043539 0.432666 0.416362 0.012291 
hypertension -0.441318 0.370761 0.113063 -0.623104 0.064454 -0.242044 -0.030778 -0.247995 -0.066105 0.513185 0.422469 0.072266 -0.398526 0.039249 -0.509727 0.505063 0.122801 0.022682 0.001697 -0.505492 -0.014632 0.400935 0.532564 -0.247680 0.236733 0.405078 -0.105699 -0.342191 -0.260189 -0.495834 -0.245387 0.029740 0.651121 0.343173 -0.503841 -0.372598 -0.487176 0.103652 0.311015 0.639833 -0.095682 0.425069 0.509930 0.058907 0.515990 0.175581 0.190103 -0.840719 0.053259 -0.590770 
well 0.274307 -0.341469 -0.075162 -0.284318 -0.084287 0.145755 0.382641 -0.095481 -0.011201 -0.015505 0.736023 0.435697 -0.405904 -0.211383 -0.449571 -0.275876 -0.024308 -0.414739 0.250809 -0.139010 0.379265 0.538808 -0.098500 0.213439 0.330328 -0.190381 -0.214260 -0.124042 0.092947 0.579183 -0.018120 0.102282 0.238908 0.137401 -0.097714 0.187517 0.068960 -0.230734 -0.131960 0.119661 0.329729 -0.612521 0.009767 0.807955 0.392696 -0.329451 -0.310875 0.576871 -0.008031 -0.243757 
given -0.149138 0.083759 0.055606 -0.101459 0.276233 0.163032 -0.082880 -0.051693 -0.093537 0.105435 -0.009396 0.391894 0.144701 -0.317720 -0.201488 -0.139457 -0.098697 -0.041770 -0.135758 -0.076235 -0.694025 0.077553 0.078797 -0.182768 0.227306 0.070193 -0.393253 0.287642 -0.178815 -0.044568 -0.080475 -0.020204 0.093273 -0.069969 -0.251041 0.334549 -0.461364 0.631438 -0.018365 0.209686 0.262981 0.259884 -0.273166 0.272758 0.169912 0.228108 0.005553 0.040429 0.031470 0.125881 
platelet -0.856781 -0.513905 0.284354 0.033043 -0.104097 -0.769182 -0.250324 0.599216 -0.407686 0.103506 -0.124797 0.507085 0.428394 -0.118431 0.079978 0.725639 1.097999 0.445768 0.322619 0.160850 -0.255095 -1.024295 0.427450 -0.797693 -0.314060 -0.574689 0.815338 0.038316 1.293244 0.251378 0.157104 0.013262 0.437034 0.246535 -0.304818 0.653694 -0.317359 -0.749967 0.783210 -0.752865 0.565365 0.509766 0.423450 0.145740 0.204313 0.338106 0.816285 -0.466276 -0.672622 0.619837 
inr -1.015736 -0.701427 -0.676939 0.600308 0.499517 -0.355239 -0.209552 0.120724 0.293803 -0.253996 -0.915694 0.554234 0.341127 -0.030204 -0.428742 0.870681 0.783533 0.256266 -0.145530 -0.117481 -0.961255 0.429604 -0.032580 -0.941628 0.706053 0.783606 0.754212 0.365748 0.421869 0.680223 0.043202 0.181682 -0.126734 -0.088197 0.465741 0.130398 0.012385 -0.413868 0.523590 -0.248122 -0.297339 0.171828 0.683834 0.219398 0.380084 0.064729 -0.792976 0.343949 -1.005291 0.474806 
bilateral -0.137227 -0.426148 0.369181 -0.069417 -0.493395 -0.189333 0.151095 0.063556 -0.113890 -0.035944 -0.200288 0.333393 -0.248351 0.329530 -0.422631 -0.045181 0.415116 -0.406213 0.121790 0.035245 0.345639 0.430637 0.394369 0.274619 0.239454 -0.800681 -0.407397 0.256654 0.007882 -0.302232 0.250751 0.453872 0.330559 0.008102 0.095423 -0.047047 -0.412240 0.085999 -0.391339 0.399919 -0.045851 -0.024024 0.206800 0.588060 0.411644 0.806580 0.259003 -0.139111 -0.550147 -0.279819 
na 0.518062 0.022353 -0.140601 1.416834 0.181072 -0.527584 -0.799029 0.037313 -0.149509 -0.612882 0.061207 -0.392972 0.877359 -0.163739 -0.705446 0.605481 -0.258247 -0.006333 1.338970 0.502385 -0.408312 1.154944 0.088531 0.027979 1.406803 0.229103 0.002142 0.389229 0.483822 -0.526853 0.960610 -0.585015 0.117477 0.102064 0.401002 0.371955 0.856637 -0.846860 -0.260795 0.191443 0.226780 0.658828 -0.229792 -0.523211 0.455893 0.066701 -0.816732 -0.378204 -0.161004 -0.513590 
pulmonary -0.072107 0.032501 0.344594 0.144957 0.038983 -0.189123 0.270185 -0.185768 0.106324 0.174111 0.137499 0.090432 -0.097468 0.378362 -0.597756 0.186861 0.211940 -0.451352 -0.017531 -0.469981 -0.357579 0.684705 0.302316 -0.316395 0.151044 0.101375 -0.121353 -0.074425 -0.062561 -0.708391 -0.403676 0.032866 0.214785 0.192867 -0.390456 -0.359346 -0.458679 0.155165 0.129661 0.286773 0.637145 0.158309 0.353971 0.393919 0.177467 0.315243 -0.438706 -0.457078 -0.376009 -0.508589 
k 0.448114 -0.262942 -0.240628 1.203163 0.306248 -0.158950 -0.813528 -0.039746 -0.292881 -0.712148 0.311885 -0.436851 1.104257 -0.360150 -0.591113 0.560815 -0.315073 0.159129 1.478115 0.328970 -0.175643 1.712441 0.094447 -0.321325 1.194685 0.353853 0.473983 0.315354 0.654150 -0.242572 1.140009 -0.438440 0.051213 -0.075157 -0.247478 -0.018131 0.727693 -0.551394 -0.956428 0.666208 -0.162893 0.570550 -0.042490 -0.496243 0.660506 0.317423 -0.646559 -0.519046 -0.634549 -0.202896 
cl 0.596590 -0.254630 -0.219914 1.335423 -0.405688 -0.118927 -0.366162 -0.408964 -0.030237 -0.487290 0.744902 -0.996503 1.164295 -0.585057 -0.029917 0.580281 0.318253 0.493169 1.661857 0.077156 -0.207570 1.774528 0.171612 -0.387637 1.149109 0.014335 0.788443 0.307223 0.422374 -0.555331 1.037606 -0.547764 0.199120 -0.219317 -0.131831 0.022454 0.305418 -0.769711 -0.898799 0.159977 0.152739 0.632359 -0.411214 -0.778389 0.503263 0.194407 -0.170310 -0.361987 -0.628024 0.012820 
chronic -0.348284 0.260683 0.121655 -0.147791 -0.558219 -0.355577 0.285771 -0.244193 -0.111049 -0.208854 0.191565 0.110594 0.057614 -0.364538 -0.621942 0.395028 -0.162864 0.244687 -0.036452 -0.990366 0.226365 0.387830 0.551240 -0.510535 -0.484949 0.354120 -0.548618 0.047148 -0.110153 -0.607320 0.121029 -0.541742 0.464242 -0.138648 -0.141536 -0.396951 -0.360651 0.101743 0.344206 0.532524 0.292392 -0.178908 0.634923 0.259578 0.787863 0.180722 -0.186719 -0.402676 -0.440212 -0.650821 
have 0.125192 -0.069319 0.186990 0.106447 -0.296605 0.129167 -0.100607 -0.167141 -0.052697 0.309295 0.039798 0.522675 0.140778 0.032944 -0.284464 0.206723 -0.180016 -0.136682 0.105653 -0.291464 -0.468435 -0.163553 0.283249 0.190406 0.370113 -0.162309 -0.300698 -0.108987 -0.133471 -0.271669 -0.198685 -0.000427 0.327524 0.624015 0.267475 0.196075 -0.289439 0.268047 -0.288083 -0.007640 0.519299 -0.088141 -0.169556 0.463262 0.187727 -0.041318 -0.006004 0.304465 0.170388 -0.235126 
hospital 0.015779 0.515775 -0.112704 0.010455 0.292172 0.153767 -0.712778 0.826219 -0.148110 -0.035683 -0.297190 0.290503 -0.088478 -0.402699 -0.212519 0.714609 -0.174772 0.038145 -0.072745 -0.079576 -0.121288 0.068942 -0.331712 0.280174 -0.168439 0.376686 -0.451788 0.310275 -0.443922 0.162658 -0.011376 0.049128 -0.212778 0.296241 -0.416556 0.166767 -0.286537 -0.154515 0.056716 -0.541893 0.301051 0.144012 0.050699 0.537255 0.388498 -0.130552 0.074177 -0.098143 -0.001153 0.131145 
any -0.180275 -0.128043 0.241274 0.059267 -0.524699 0.378765 0.152873 0.232158 -0.057836 0.847851 1.121538 0.435478 0.362581 0.133015 -0.416492 -0.064629 -0.167999 -0.168259 -0.366902 -0.776001 -0.198704 -0.019417 -0.173630 0.263455 0.200192 0.440598 -0.209755 -0.283007 -0.425649 -0.322931 0.066444 0.001919 0.614401 0.329022 -0.022512 0.152052 -0.137899 0.063158 0.082299 -0.731378 0.911976 -0.402989 -0.440488 0.320094 0.005743 0.229318 -0.076915 0.520773 0.179374 0.325391 
abdominal -0.591497 -0.661597 0.435561 -0.093641 -0.146447 0.280936 -0.151974 0.275847 -0.288660 0.107999 -0.028700 0.581212 -0.065477 0.620451 -0.417720 -0.262079 -0.360560 -0.219635 -0.337254 -0.163398 0.093952 0.022649 -0.028606 0.032676 0.118578 -0.311817 -0.518552 -0.307852 -0.414909 -0.206942 0.391717 0.176429 -0.179260 0.848262 -0.205659 -0.198745 -0.262733 -0.516336 -0.038187 0.126156 0.182620 -0.388979 -0.552566 0.292003 0.248711 0.283512 0.469954 0.275448 -0.177339 -0.058018 
has -0.152945 0.210525 0.200956 -0.265182 -0.203348 -0.011932 0.142412 0.075739 -0.175725 0.115977 0.435072 0.258025 0.295442 -0.139225 -0.472006 0.272066 0.039247 -0.382707 -0.403675 -0.173184 -0.455467 -0.197263 0.021502 0.052949 0.675739 0.000998 -0.199904 -0.171723 -0.386807 -0.023936 -0.172748 -0.169265 0.309314 0.185967 -0.103593 -0.197496 -0.406744 0.245091 -0.070454 -0.291804 -0.336556 0.197239 -0.209755 0.381374 0.036850 -0.345542 -0.045014 -0.300958 -0.201151 0.218893 
not -0.219503 0.289982 -0.225111 -0.080025 -0.290668 -0.001188 -0.165340 -0.041853 -0.074757 0.363679 0.308528 0.195847 0.125143 -0.350343 -0.280098 0.029735 0.465162 -0.134350 0.166094 0.227238 -0.183080 -0.162945 0.347968 -0.024287 0.366713 -0.281242 -0.384406 -0.216848 -0.249780 -0.395655 0.140402 -0.715744 0.457987 0.121973 -0.091197 -0.024465 0.062077 0.176692 -0.281679 -0.037337 0.440954 -0.448597 -0.260856 0.854741 0.229968 0.121051 -0.074434 0.148188 0.442456 0.530018 
also -0.096246 0.017748 -0.053259 0.013169 0.265724 0.028687 -0.144970 -0.039833 -0.311109 -0.118112 0.015359 0.586707 -0.105790 0.022764 -0.198620 0.035678 0.320756 -0.101257 -0.144686 -0.211188 -0.309053 -0.068194 0.080166 -0.292744 0.497880 -0.013497 -0.376841 0.006369 -0.026637 0.016909 -0.130954 -0.290370 -0.018743 0.184298 -0.076189 0.118979 -0.316602 0.315184 -0.346367 -0.130293 0.060155 0.351698 -0.133299 0.460852 -0.106791 -0.141293 0.100097 -0.297258 -0.139185 -0.175667 
albumin -0.252831 -0.421965 0.299609 0.390530 0.163411 -0.406948 0.025743 0.254875 -0.167937 -0.051698 -0.221809 0.331336 -0.019565 -0.272125 0.874860 0.235320 0.496408 0.210606 0.226784 1.053405 0.047862 0.717625 -0.034760 -0.546366 0.419036 -0.075434 -0.447133 -0.087721 0.239832 -0.534454 0.130057 -0.490803 -0.539449 0.913221 -0.767618 0.729274 0.526121 -0.744948 -0.010629 -0.376913 0.205412 0.342811 0.056438 -0.379864 -0.304808 -0.304928 0.000388 0.097441 -0.918178 -0.458759 
urean 0.662078 -0.704749 0.235977 1.472372 0.384551 -0.962506 -0.312155 -0.082343 -0.310261 -0.167207 -0.515558 -0.097083 -0.157327 -0.067577 -1.204348 0.200570 0.362467 -0.409077 0.833359 0.088565 -0.984567 0.114063 -0.874194 0.526361 0.946094 -0.211540 0.677205 0.611172 0.237054 -0.331073 0.951664 -0.419652 0.172435 -0.105212 0.728480 0.964367 -0.044607 -0.759186 -0.213315 -0.517906 0.191948 0.702355 0.341112 -0.861471 0.492450 0.135626 -0.979218 0.333635 -0.040755 -0.483144 
hco3 0.050258 -0.394668 -0.091010 0.964175 -0.798703 0.045558 -0.064797 -0.602835 -0.064057 -0.499573 0.769976 -0.629461 1.320842 -0.530800 0.484352 0.785662 0.205552 0.547636 1.505111 -0.613995 -0.686949 2.114112 -0.302335 -0.734396 1.018352 -0.371916 0.704545 0.281309 0.312610 -0.468896 1.496906 -0.764928 0.378328 -0.220359 -0.252717 0.136341 0.186117 -0.562616 -1.152460 -0.334040 0.169694 1.099057 -0.381974 -1.545943 0.436450 -0.095809 -0.205201 -0.242382 -0.085284 0.061184 
edema -0.129313 -0.101004 0.160250 -0.031968 -0.147301 -0.303974 0.388093 -0.051191 -0.165128 0.689166 0.490465 0.111007 0.333269 0.025701 -0.720756 0.285361 0.226890 -0.891938 -0.698864 0.267551 -0.191642 0.635253 -0.248911 0.114347 -0.141955 0.372362 -0.184708 -0.291742 -0.109337 -0.685419 -0.504478 -0.076382 0.350931 -0.255760 -0.175974 -0.051486 -0.463725 0.280459 0.257622 -0.295211 -0.266679 0.521140 0.067165 0.336719 -0.141191 0.202113 -0.108202 -0.149623 -0.596029 -0.045417 
positive 0.031758 -0.319199 -0.192032 -0.543764 0.102430 0.156625 -0.060244 0.235005 0.611324 0.584379 -0.098775 0.048704 0.201263 -0.059467 -0.410051 0.618916 0.068125 -0.166719 -0.320340 0.164011 -0.075196 0.542256 0.519668 -0.377230 -0.198441 -0.305677 0.070491 -0.219083 -0.381565 -0.507154 -0.497845 0.425965 -0.186369 0.066167 -0.331230 0.331965 0.610601 -0.092920 -0.091005 -0.273909 0.673749 0.145293 -0.190707 -0.044983 0.252391 0.099817 0.341081 -0.750428 0.187381 0.075032 
h/o -1.250427 -0.097850 -0.222436 0.387975 0.139579 0.392650 1.094536 0.326272 0.156364 0.280130 -0.629204 -0.216203 0.081150 0.006075 0.156370 -0.034023 -0.875619 0.155661 0.099546 -0.553701 0.806259 -0.106820 0.424797 -1.000163 0.212228 0.171552 -0.878309 1.158144 -0.991802 0.054794 0.487483 0.425745 0.289066 0.403133 0.105014 0.011813 -0.407216 0.912165 -0.266703 -0.535668 -0.155617 0.143441 0.593293 -0.173918 1.185225 0.062243 0.187762 -0.314603 -0.045394 -0.039818 
ptt -1.572296 -0.782001 -0.833102 0.900048 0.712358 -0.266043 0.141230 -0.543871 0.148940 -0.350922 -0.724908 1.141256 -0.075000 0.579522 -0.001821 0.702723 0.118199 -0.137445 0.679280 0.276472 -0.582143 0.429917 -0.156564 -0.378913 0.668585 0.002978 0.738445 -0.471865 0.337897 0.289639 0.486066 -0.435554 -0.181549 -0.384466 0.385430 0.394585 0.044983 0.040768 0.670723 -0.854685 0.081144 -0.089226 0.473892 -0.149637 0.274752 -0.518751 -0.329938 0.088883 -1.075808 0.506050 
angap 0.105390 -0.398598 -0.190179 0.732468 -1.316095 -0.379962 -0.279309 -0.305687 -0.319067 -0.551285 0.832736 -0.301279 0.740026 -1.012430 0.054254 1.122419 0.736320 0.366406 1.297583 -0.854831 -0.895636 2.496607 -1.091817 -1.031919 0.589902 -0.424137 0.381945 0.052849 1.030182 0.231918 1.634544 -1.068309 0.579535 -0.548530 -0.735738 0.347379 -0.056242 -0.639613 -0.971390 -0.006074 0.144412 0.776351 -0.139327 -1.902367 0.063226 0.144370 0.163128 0.340034 -0.330795 -0.409160 
heart 0.186310 0.011076 0.255572 -0.070224 -0.024364 0.048534 0.034410 0.034316 -0.411061 0.260009 0.327750 -0.236105 -0.630781 0.699276 -0.356915 0.623102 0.012744 -0.325204 0.413827 -0.277134 -0.582476 0.433510 0.510482 -0.255217 -0.382043 -0.409681 0.144898 -0.280762 -0.366766 0.082675 -0.334054 -0.418711 0.029516 -0.032122 0.007578 -0.181690 -0.573772 0.001689 -0.002334 0.329103 0.090383 -0.048621 0.551899 0.263617 0.363082 -0.263090 -0.781979 -0.026778 0.186558 -0.467828 
without -0.240870 -0.065791 0.186663 0.116882 -0.267846 0.170075 0.230388 -0.202865 -0.193583 0.144224 0.618239 0.422181 0.046976 -0.144934 -0.410601 0.478125 0.118748 -0.166373 -0.175696 -0.422469 0.072350 0.644302 -0.140944 0.067073 -0.089739 -0.082709 0.066545 0.031449 -0.119219 -0.443326 -0.150626 -0.085611 0.080641 -0.502579 -0.018297 -0.057447 -0.081445 0.029824 -0.253076 -0.372048 0.189176 -0.447257 -0.234844 0.424172 0.038720 0.044666 -0.247696 0.031138 0.115845 0.110026 
units 0.262010 -0.672860 0.083390 -0.223548 1.288512 0.127018 0.637072 -0.670180 -0.112927 0.166907 0.555248 0.178422 0.515352 -0.396249 0.409575 -0.251581 0.843062 -0.340742 0.295426 -0.537998 -0.662744 -0.026535 -0.790527 -1.009733 -0.619579 -0.415366 -0.614935 0.462172 -0.011240 0.973058 0.363468 0.284680 -0.012792 -0.043127 0.216860 -0.271566 -0.028732 -0.192753 -0.187255 -0.319503 0.005047 0.505560 -0.002344 -0.190569 0.139659 -0.298476 -0.445767 0.347056 0.923029 0.016738 
rate 0.275917 -0.203341 -0.257686 0.187373 0.542540 -0.000789 0.542925 -0.143490 -0.141786 -0.048147 0.730942 0.064238 -0.258269 0.718244 -0.060374 0.649356 0.036554 -0.285801 0.534337 0.129903 -0.818278 0.687968 -0.044766 -0.578568 0.047626 -0.739600 0.011286 0.493573 -0.388174 0.384825 -0.307059 -0.029829 -0.447577 -0.126603 -0.310295 -0.035920 -0.470870 -0.114671 0.022434 -0.421634 0.065891 -0.454779 0.565042 -0.508000 0.384046 -0.781784 -1.156696 0.176906 0.650467 0.116301 
25 0.313490 -0.580581 0.300820 -0.508014 0.424395 -0.098199 -0.224658 -0.345571 -0.256850 -0.228983 -0.149738 -0.394253 -0.167316 -0.159370 0.075400 0.184786 0.680481 0.145796 -0.086099 0.071007 0.033981 0.090739 0.395360 -0.377823 0.281003 0.111681 -0.134748 0.150353 -0.242933 0.638087 -0.186638 -0.241006 -0.048688 -0.014336 -0.104463 0.345652 0.066611 0.070827 0.300697 0.559215 -0.146562 -0.153524 -0.536527 -0.656369 0.220988 0.800546 -0.222058 0.427918 0.292773 -0.124960 
bid -0.313363 -0.009732 0.331496 0.402158 0.663336 0.370174 -0.147588 -0.620246 -0.238510 0.191405 0.309986 -0.110679 0.426234 -0.703067 0.899887 0.068913 0.396629 -0.162552 -0.029158 0.240239 -0.040480 -0.247759 0.107500 -0.078760 -0.139540 0.102088 -0.492816 0.228040 -0.344671 0.884305 -0.413474 -0.593337 -0.142602 0.773407 -0.297528 -0.317822 0.088319 0.049985 0.670606 0.518853 -0.206331 0.324054 0.274275 -0.047752 1.026600 0.928918 -0.203303 0.211157 0.049013 0.505291 
lasix 0.269620 -0.599575 -0.550855 0.240402 0.731487 -0.553511 -0.297499 0.068437 -0.200435 -0.063916 0.354432 -0.275731 -0.338526 0.078840 0.790750 -0.331079 0.140630 -0.439475 -0.198376 0.116125 -0.219184 0.495162 0.214494 -0.086807 0.203975 0.113603 -0.656482 0.109287 -0.139612 0.230631 -0.413851 -0.470197 0.402734 0.100758 0.001682 0.353875 -0.047888 -0.002437 0.487486 -0.044813 0.502580 0.775498 -0.131945 -0.208522 0.808164 0.345172 0.236371 0.196825 0.051429 -0.054736 
prior -0.079907 0.015078 0.440814 -0.120447 0.037513 -0.387308 -0.441292 0.135077 0.413525 -0.088486 0.221330 0.169974 -0.250378 -0.024906 -0.057272 0.588412 0.027560 -0.011805 -0.054447 -0.416760 0.016336 -0.121036 0.372218 -0.137966 0.554878 0.037731 -0.304913 0.015272 -0.304256 0.126298 0.298940 0.379746 -0.108107 -0.018968 -0.407883 0.077772 -0.816465 -0.155043 0.253976 0.244450 -0.012452 -0.375301 -0.011368 0.458973 0.468174 0.179867 0.220322 -0.250807 0.205211 0.253569 
started -0.488237 0.070987 -0.191020 -0.063516 0.458512 -0.403854 -0.176923 0.266873 0.113494 -0.198968 -0.026889 0.354926 0.117176 -0.642990 -0.102081 -0.708777 0.218633 -0.099693 -0.320695 0.144754 -0.180170 0.499218 0.168286 0.095906 0.187326 -0.223970 -0.657965 -0.141586 0.018669 0.416801 -0.203346 -0.148645 -0.038589 -0.036038 -0.244782 0.035966 -0.616055 0.657950 -0.029745 -0.169490 0.115060 0.264260 -0.431133 0.424922 0.464552 -0.105563 -0.081486 -0.431709 0.071255 0.086405 
w/ -0.666021 -0.261148 -0.181556 0.512363 0.199748 0.631410 1.053807 0.223892 0.307463 0.162366 -0.279129 -0.887715 0.001835 -0.190070 -0.006444 -0.040395 -0.639601 -0.058061 0.554407 -0.231275 0.682510 0.086319 0.423245 -0.467736 -0.330534 0.170279 -1.416765 0.983380 -0.460452 0.114580 0.642884 0.244464 -0.012195 0.200251 0.538698 0.251198 -0.107129 -0.016698 -0.272029 -0.500953 -0.047505 0.177990 0.272101 0.403135 0.686641 0.134490 0.499057 -0.292570 0.382864 -0.173631 
one 0.061184 -0.514020 0.069832 -0.145800 0.441722 0.085999 -0.287018 0.206957 -0.157754 0.035799 0.350385 -0.018424 -0.232443 -0.148339 0.555007 0.404370 0.537311 0.192484 -0.186613 -0.204454 -0.072048 -0.003608 -0.194245 -0.249312 0.423536 0.404007 0.087871 -0.172169 -0.441415 0.542902 0.122134 0.296379 -0.108379 -0.272500 -0.261584 -0.186936 0.089563 0.139182 0.481133 0.051439 -0.197243 -0.022724 -0.597455 0.346800 0.266027 0.418789 0.441509 -0.067591 0.396048 0.030264 
p.r.n. 0.195646 -0.711779 0.529870 0.029416 0.535325 0.917063 0.435138 -1.052612 -0.848707 -1.214882 0.229217 0.349565 0.443150 -0.302584 0.489145 -0.007890 0.414213 -0.283214 -0.536864 -0.313265 -0.179974 0.107023 -0.237794 0.040124 0.044948 0.248542 -0.339915 -0.212191 -0.624114 0.714912 -0.179886 -0.105783 0.222948 -0.485222 0.101036 0.308421 0.013727 -0.093470 0.506954 -0.191127 0.279667 -0.332185 -0.553270 -0.175410 0.592905 0.870945 -0.503567 0.121185 0.075365 -0.294505 
40 0.169305 -0.233172 0.070078 -0.206667 0.470289 -0.531884 -0.207709 -0.265957 -0.133992 -0.075845 0.111849 -0.527449 -0.450990 -0.110250 0.355823 0.018738 0.327416 0.061916 0.129573 0.279571 0.111320 0.019743 0.291287 -0.505644 0.085642 0.323272 -0.099679 0.352046 -0.270442 0.207727 -0.404797 -0.428755 -0.176341 -0.136442 -0.079087 0.402458 -0.273362 0.441747 0.484312 0.500457 0.012219 0.220800 -0.626468 -0.775063 0.906449 0.442869 -0.171475 -0.200441 0.095959 -0.413363 
due 0.128341 -0.407538 0.481160 0.126958 0.000391 -0.017046 0.344964 -0.030053 -0.241520 0.276436 0.239889 0.198006 0.022692 -0.383945 -0.434856 -0.191335 -0.432254 0.115108 0.102040 0.087938 -0.127432 -0.111948 0.231770 -0.302807 0.537050 0.384094 -0.234194 0.119176 -0.031716 -0.579285 -0.292413 0.073448 0.414846 0.493024 -0.075632 -0.078983 -0.413190 0.467996 -0.098387 0.239533 0.225963 0.075147 0.017071 0.589605 0.193073 -0.013220 -0.228679 0.523915 0.087438 0.592414 
iv -0.395040 -0.251879 0.177068 0.083334 0.776585 -0.446862 -0.144469 0.471531 0.021210 -0.507216 -0.091406 0.155847 -0.042045 -0.269098 -0.124747 -0.896508 0.554687 -0.608410 -0.156344 -0.155253 0.186502 0.303433 -0.466015 -0.069969 0.261429 0.049801 -0.434530 -0.033937 -0.079019 0.173041 -0.224750 -0.005518 -0.567564 -0.147229 -0.529527 0.070227 -0.318381 0.508256 0.185880 -0.010223 -0.033781 0.444018 -0.643761 0.025222 0.660861 0.504186 -0.282682 -0.456701 -0.168189 -0.365077 
nausea -0.454245 -0.762699 0.369314 -0.025128 -0.625689 0.493297 0.131831 0.013532 -0.299051 0.509636 0.667584 0.132423 0.412569 0.138098 -0.234509 -0.332232 -0.079536 -0.064738 -0.899093 -0.216994 -0.896715 -0.044161 -0.620596 0.389111 -0.250405 0.206090 -0.562352 -0.066431 -0.552887 0.103389 0.117767 0.330049 0.190194 0.622221 -0.127317 -0.213790 -0.267967 -0.595500 0.213664 -0.893197 0.184729 -0.156077 -0.569732 -0.578707 0.472361 -0.117322 0.183039 0.071018 -0.145462 -0.081182 
cardiac 0.229324 0.242834 0.007686 0.213243 0.431510 -0.156309 0.038999 0.001899 -0.127780 -0.056300 -0.023924 0.440667 0.074794 -0.291999 -0.372795 0.476970 -0.025230 -0.251522 0.172653 0.101866 -0.205908 0.337144 0.582010 -0.135280 0.013701 0.193275 0.066998 -0.263190 -0.203823 -0.167593 0.362047 0.021258 -0.128205 0.345119 0.059051 -0.712275 -0.335971 0.176349 -0.298675 -0.401857 0.314213 0.078574 -0.168788 0.652104 0.130978 -0.048450 -0.155600 -0.686258 0.574794 -0.094756 
hours -0.026257 -0.711861 0.204099 -0.133245 0.232809 0.378113 0.006203 -0.476164 -0.852503 -0.609130 0.544156 0.039699 0.239930 -0.767853 0.592062 -0.729961 0.053300 -0.407129 -0.266545 0.131336 -0.474944 0.093724 0.248724 -0.235192 -0.028715 -0.194077 -0.487313 0.426738 0.093227 0.979318 0.937051 -0.020000 -0.641486 -0.446922 -0.730435 -0.207479 0.180443 0.321425 0.353143 -0.347561 0.274038 -0.198851 -0.426672 0.335313 0.510092 0.762003 -0.292733 -0.228372 0.038338 -0.598405 
breath -0.457289 -0.587283 0.322633 0.260512 -0.160236 0.656674 -0.200597 0.385784 0.055682 0.290902 0.828447 0.474129 -0.051939 0.334039 -0.420213 -0.120194 -0.409740 -0.692165 -0.663200 -0.613030 -1.014254 -0.172172 -0.397379 -0.246463 -0.374562 0.203479 -0.197126 -0.075409 -0.631284 -0.152497 -0.161058 0.248815 0.132604 0.783042 0.621851 -0.382345 -0.422594 -0.492239 0.449275 -0.322572 0.323369 0.004046 -0.485476 -0.302471 -0.102738 0.173072 -0.027051 0.118261 0.122096 0.036001 
colace 0.686735 -0.831364 -0.091682 0.452104 0.953005 0.796696 -0.156599 -0.699266 -0.328608 -0.202483 0.369183 0.118229 0.146245 0.057939 0.649542 0.038904 0.512672 -0.148085 -0.529561 0.196625 0.116222 0.220033 0.179405 -0.263962 0.251422 -0.079375 -0.239631 -0.153289 -0.549933 1.254008 -0.496217 -0.515867 0.637534 0.235203 0.186938 0.143058 0.127302 -0.072987 0.274487 0.017112 0.292460 0.567780 0.143225 -0.546431 0.387289 1.285362 -0.315839 0.270158 0.113528 0.006306 
0 -0.285809 0.110994 -0.034507 0.161437 0.460154 0.225868 -0.146923 0.334208 -0.172256 0.037996 0.324295 -0.790213 0.009694 -0.911125 -0.263614 0.395999 1.089352 -0.177523 1.565754 0.221732 0.344856 -0.247118 -0.007666 -1.377488 -0.623622 -0.256217 -0.199714 -0.763966 0.091261 -0.037286 0.046256 0.351331 -0.385562 0.348287 0.750110 0.190868 0.768887 0.678700 -0.150917 -0.658049 0.668066 -0.315822 0.234148 -0.957659 -0.770569 0.544470 0.039664 -0.239489 0.328151 0.494171 
q. 0.341208 -0.309365 0.253393 0.666680 0.840646 0.426312 0.197076 -0.517851 -0.959761 -1.000880 0.414063 0.252512 -0.521835 -0.158958 0.918708 -0.506725 0.778823 -0.356101 0.047867 -0.428196 -0.316433 0.118943 -0.309061 -0.251159 0.247208 -0.039475 -0.713998 0.441959 0.509084 0.940806 0.166833 -0.327549 -0.619146 0.097452 -0.057511 0.106267 0.590195 0.992074 0.789420 -0.597406 0.316304 0.434728 -0.845596 -0.225716 0.595631 0.464851 0.013254 0.019180 0.155190 -0.625164 
co2 -0.204674 -0.993972 -0.133548 0.043247 0.156802 -0.598858 0.542950 0.033958 -0.590210 0.614462 0.417027 -0.404068 0.814662 -0.332947 0.534889 0.948202 0.538737 0.031277 1.213552 0.249259 -0.257722 0.352636 -0.226245 -0.676081 0.343045 -1.035928 0.395204 -0.005947 -0.199100 -0.484573 1.108436 -0.764383 0.546665 0.548627 -0.609918 0.428328 0.728968 -0.002627 -0.757126 0.208017 -1.144556 0.213828 -0.811229 -1.170384 -0.051831 0.236089 -0.029392 -0.108647 0.071346 -0.163207 
qd -0.000957 -0.009177 0.392238 0.182041 0.544880 0.215705 -0.647099 -0.999302 -0.228220 0.067673 0.302216 -0.077022 0.638376 -0.601144 0.794844 -0.353498 0.499737 0.347463 0.558204 0.446721 0.321980 -0.061433 0.118718 -0.095815 -0.569296 0.526731 -0.855351 0.183831 -0.264582 0.385526 -0.433507 -0.710982 -0.296354 0.522088 -0.298935 -0.339603 0.505996 0.303613 0.536780 0.589611 0.013628 0.724001 -0.002843 -0.296685 1.547389 0.889008 0.235693 0.235696 0.217373 -0.182337 
bilirubin -0.558925 -0.323731 -0.076505 0.332594 0.717900 -0.432274 -1.122786 0.377032 -0.061921 -0.265419 -0.613496 -0.202733 -0.376269 -1.186296 0.362304 0.277086 0.237219 -0.038808 0.166910 1.242201 0.086036 -0.094749 0.091614 -0.256082 0.096630 0.205121 -1.143693 -0.193608 -0.211451 -0.655067 0.744639 -0.264228 -0.525896 0.655644 0.053017 0.852641 -0.105309 -0.430353 0.327492 -1.345521 -0.044946 -0.039781 -0.011738 -0.820404 -0.482857 0.229657 -0.658381 0.115368 -0.131334 -0.204477 
renal -0.634617 0.109299 0.576383 -0.196206 -0.078901 -0.521833 0.136795 0.052965 -0.155893 -0.089392 -0.006239 -0.361015 -0.118684 -0.026914 -0.706450 0.520655 -0.622045 0.173021 0.442629 -0.973990 0.068339 0.058771 0.274132 -0.436898 -0.295983 -0.050646 -0.300436 -0.021298 0.035206 -0.729046 -0.149734 -0.579363 0.138875 0.252452 -0.437027 -0.273340 -0.340865 0.127042 0.208986 0.796881 0.254822 0.287291 0.364056 0.687372 0.380586 0.207326 -0.367983 -0.149203 -0.306030 -0.814811 
30 0.165272 -0.900724 -0.024500 -0.094036 0.757752 0.156079 -0.092278 0.092735 -0.479758 -0.465519 -0.135316 -0.604139 0.021198 -0.380562 0.104576 -0.067794 0.184788 -0.288093 0.328617 -0.166237 0.030810 0.002202 0.394248 -0.448698 -0.073298 0.190677 -0.233201 0.311997 -0.504142 0.270303 -0.343836 -0.006772 -0.358260 -0.042244 0.027688 0.704814 -0.203027 0.021074 0.124727 0.228035 -0.177932 0.071164 -0.140544 -0.835056 0.406731 0.300175 0.122254 0.376645 -0.206614 -0.297603 
failure -0.322729 0.317767 0.238562 -0.073743 -0.211314 -0.040655 0.238341 -0.029735 -0.579796 0.202579 -0.273426 -0.001850 -0.690652 -0.109259 -0.779775 0.719788 -0.335669 0.132355 -0.269153 -0.750744 -0.605181 0.320455 0.342138 -0.897024 -0.570986 0.448919 -0.279488 -0.276838 -0.241952 -0.478385 -0.524176 -0.646909 0.475956 0.376796 -0.411002 0.117647 -0.753460 0.536235 0.117052 0.722861 -0.047583 0.055010 0.514389 0.332089 0.334192 0.108427 -0.878864 -0.344772 -0.399452 -0.365614 
mild -0.156382 -0.200605 0.448153 0.289977 -0.662356 -0.476058 0.623692 -0.432684 0.437561 0.487277 0.326856 0.025029 -0.058341 -0.178764 -0.180504 0.710776 0.311804 -0.458384 0.160128 -0.004974 0.011962 0.339391 0.637046 0.174652 0.168775 0.082000 0.035880 -0.029168 -0.144006 -0.588357 -0.287701 0.023743 -0.050711 0.234866 0.172142 -0.280495 -0.280144 0.110030 0.146165 0.132914 -0.213528 0.416863 -0.078321 0.645775 -0.375452 0.447144 0.033453 0.224809 0.366336 -0.041129 
symptoms -0.075812 -0.254800 0.552400 -0.168247 -0.062309 0.708877 -0.198597 0.310814 -0.150903 0.590351 1.060393 0.291906 0.866623 -0.032995 -0.511718 -0.189359 -0.033772 -0.314216 -0.516034 -0.281744 -0.116186 0.030978 -0.257903 0.289533 0.142515 0.645871 -0.238875 0.088312 -0.637623 -0.540815 0.000499 0.146134 0.707983 0.430291 -0.424431 0.167798 -0.382444 0.021673 0.118673 -1.003240 0.030854 -0.146722 0.145764 0.179964 -0.156225 0.311286 -0.436167 -0.055321 0.104948 0.324246 
bicarbonate 0.406963 -1.140988 -0.320958 -0.158949 0.234554 -0.483498 0.109503 0.453608 -0.111660 0.325680 0.605441 -0.534832 0.509793 0.373439 0.548308 0.247955 1.044452 -0.073207 0.849991 0.432497 -0.290715 0.686559 0.397709 -0.828085 0.384321 0.422277 0.763227 0.580152 -0.168286 0.445778 0.094878 -0.864587 0.707350 0.185169 -0.981150 0.691123 0.014519 0.134778 -0.098829 -0.031169 -0.637156 -0.043089 -0.709863 -0.350060 -0.079616 -0.077996 -0.226978 0.011811 -0.060997 -0.393310 
ph -0.061311 0.439784 0.924362 -0.043661 0.063026 -0.836457 -0.181284 -0.831062 1.160817 0.920706 0.117693 -0.163812 -0.346495 -0.508090 -0.260536 0.214526 0.133973 -0.251005 0.904016 0.658009 0.053982 -0.682088 0.029728 0.119275 -0.219371 -0.873464 -1.023627 0.266568 -0.330920 -0.983817 1.044688 -0.151897 -0.051041 0.355218 -0.365432 0.879582 1.088271 0.060695 -0.069594 -0.373789 -0.388286 0.490534 -0.162861 -1.165270 0.105594 0.550571 -0.333366 0.034063 -0.593116 0.392106 
1.0 -0.872998 -0.729046 -0.422641 0.435722 0.296880 -0.972819 -0.106847 -0.181499 -0.366911 -0.175459 -0.634007 -0.358155 0.492581 0.135743 -0.368083 0.694852 -0.015379 -0.274422 0.982570 0.328427 -0.423553 0.356875 -0.660012 -0.712256 0.800939 0.687545 0.978979 0.414716 0.002757 0.311489 0.247863 -0.511316 -0.136522 -0.167002 0.554206 0.562924 -0.072554 -0.902320 0.459293 -0.082038 0.277218 0.525914 0.125135 0.054156 -0.021342 0.455254 -0.303586 0.034867 -0.314409 0.574147 
shortness -0.338319 -0.699883 0.511055 -0.054263 -0.410497 0.294648 -0.056058 0.257523 -0.250675 0.027323 0.721803 0.172591 -0.067623 0.402159 -0.291430 0.107418 -0.880079 -0.567204 -0.595481 -0.806711 -1.012609 -0.572410 -0.363088 -0.131453 -0.205621 0.239897 -0.244577 -0.357820 -0.542200 -0.072198 -0.280804 0.503555 0.151209 0.998443 0.682792 -0.344346 -0.301852 -0.377010 0.600819 -0.528479 0.360681 0.026238 -0.640717 0.075160 0.130074 0.283082 -0.247830 -0.093514 -0.064066 0.210640 
admitted -0.089995 0.490743 0.131529 0.278755 0.199417 0.267993 0.284939 0.304251 -0.054235 -0.252132 -0.297344 0.215418 -0.087768 -0.452864 -0.334033 0.361784 -0.347735 0.237387 0.282260 -0.157858 0.194241 0.084638 0.148262 -0.153945 0.069340 0.675421 -0.474813 0.250528 -0.601801 0.401450 -0.073165 0.082957 0.106242 0.301257 -0.144298 0.182984 -0.656858 0.489375 0.063066 -0.423487 -0.202865 0.105630 0.166414 0.282959 0.221471 -0.506232 0.148860 -0.100663 -0.016507 -0.156880 
infection -0.020395 -0.294552 0.253501 -0.501881 -0.089642 0.445605 0.071584 0.300597 0.084137 0.487523 0.658204 0.768713 0.056214 -0.013576 -0.442150 0.091000 -0.176567 -0.184342 -0.302867 -0.429604 0.772163 0.252143 -0.060741 -0.408233 -0.050045 0.607986 -0.409134 -0.279111 0.002565 -0.008112 -0.168212 0.935101 0.755448 0.477723 -0.291866 0.080240 -0.525155 0.164745 -0.630718 -0.204030 -0.053051 0.221517 0.039258 0.345577 0.137457 -0.090885 -0.756652 0.170350 -0.271495 0.256458 
15 0.158195 -0.777861 0.318982 -0.157794 0.544798 -0.194108 -0.133264 -0.487250 -0.039628 -0.355529 -0.696092 -0.190122 -0.065817 -0.100284 0.024855 0.351662 0.288761 -0.179927 0.329233 0.335575 0.306713 -0.356473 0.075063 -0.707330 0.697623 0.168421 0.118987 0.530083 -0.252354 0.277651 -0.052134 -0.152149 0.131221 0.104080 -0.805528 -0.025856 0.083399 -0.192467 -0.040598 0.377159 -0.178248 0.370886 -0.529750 -1.082868 0.131867 0.700151 0.129912 0.524100 0.349228 0.207290 
t.i.d. 0.141051 -0.362492 0.344797 1.019816 0.917292 0.944035 -0.224789 -0.725408 -0.471077 -0.514211 0.563252 -0.283873 -0.681432 -0.404545 0.994306 0.286923 0.621489 -0.384360 -0.194226 0.191154 -0.038332 -0.221522 0.029479 -0.302949 0.187206 0.073697 -0.234977 -0.410250 -0.280360 0.806003 -0.332676 0.220077 0.492327 -0.074165 -0.017485 0.412487 0.385481 0.473089 0.710217 0.356691 0.131873 -0.085759 -0.164850 -0.631824 0.862974 1.244184 0.263635 0.356953 0.537317 0.240589 
alkaline -0.594275 -0.533634 -0.560397 0.196860 1.147163 -0.103519 -0.474961 -0.163108 -0.180161 -0.370291 0.688478 -0.326928 -0.748168 -0.613816 -0.033038 0.813130 0.076630 0.874988 -0.070134 0.429914 0.537798 0.772929 0.504566 -0.605031 0.768237 0.352200 -0.177334 -0.329440 0.618973 -1.353328 0.717499 -1.249697 0.139809 1.461820 0.860879 0.704640 -0.234639 -0.479624 0.020543 -0.882405 -0.029730 0.459982 0.191525 -1.202277 0.247344 -0.215870 0.765274 0.461525 -0.117322 -0.789119 
phosphatase -0.595945 -1.171845 -0.895648 -0.176214 1.421318 0.163887 -0.300671 0.151821 -0.450807 -0.479029 1.005600 -0.226534 -0.592434 -0.769941 0.137854 0.509740 0.221679 0.836639 -0.179529 0.448886 0.237722 0.912434 0.501413 -0.578326 0.520283 0.548952 -0.099840 -0.210095 0.931074 -1.037777 0.726574 -1.546820 -0.004123 1.399850 0.723871 0.604876 0.102940 -0.424933 0.023869 -1.152723 -0.226597 0.551983 0.087729 -1.270098 0.058479 -0.092380 0.652377 0.614554 0.185050 -0.366686 
pm -0.621039 0.350112 0.132811 1.019993 0.323068 0.366695 -0.119055 0.236396 0.359397 0.897325 -0.292374 -0.154141 -0.219860 -0.765999 -0.081898 0.144664 0.052676 0.058041 -0.120182 0.453272 -0.437300 -0.704547 -0.219859 -0.536640 0.251085 -0.318619 0.565251 -0.092386 -0.458979 -0.077196 0.053998 -0.689754 -0.789341 -0.158971 0.128375 0.370856 0.406565 -0.943218 -0.000793 -0.067522 0.454945 1.287961 -0.014494 -0.377453 0.673900 -0.557996 -0.217629 0.472898 0.076860 0.022218 
's 0.066774 0.343849 -0.045565 -0.065117 0.061374 0.534961 0.041092 0.148274 -0.317862 -0.129395 -0.415337 0.518750 0.031311 -0.271392 -0.453172 0.412806 -0.246190 0.109205 0.245601 -0.258172 -0.165834 0.095567 0.089583 -0.330715 0.025038 -0.045188 -0.227449 0.599132 -0.275869 0.152745 -0.210845 -0.122531 0.241495 -0.052299 -0.008101 -0.194658 -0.516515 0.155834 -0.021834 0.287198 0.474097 -0.297551 0.175440 0.163292 0.146850 -0.007102 0.112708 -0.111198 -0.249864 -0.047690 
protein -0.413535 -0.106235 1.023547 0.557125 0.376984 -0.056890 -0.588249 -0.224511 0.061563 0.700810 -0.474558 -0.442873 -0.020274 -0.294598 0.687041 -0.092560 0.635898 0.518909 0.877141 1.569349 0.231318 -0.259834 -0.222276 -0.328363 0.191308 -0.164681 -0.680748 -0.151918 0.216183 -1.545464 -0.620747 -0.307217 -0.123373 0.852751 -1.158213 0.908964 0.040597 -0.670749 0.022800 -0.396719 -0.163401 0.981116 0.225252 -0.409105 -0.433101 0.895374 -0.949154 -0.004981 -0.817615 -0.523761 
scan -0.093339 -0.065762 0.393253 0.573586 0.161897 -0.107558 -0.895935 -0.151386 0.042886 0.255825 -0.519112 0.684852 0.050658 0.410200 -0.488879 -0.381650 0.466425 -0.245734 0.358207 -0.481593 0.775263 0.362369 0.195649 -0.095694 0.214434 0.418687 -0.250080 0.319696 -0.223664 -0.390077 -0.214196 0.146135 -0.945581 -0.065167 -0.361621 -0.640693 -0.065645 -0.204813 0.100422 -0.186299 0.164152 -0.330423 -0.229850 0.674002 -0.111498 -0.374114 0.263085 -0.198761 -0.485156 0.130003 
there -0.305719 -0.038113 0.043976 0.212914 0.072569 0.067625 0.000325 -0.066156 -0.137579 0.297912 0.465032 0.444362 0.056379 -0.001940 -0.424600 0.123236 0.096767 -0.381305 -0.085317 0.190695 -0.148234 0.111847 0.241041 0.150503 -0.017543 -0.192619 0.228612 0.243291 -0.228999 -0.511881 -0.149228 -0.109462 -0.001175 -0.184903 -0.213791 0.134744 -0.362082 0.248910 0.048993 -0.080713 -0.024225 -0.205686 -0.275986 0.535865 -0.117313 0.193583 0.066970 0.322907 -0.016756 0.025232 
severe -0.289954 -0.460868 0.187752 0.275749 -0.512082 -0.207676 0.550861 0.221203 0.257504 0.413583 0.365754 0.430422 -0.022624 0.354309 -0.325011 0.246408 -0.210805 0.009478 -0.247506 -0.021730 0.365786 0.255711 0.757837 -0.202602 0.221036 0.106072 0.023369 -0.389505 -0.564980 -0.508791 -0.051870 0.070484 -0.127891 0.526756 -0.117209 -0.439889 -0.271359 -0.132262 0.541390 0.605123 -0.180695 0.026616 -0.427408 0.479182 0.016184 0.194632 0.125779 0.217457 0.465293 -0.558909 
q 0.391687 0.273605 -0.046762 0.463489 0.632367 0.274490 0.253965 -0.694078 -0.543569 -0.639331 0.108439 -0.273259 0.189037 -0.859330 0.998926 -0.036129 0.782918 -0.563115 -0.302578 -0.090040 -0.011633 0.300467 -0.183147 -0.276965 -0.230563 0.053663 -0.987907 0.265185 -0.427731 0.353720 0.506566 -0.000438 -0.452388 -0.498282 0.395890 -0.278891 -0.273797 -0.779364 0.427191 0.102992 0.467681 -0.442515 -0.204055 0.118935 0.673838 0.712997 -0.425778 -0.355057 0.084538 0.120279 
evidence -0.467029 0.081855 0.439639 0.084225 -0.107285 0.159832 0.140712 -0.100155 0.032423 0.109669 0.108207 0.455500 -0.288529 0.209871 -0.525025 0.425975 0.002951 -0.918902 0.162133 0.168993 0.184378 0.281028 0.050017 0.244443 -0.039965 0.370655 -0.193423 -0.040829 0.076763 -0.553357 0.152183 -0.049567 0.099055 -0.177050 -0.154334 0.093744 -0.313681 0.314225 0.021625 -0.249420 0.060100 -0.381875 -0.023702 0.619755 -0.268368 0.518193 -0.082849 0.028557 -0.055994 0.124503 
12 0.418662 -0.063070 -0.410847 0.416283 0.566151 0.045443 0.304598 -0.129990 -0.849814 -0.065041 -0.165953 -0.075407 0.042189 -0.149584 -0.257243 -0.057995 0.058808 0.003756 0.572448 -0.353545 -0.126656 0.615166 -0.464078 -0.354818 0.433088 0.102695 -0.008826 1.016298 0.016090 0.275740 0.345155 -0.095123 -0.336043 0.135066 -0.045103 -0.053244 -0.358628 -1.073612 -0.473970 -0.095751 -0.077092 0.128048 -0.696499 -0.567678 0.109516 0.060612 -0.485432 0.276316 0.147464 -0.064057 
pneumonia -0.273531 0.185046 0.183622 -0.114612 0.154771 -0.340888 -0.436791 0.523803 0.065767 0.576071 0.386145 0.083529 -0.293192 -0.014235 -0.691057 0.057311 -0.350557 -0.164053 -0.211822 -0.423962 0.151375 0.419721 -0.273752 -0.166915 -0.261967 -0.058322 -0.941660 -0.175356 0.315220 -0.228235 0.018259 0.277830 0.437685 -0.118759 -0.309671 0.259390 -0.510788 0.517111 -0.006108 -0.098701 0.290248 0.312330 0.555827 0.306869 0.246165 0.248788 -0.360516 0.040775 -0.644972 -0.112905 
mg. 0.117115 -0.537281 -0.320470 0.665004 1.141990 0.204773 -0.085392 -0.598366 -0.262419 -0.191945 1.084479 -0.546614 -0.108486 -0.460238 0.715256 0.509585 0.158516 -0.276347 -0.104532 0.011007 0.088990 -0.289254 -0.032831 -0.299086 0.108949 0.433498 0.052272 -0.066798 -0.247927 0.847532 -0.311590 -0.237275 0.175469 -0.538792 0.220145 0.305508 0.123138 0.282720 0.808126 0.176849 0.395127 0.388195 -0.005296 -0.165883 0.839683 0.791784 0.196319 0.497362 0.069483 0.043654 
discharge -0.235044 -0.621651 0.291285 0.009161 -0.126971 -0.638468 -0.345429 0.457860 0.322661 -0.208969 0.485785 0.057609 -0.020195 -0.232713 -0.164258 0.377311 0.347382 -0.266432 -0.152404 -0.022647 0.421317 0.299821 -0.023972 0.140555 0.511096 0.454669 -0.111276 0.364951 -0.072799 0.323231 -0.087918 0.398361 0.110074 0.810522 -0.206370 0.144047 -0.570367 -0.180205 0.541659 -0.048653 0.186925 -0.288803 -0.366639 0.294108 -0.187569 0.201139 0.122680 0.461797 0.454229 0.531347 
treated -0.023348 0.031359 -0.190453 -0.214709 0.363395 -0.051713 0.227703 0.447089 -0.064457 -0.085706 -0.081084 0.636654 -0.069934 -0.241789 -0.222661 0.014201 0.147348 -0.093884 -0.375785 -0.172616 -0.289736 0.347090 0.056974 -0.081849 -0.022213 -0.438475 -0.830204 -0.592281 0.087435 0.337577 -0.226431 -0.201251 0.217232 0.139596 -0.236848 0.547812 -0.478129 0.829854 -0.150505 -0.067079 -0.313646 0.586202 -0.044604 0.371701 0.014678 -0.089549 0.164491 -0.224875 -0.428549 -0.207119 
ventricular 0.488386 -0.217112 0.349288 0.839853 0.055362 -0.062902 0.459847 -0.217993 -0.302134 0.150677 0.576798 0.586452 -0.283721 -0.175949 -0.459665 0.364641 -0.465262 -0.063729 0.166514 -0.267845 0.150022 0.433666 0.959096 -0.425001 -0.113708 -0.256317 -0.053455 -0.117553 -0.360288 -0.449573 0.086604 -0.099570 -0.411614 -0.348091 0.900528 -0.106771 -0.640781 0.298694 0.149314 0.347758 -0.623932 -0.240593 -0.007241 0.804037 0.082334 -0.207863 -0.138455 -0.092623 0.966826 -0.690378 
after -0.093403 -0.083432 0.039110 0.006796 0.017495 -0.110573 0.027863 0.179731 -0.188997 -0.092356 0.147921 0.382362 -0.022526 -0.400979 0.057806 0.173363 -0.154199 -0.056562 0.284447 -0.159170 -0.418146 0.076017 -0.064471 -0.073082 0.037369 -0.290582 -0.072146 -0.112503 -0.327981 0.154618 -0.042122 -0.095128 0.032821 0.053446 -0.418636 -0.153400 -0.315343 0.122656 -0.036463 -0.247134 0.048396 0.274712 -0.310108 0.541672 0.454604 0.051949 0.171932 0.129664 0.155316 0.043514 
medical 0.068115 0.439240 -0.078991 -0.311887 -0.178582 -0.163663 -0.488011 0.587221 -0.017439 0.159589 0.796015 0.366693 0.325686 -0.375803 -0.115107 0.751043 -0.095711 0.534432 -0.111664 -0.591019 0.186637 -0.496694 0.456297 -0.633936 0.252023 0.919125 -0.047777 0.421920 -0.661885 0.046047 0.153874 0.416459 0.457298 0.033922 -0.418033 -0.111626 -0.433493 0.425306 -0.231784 -0.264308 0.312202 0.175214 0.762512 0.060310 0.016381 0.016474 0.431132 -0.562348 -0.058221 0.139807 
&apos;s 0.378315 0.324312 0.406460 -0.073698 -0.164493 0.195745 -0.192932 0.339149 -0.496316 -0.097278 0.233682 0.063017 0.132047 -0.157320 -0.620733 0.433310 -0.022751 0.079379 0.279948 -0.550365 -0.434350 0.528437 -0.021466 -0.460261 -0.192825 -0.063989 0.178908 0.189022 -0.121830 0.044796 -0.350817 -0.393977 -0.244279 0.100926 -0.146792 -0.231513 -0.450698 -0.092635 0.344335 0.292673 0.184546 -0.310304 0.316188 0.150244 0.096344 0.011598 0.406636 0.111799 0.052552 -0.006786 
respiratory 0.411326 0.216690 0.173067 -0.067294 0.125295 0.207433 0.102073 0.156523 -0.128602 0.443904 0.252685 0.023910 -0.217618 0.254054 -0.410930 0.603116 -0.069191 -0.405438 0.313945 -0.353717 -0.331464 0.023337 -0.102450 -0.145636 0.269096 -0.363481 -0.383142 -0.083879 -0.357635 0.150691 -0.197724 -0.108654 0.307913 0.286898 -0.160934 -0.134392 -0.664527 0.191324 0.008927 0.053686 0.204919 -0.173622 0.733979 -0.363599 0.460412 -0.228883 -0.958578 0.122559 0.411189 0.001653 
likely -0.175675 0.135092 0.213722 -0.050518 0.177089 0.210080 0.161678 -0.090483 -0.225447 0.456856 -0.020047 0.018762 0.131139 -0.389587 -0.418044 -0.054316 -0.346069 0.005383 0.386976 -0.049111 -0.027616 0.115254 -0.090700 -0.394288 0.638508 -0.022714 -0.319829 0.066892 0.066991 -1.075450 -0.203552 -0.096115 0.308235 0.099076 -0.198661 -0.140704 -0.580488 0.649171 0.149888 -0.040636 0.254552 -0.136032 0.252749 0.563104 0.236033 0.094633 -0.188322 0.076558 -0.299655 0.252530 
4 0.414463 -0.352992 0.202597 -0.492949 0.570778 0.156705 0.264637 0.218357 -0.458229 -0.112811 0.296081 -0.201150 -0.063999 -0.270701 0.238939 -0.060543 0.574978 -0.354664 0.371828 -0.422718 -0.214665 -0.013019 0.133668 -0.668137 -0.085191 0.290610 -0.381367 0.262686 0.012793 0.775193 0.602727 -0.031156 -0.573828 -0.116520 0.252188 -0.220858 0.126593 -0.068833 -0.130882 0.170698 0.258487 0.065605 -0.179224 0.168536 -0.214449 0.061916 -0.132475 -0.364691 0.211578 0.078208 
3 0.242564 0.035076 0.258508 -0.370205 0.111444 -0.152213 0.174533 0.483035 -0.225233 0.229367 0.284393 -0.024344 0.075272 -0.090648 0.031850 -0.111771 0.533493 -0.299786 0.427282 -0.055124 -0.354896 -0.197488 0.211214 -0.672816 0.198841 0.523936 -0.406717 0.246224 -0.037889 0.815776 0.151593 -0.058308 -0.734410 -0.394363 0.248913 -0.146929 0.069699 -0.371466 0.148439 -0.103174 -0.039025 0.151314 -0.146839 0.259255 -0.388063 0.189426 0.458725 -0.357629 0.087632 0.195213 
consistent 0.146408 -0.062351 0.219589 0.059504 0.033365 0.150774 0.084348 0.187851 0.150834 0.470899 0.083668 0.221935 -0.233245 0.117316 -0.244003 0.176132 0.290258 -0.475164 -0.071086 0.131431 0.046218 0.511425 0.243852 -0.102305 0.159611 -0.162811 -0.210778 -0.288774 -0.281093 -0.930169 0.042164 0.138705 0.042177 -0.055942 0.201450 -0.203264 -0.371416 0.261711 0.261558 -0.083474 -0.173447 -0.041329 0.140929 0.499082 -0.112179 0.136157 -0.109558 -0.107364 -0.215667 -0.354636 
cells 0.406504 -0.223309 0.876043 -0.818426 0.609955 0.191567 0.412149 0.412063 0.432947 0.789125 0.380055 0.015497 1.318603 0.672667 0.003414 -0.264936 0.986277 -0.011840 0.300029 0.222919 -0.504359 -0.538723 0.354098 -1.213108 -0.123541 -0.709250 -0.151797 0.060137 0.626470 -0.052271 -0.269003 0.275512 -0.278398 -0.473715 -0.204463 0.117652 0.064468 -0.796781 -0.127980 -0.633072 0.274253 0.106884 0.257204 0.564024 0.271818 0.500054 0.493672 -0.124586 0.284362 -0.122289 
acute 0.160127 0.157660 0.535626 0.096011 0.073198 0.058225 0.050213 -0.489639 -0.217721 0.155531 0.198639 0.221116 -0.021807 -0.244324 -0.618564 0.892341 -0.257930 0.042848 0.114300 -0.534904 -0.083775 -0.370497 0.318756 -0.093871 -0.220251 0.298605 -0.299229 -0.214453 -0.191953 -0.733118 -0.502947 0.118881 0.364382 -0.229098 -0.085769 -0.067860 -0.750221 0.196096 0.128953 0.144603 0.191176 -0.336202 0.226039 0.156925 -0.216664 0.197569 -0.316896 -0.312217 -0.308814 -0.026231 
two 0.621606 -0.237425 0.125565 -0.157118 0.284987 0.192756 -0.345608 -0.009809 -0.334797 -0.219018 0.359824 0.311591 -0.347461 -0.309073 0.207258 0.229798 0.248032 0.231579 0.151013 -0.132915 -0.049691 -0.036518 -0.231785 0.035578 0.196282 0.169056 -0.275975 0.080095 -0.460343 0.461806 0.351080 -0.046903 0.001050 -0.104542 -0.521230 -0.430966 -0.089100 0.069121 0.265786 -0.348426 -0.041746 -0.077955 -0.100053 0.195210 -0.085852 -0.120787 -0.018498 -0.375575 0.293069 -0.076928 
x-ray -0.244649 0.092500 0.752739 0.214112 -0.033762 -0.271026 -0.651586 -0.042455 0.596956 0.102348 -0.304099 0.166676 -0.356489 0.677745 -0.212348 0.886996 -0.067958 -0.552016 -0.440339 -0.416301 -0.206387 0.906416 0.173670 0.019342 -0.146940 -0.198841 -0.406830 0.269498 -0.349856 -0.376866 0.006156 0.633043 -0.598556 0.077180 0.569977 0.439661 -0.356253 0.366724 0.117309 -0.224199 0.385174 -0.001106 -0.301068 0.536711 -0.067568 0.199939 -0.242749 -0.299536 0.036496 0.516195 
fever -0.333087 -0.556044 0.163871 -0.155140 -0.138716 0.227283 0.253908 0.240653 -0.010472 0.581437 0.842094 0.412323 -0.258043 0.220297 -0.379158 0.035983 -0.208749 -0.311906 -0.165587 -0.501237 -0.774004 -0.223522 -0.170931 -0.043539 0.155583 0.603572 -0.526746 -0.377998 -0.729353 0.331591 -0.263199 0.735342 0.659464 0.874692 0.252698 0.233197 -0.182499 0.010658 0.061472 -0.465098 -0.319966 -0.170559 -0.318175 -0.037316 0.039612 -0.068930 -0.433860 -0.191510 -0.023283 0.035872 
old 0.165632 0.982159 0.146899 0.503936 0.345328 -0.039762 -0.140640 -0.024788 0.208716 0.323632 1.034842 0.559389 0.357858 0.097941 0.065425 0.202487 -0.076400 -0.018033 0.279467 0.296926 0.602409 -0.451875 -0.093654 -0.442050 0.746461 -0.468567 -0.003220 0.154977 -0.931577 -0.246035 0.353480 0.146905 -0.340349 -0.250510 0.608353 -0.012663 -0.676010 0.027474 0.108518 -0.375060 -0.436075 -0.564947 0.482864 -0.166678 0.354742 -0.073807 0.724683 -0.607071 -0.451361 -0.709392 
secondary 0.316705 -0.142693 0.447041 -0.049779 -0.002559 0.258766 0.294823 0.061678 -0.061536 0.112974 -0.039977 0.042734 -0.036215 -0.610193 -0.695069 0.133529 -0.345712 -0.050590 0.277760 -0.109917 -0.201993 0.019285 0.143767 -0.142137 0.087023 0.169430 -0.061008 -0.014121 -0.031255 -0.666373 -0.310212 0.106028 0.533891 0.183940 -0.552601 -0.250299 -0.579682 0.692237 -0.260811 0.032537 0.335233 0.035076 0.169809 0.272411 0.533460 0.003381 0.047963 0.263980 -0.001169 -0.101059 
significant -0.073523 0.076509 0.079247 -0.196637 -0.165588 0.329911 -0.170075 0.130500 -0.428608 0.199929 0.292816 0.328807 -0.105502 -0.348104 -0.322813 0.465220 -0.214643 -0.270735 -0.033424 -0.273662 -0.301006 -0.122194 0.535214 -0.499979 0.092343 0.187887 0.632047 -0.072407 -0.387805 -0.199752 0.120966 -0.174312 -0.015017 -0.453875 -0.247424 0.129179 -0.181072 0.005153 -0.269322 0.049681 -0.262255 0.002077 -0.076650 0.250840 0.104232 0.124399 0.250248 -0.268034 -0.106967 -0.133204 
if -0.047573 -0.191840 0.544052 0.026476 -0.547929 0.567577 -0.319371 0.468538 -0.546513 0.488811 0.785071 0.230757 0.668499 -0.347536 -0.366119 -0.204431 -0.610557 -0.055613 0.076081 -0.795659 0.063291 -0.625362 0.022407 0.316957 0.037998 0.084909 -0.026566 0.236009 -0.574439 0.047908 -0.118932 0.207056 -0.009740 0.478527 0.386852 0.491754 -0.119097 -0.088901 0.267627 -0.094854 0.814448 -0.480683 -0.160600 0.429637 0.363899 0.497169 -0.241436 0.660931 0.124486 -0.122327 
atrial 0.026233 0.250445 0.222764 0.194612 0.156596 -0.271448 0.060807 -0.505358 -0.306986 0.233340 0.405415 0.049900 -0.064377 -0.296188 -0.458199 0.892878 0.031241 -0.110653 0.138918 -1.062826 -0.130252 0.564835 1.136226 -0.323395 -0.633940 0.061068 0.027684 0.284284 -0.041177 -0.256674 0.015751 -0.118747 -0.344680 -0.423700 0.723149 -0.271577 -0.733702 -0.006583 0.117141 0.070204 -0.275266 -0.558723 0.488223 0.339404 0.201852 0.310087 -0.488453 -0.518249 0.453207 -0.769740 
sinus 0.291760 -0.129969 0.313306 0.501377 0.413388 0.281850 0.483001 -0.261843 0.362475 0.053338 0.387119 0.534508 -0.476723 0.383031 0.168903 0.650296 0.098169 -0.269710 0.610030 -0.461572 0.557837 0.228378 0.519834 -0.121232 -0.174351 -0.378387 0.049704 0.381026 -0.573456 -0.055929 -0.424206 0.413391 0.192433 0.397237 0.052123 0.048918 -0.054529 -0.497647 -0.671528 -0.302799 -0.150607 -1.058267 0.137575 0.361036 0.206225 -0.133621 -1.198015 0.201545 0.213339 0.108054 
transferred 0.265661 0.565763 -0.089946 -0.160200 0.104681 0.609901 0.087714 0.683251 -0.140218 -0.278591 -0.304619 0.241034 0.156074 -0.768757 -0.475206 0.584979 -0.289557 -0.304855 0.312758 0.067860 0.556820 0.367304 0.681074 0.217266 0.193730 1.007204 -0.153837 0.488287 -0.211246 0.257896 -0.569716 0.283188 0.414144 0.283760 -0.510707 -0.116662 -0.453116 0.614611 -0.134964 -0.534800 0.883507 0.234645 -0.116485 -0.049094 0.033472 -0.165300 0.484462 -0.075090 0.251513 0.083314 
room 0.183729 0.015631 0.544772 -0.184232 -0.440885 -0.355510 0.241588 0.012463 -0.908818 -0.047504 0.100133 0.455905 0.005582 -0.172817 -0.337161 0.062722 -0.197066 0.201883 0.977955 -0.152096 -0.002658 0.296127 -0.094435 0.568550 -0.387251 -0.363515 -0.030243 0.350682 -0.746890 0.811931 -0.336555 0.374321 -0.451760 0.834891 -0.438809 0.042485 -0.250450 -0.290598 -0.433277 -0.473605 0.761543 -0.059690 0.435521 0.275771 0.313816 -0.318380 -0.452749 0.398825 0.109333 0.046872 
vomiting -0.162163 -0.909084 0.007887 -0.200649 -0.697059 0.422294 0.622299 0.306426 0.006889 0.310274 0.729587 0.199834 0.226675 -0.047286 -0.383957 -0.253026 -0.463209 -0.010372 -0.798848 -0.339496 -1.006047 -0.238920 -0.587682 0.222389 -0.049101 0.117485 -0.467537 -0.610369 -0.715809 0.032302 0.353790 0.225199 0.349567 1.231523 0.075186 -0.297811 0.061786 -0.399373 0.294513 -0.998986 0.494311 -0.370695 -0.742208 0.080576 0.449748 0.095991 0.069544 0.092258 -0.211277 -0.022739 
x -0.350279 -0.100163 -0.012126 -0.318845 0.104609 0.018296 0.295624 -0.120397 -0.184044 -0.270828 0.053376 0.137267 -0.414783 -0.015392 -0.452738 -0.166118 0.075556 -0.674895 0.382541 -0.109511 -0.194378 0.445282 -0.147619 -0.152581 0.738384 0.668754 -0.345845 -0.237652 -0.346024 1.023345 -0.193848 0.206007 -0.442425 -0.370579 -0.119745 -0.135053 0.218190 -0.358094 0.291736 -0.026399 -0.221100 0.360457 0.037285 0.360822 0.440800 0.687763 0.092475 -0.702916 0.040109 -0.454782 
days 0.096155 -0.387741 0.153623 -0.286257 0.131245 0.161537 -0.191106 0.356843 -0.240621 -0.291591 0.325913 0.423393 -0.260795 -0.338485 0.036031 0.091382 0.333733 -0.141796 -0.013327 -0.076384 -0.875538 0.159780 -0.304001 -0.198134 0.023553 0.330279 -0.051007 -0.272288 -0.619391 0.991092 0.036019 0.044281 0.060963 0.011127 -0.059957 0.190268 -0.081140 -0.166658 0.104499 -0.150745 -0.329509 -0.016996 -0.348786 0.362677 0.281647 0.471262 -0.182209 -0.467733 0.118266 -0.167570 
decreased 0.509295 -0.121028 -0.000896 -0.050070 -0.168205 0.211251 0.074836 -0.190918 -0.042823 0.307528 -0.125839 0.092479 -0.587035 -0.554382 -0.567936 0.380756 0.100447 -0.472698 0.025547 0.674006 -0.526088 -0.142641 -0.015730 -0.141045 -0.312560 0.038327 0.024982 -0.171399 -0.554471 -0.196553 0.110292 0.192831 0.387151 0.147060 0.338291 -0.294884 -0.751665 -0.229826 -0.400032 -0.309201 0.057318 -0.379830 -0.560729 -0.210232 0.334640 0.211925 0.389383 0.133504 0.226007 0.055726 
50 0.277109 -0.173445 0.129979 -0.273028 0.320549 -0.426817 -0.071468 -0.331197 -0.145441 -0.073303 -0.247447 -0.125084 -0.112403 -0.515758 0.167899 0.010613 0.539489 -0.092804 0.248811 0.384689 0.254466 -0.051017 0.231028 -0.127459 0.234430 -0.167188 -0.479544 -0.228645 -0.589115 0.544725 -0.128895 0.205894 0.119464 0.091650 -0.001684 0.234307 0.365687 0.347204 0.633818 0.604462 0.197552 0.139835 0.100136 -0.618467 0.694669 0.709999 0.004443 0.355024 0.343256 -0.194206 
multiple -0.407841 0.184066 0.043577 -0.152042 0.179769 0.385977 0.201514 -0.068526 0.025619 0.194605 0.442953 0.473277 -0.120169 -0.035379 -0.406195 0.235353 -0.052669 -0.217354 0.024956 -0.005501 0.746858 -0.158660 0.023569 -0.681894 0.319467 0.438803 0.122895 0.011514 -0.479505 -0.224937 0.237344 0.270461 0.472450 0.219954 -0.529154 -0.400016 -0.320659 -0.010221 -0.135488 -0.016904 -0.328789 0.068330 0.359069 0.231423 0.066228 0.110958 0.241624 -0.530796 -0.174083 -0.030996 
year 0.338285 1.324433 0.601993 0.630667 0.494248 -0.003952 -0.575905 0.126864 -0.281033 -0.317669 0.920911 0.489486 0.689705 -0.146576 0.017959 0.252672 -0.100865 -0.224345 0.573299 0.292344 0.291170 -0.625300 -0.002411 -0.138413 0.817060 -0.732146 -0.346401 0.417471 -1.152614 -0.613673 0.209616 0.275853 -0.397255 -0.550636 0.218053 0.256227 -0.969963 0.306488 0.427610 -0.614850 -0.467281 -0.747853 0.322058 -1.033003 0.442520 -0.239863 1.188898 -0.396018 -0.261150 -0.822608 
urine -0.360251 -0.279472 0.239550 0.073119 0.130674 0.396868 0.043163 0.424715 0.500317 0.954445 -0.359398 0.213353 -0.444672 -0.108012 -0.199174 -0.002853 -0.086267 -0.587823 0.060803 0.625833 -0.698997 -0.132139 -0.103487 0.041378 -0.298742 -0.423992 -0.260343 0.149644 -0.503627 -0.240884 -0.068396 0.084503 -0.286813 0.138513 -0.156766 0.132552 -0.327094 0.075675 -0.417457 -0.311502 0.325385 0.256599 -0.355822 -0.334792 0.164611 0.531810 0.051266 -0.341376 0.227817 0.417181 
amylase -0.003691 -1.158035 -0.027637 -0.058844 0.819274 0.483854 -0.234440 -0.085241 -0.785207 -0.061549 0.674184 0.053235 -0.534592 -0.183499 -0.025996 0.625210 -0.516009 0.786448 0.687942 0.800654 -0.138709 0.654276 -0.582927 -0.542544 0.323566 0.177841 0.172594 -0.150138 0.991267 -0.764126 0.775376 0.141559 -0.224092 0.218106 0.522463 0.712240 -0.013832 -0.075110 0.251767 -0.910189 -0.655257 0.473370 0.372409 -0.472051 -0.170872 0.109368 -0.472128 0.473167 0.089364 0.236114 
daily 0.124068 -0.292961 -0.085214 -0.216821 0.058517 -0.154454 -0.560847 0.048238 0.271194 -0.308693 0.967833 0.573763 0.272812 -0.423737 0.903914 -0.129002 0.691511 0.225061 -0.085539 0.769064 -0.479316 0.462587 -0.092749 0.042644 0.332121 0.374972 -0.779442 -0.019225 0.139299 0.630750 -0.410897 -0.158252 0.026264 0.279519 -0.119892 -0.023401 0.148820 0.399144 0.661616 0.449433 -0.714057 0.058547 -0.183463 -0.102706 0.696214 1.095847 0.009403 -0.435192 0.083031 -0.084617 
ldh -0.167890 -0.446278 -0.089085 -0.498557 0.498374 0.209710 -0.192222 -0.007153 -0.454383 0.314392 0.848525 -0.080105 -0.839383 0.313012 0.205508 0.551036 0.429322 0.727062 0.266390 0.789547 -0.256320 0.182901 -0.542903 -0.826529 0.295118 -0.435416 -0.063440 -0.404232 0.834659 -0.123045 0.641731 -0.923911 0.150587 1.093623 0.816598 0.674376 -0.260159 -0.511853 0.521237 -1.191780 0.208278 0.159300 0.662374 -0.771496 0.243000 -0.678848 0.694279 0.772341 0.210562 0.389964 
