30 50
</s> 0.008005 0.008839 -0.007661 -0.006556 0.002733 0.006042 0.001882 0.000423 -0.007207 0.004437 -0.008713 0.002499 -0.001503 -0.001914 -0.006631 -0.003764 0.005159 0.006051 0.005938 0.003195 0.003090 -0.007605 -0.008192 0.009939 0.007603 0.006180 -0.001208 0.008031 -0.000990 0.001469 -0.000298 -0.005966 0.002625 -0.002675 -0.007651 0.009508 0.008759 -0.002190 -0.000452 0.001018 -0.007275 -0.008014 0.009109 0.000126 -0.005165 -0.006084 -0.006153 0.003394 0.000403 0.002662 
[entity_start] -0.008433 -0.007618 -0.000259 0.002299 0.005093 -0.006333 0.008162 0.001833 0.002205 -0.001219 0.006001 -0.004587 -0.004212 0.004315 -0.001521 0.002075 0.003629 -0.008191 -0.003940 0.005830 0.008464 0.007884 -0.006074 -0.004205 -0.001814 0.004007 -0.007580 0.006003 0.005553 -0.003191 -0.003100 -0.004486 0.008457 0.007815 -0.002376 0.008446 0.009645 0.003614 0.009956 -0.006235 -0.003071 -0.004205 -0.005803 0.005639 0.003176 0.000887 -0.004392 0.003063 0.006078 0.000390 
[entity_end] 0.004521 -0.009911 0.008593 0.000974 -0.003639 -0.004154 -0.001491 -0.005904 -0.008807 -0.005675 0.008613 -0.003557 -0.005398 0.004623 -0.003437 0.009541 -0.003177 -0.009197 0.005482 -0.000184 -0.006971 0.001997 0.002885 -0.000972 0.003658 -0.007884 0.001716 0.003671 -0.006033 0.000262 -0.000098 -0.004815 -0.005677 -0.009356 0.000030 0.000368 0.000048 -0.007867 -0.009923 -0.009529 -0.008640 -0.001101 0.002790 0.002447 -0.006306 0.010063 -0.004042 -0.002530 -0.002839 0.009431 
the -0.007527 0.002322 -0.002671 0.006375 0.000081 0.008539 -0.005638 -0.005210 -0.008384 -0.007334 -0.006399 -0.006230 0.004888 -0.003734 0.005360 0.007380 0.002712 0.005901 0.004951 0.004681 -0.007101 -0.006866 -0.007313 -0.000264 0.008261 -0.005473 -0.006121 -0.008393 0.006612 -0.008358 -0.001158 0.004358 -0.009236 -0.008957 0.002886 0.007049 0.008528 0.004291 0.006324 -0.006255 -0.007281 0.007950 -0.005530 0.003507 0.001148 0.003581 -0.002365 0.000398 -0.003372 -0.002253 
in -0.008836 -0.006567 0.006977 0.002021 -0.004755 -0.003178 0.005006 -0.007142 -0.004604 0.009478 0.008550 -0.007980 0.001781 -0.004539 0.000273 0.006006 0.009731 0.003909 0.008261 0.006316 -0.000422 0.008975 0.005096 0.009454 -0.003495 0.009526 0.008643 -0.002890 -0.008835 0.009646 0.001755 -0.004140 -0.001384 -0.001476 -0.007723 -0.002781 -0.000876 -0.009876 -0.007001 -0.002456 -0.001909 0.003644 0.001666 -0.001199 0.005932 0.002916 0.001073 0.007323 -0.002275 -0.002787 
of -0.000860 -0.005478 -0.005992 0.000402 0.008715 -0.002757 -0.000027 -0.008313 0.007392 -0.003030 0.005947 -0.004858 -0.001818 0.000185 0.007245 -0.000159 0.008895 -0.001500 0.004230 -0.000284 -0.007815 0.008565 0.002107 -0.006040 0.006019 -0.008266 -0.008715 0.006548 -0.006869 -0.005298 0.007059 0.006576 0.001375 0.009077 0.009705 0.008138 0.003560 -0.008708 0.004559 -0.009788 -0.002576 0.003034 0.001923 -0.003037 0.005907 -0.009202 -0.002850 -0.002611 -0.003337 0.006116 
1892 -0.009466 0.005530 0.002687 0.005687 0.007325 0.000550 0.001661 -0.009077 -0.002097 0.006483 -0.003566 0.008402 -0.002365 -0.007775 -0.005201 0.009802 0.006708 -0.007905 0.009640 -0.008394 -0.009512 0.004924 -0.001280 -0.004642 -0.000789 -0.004978 0.004818 0.007617 0.008325 -0.008816 -0.004218 0.000007 -0.001884 0.007643 0.004402 0.009065 -0.006197 0.003397 0.008535 -0.003660 0.005854 0.002586 -0.009001 0.008406 0.009427 -0.005805 -0.000503 -0.003176 0.004909 -0.007723 
he 0.006987 -0.001884 -0.002434 -0.004062 -0.008803 -0.006097 -0.002238 0.009236 -0.005042 -0.009275 0.000791 0.001224 0.006082 0.000146 0.006964 0.005966 -0.002618 -0.001274 0.001594 0.002525 0.006671 0.008029 -0.005006 -0.005037 -0.003240 -0.005383 0.002476 -0.007658 -0.004538 -0.009947 0.004352 0.008725 -0.004410 -0.009101 0.005935 0.003175 -0.005043 -0.001283 -0.002462 -0.000247 -0.003626 0.000071 -0.005527 0.007523 0.007654 0.006523 -0.002948 0.000547 0.001611 -0.005366 
was -0.009397 -0.002162 -0.003884 0.005979 0.005394 0.003600 -0.006196 0.007005 -0.003203 0.006813 0.002684 0.009503 0.005099 0.001392 -0.004582 0.009955 -0.004391 0.006603 0.010006 0.009821 -0.001452 0.006567 0.009069 -0.004341 0.009338 -0.009909 0.000504 -0.000897 0.008404 -0.008614 -0.002951 -0.003197 0.000846 0.009478 -0.003317 -0.009806 -0.002949 0.008454 0.002094 0.005772 -0.007689 -0.002497 0.001098 -0.004692 0.007070 -0.009627 0.006536 -0.004730 0.006424 0.006431 
high -0.003774 0.007096 0.000839 0.009538 -0.007044 -0.002487 0.005586 0.008871 0.004549 -0.001974 0.000978 -0.001543 0.003818 0.005201 -0.007673 -0.002641 0.008575 0.000597 0.009945 0.009641 0.001633 -0.009221 0.009146 0.004364 -0.009196 0.007309 -0.009760 -0.004409 0.008901 0.006748 -0.001458 0.002384 -0.006264 -0.009339 0.004364 0.008806 0.008122 0.005608 0.003018 0.003919 -0.000129 0.003153 -0.005184 0.001787 0.001796 -0.000141 0.005071 0.001471 -0.008290 -0.002713 
Glaucoma 0.004074 0.006994 -0.007561 0.001993 0.007243 0.007494 -0.008243 0.005527 -0.005373 -0.002957 0.002521 0.004502 -0.008158 -0.005338 0.002487 0.000491 0.009152 0.004313 -0.005419 -0.000063 0.001680 -0.004748 0.006456 -0.005448 0.009951 0.001351 -0.008988 0.000813 -0.000971 0.001827 0.006123 0.000223 -0.000535 0.000687 -0.005530 -0.000506 0.006526 0.006940 0.003900 -0.009947 0.000400 -0.005270 0.007324 0.008577 0.006550 0.003163 0.002465 -0.003492 -0.004866 -0.003929 
is -0.007811 0.000512 0.001624 0.002761 0.004295 -0.007868 0.006251 -0.002824 -0.008589 0.007906 -0.005640 -0.001576 -0.008345 0.009439 -0.003853 -0.009377 0.007771 0.003174 0.007101 0.002619 0.007369 0.000838 0.007390 0.008714 0.003534 -0.001167 0.002379 0.007893 -0.006275 -0.001141 0.002483 0.004074 0.001090 0.007389 0.002796 0.006583 -0.006631 -0.003974 0.003763 0.009238 0.003202 0.001288 -0.009190 -0.008645 0.008633 0.004935 -0.005980 -0.003306 -0.007746 -0.006846 
Sir 0.008872 -0.005441 0.002093 -0.002184 -0.004408 -0.001089 -0.009185 -0.004619 -0.000481 0.008829 -0.003725 0.007419 -0.009034 0.008376 0.001286 0.000491 0.005244 0.006615 -0.006340 0.006161 0.002667 -0.002393 0.006210 0.000992 0.008547 0.000416 -0.003251 0.006544 -0.006803 -0.000896 0.008088 0.009383 -0.008071 0.002733 0.008040 0.001068 0.005055 0.005366 0.009418 -0.001836 -0.002112 0.006065 -0.009965 0.002233 0.000741 0.008894 -0.007298 -0.000163 0.008926 0.002914 
Arthur 0.005230 0.002559 0.002759 0.002201 0.000421 0.006918 0.007526 0.005769 -0.003845 -0.005510 -0.006409 -0.002252 -0.004834 -0.008157 -0.003777 0.007148 0.005227 -0.009439 -0.004234 0.008061 -0.000727 0.007202 -0.002504 -0.000443 -0.004995 0.003314 -0.008213 0.005623 -0.004602 0.005426 -0.006167 -0.004529 0.008059 0.005145 0.004088 0.003016 0.005906 -0.000940 0.007799 0.007398 0.006769 0.008703 -0.004750 -0.007361 -0.006583 0.000556 0.001795 0.007843 -0.006314 0.006323 
Conan 0.007722 0.007023 0.000382 0.002501 -0.001631 0.009295 -0.008699 -0.009390 0.004044 -0.001294 0.009274 -0.002725 0.000072 0.004233 0.002108 -0.005947 0.006686 0.000089 0.002652 -0.002543 0.009276 0.005248 0.008646 0.009101 -0.001890 0.003804 0.002975 -0.004473 0.008612 0.004733 -0.006625 0.008325 0.000940 0.002236 -0.007256 0.004025 0.000470 -0.004724 -0.001165 0.004170 -0.002420 0.007972 -0.005544 -0.004606 0.007473 0.009291 0.007436 0.009178 -0.009452 -0.006566 
Doyle -0.009366 0.002138 -0.007969 -0.000610 0.001782 -0.004170 0.002273 -0.008834 0.003759 -0.003212 -0.003344 -0.002078 0.004362 -0.003437 -0.004607 -0.006314 -0.003654 -0.008209 0.003868 -0.002508 -0.002416 0.003996 -0.007653 -0.006529 -0.009170 -0.000252 -0.003830 -0.009415 0.004055 -0.009468 -0.004408 0.003024 0.009843 -0.006957 -0.003970 0.009736 0.006146 0.008734 0.007716 -0.005176 -0.004196 0.004275 0.005951 0.007360 0.006535 -0.008924 -0.008882 0.001407 -0.008799 0.005821 
adventures 0.008490 -0.004020 0.007624 -0.009915 0.008349 -0.004751 -0.001485 -0.009726 0.006071 0.008193 -0.008147 -0.001851 0.001986 0.008794 0.000282 -0.009784 0.001275 -0.003710 0.001837 0.007921 -0.005654 -0.005270 -0.000912 -0.002053 -0.003559 -0.006934 -0.000002 -0.008209 0.008110 0.005328 -0.002748 0.006115 -0.005655 -0.009281 0.008843 0.002400 0.005622 -0.006763 -0.002539 0.007140 -0.002731 0.002014 -0.009087 -0.007914 0.009544 -0.009074 0.002042 -0.006365 0.007780 -0.000792 
Sherlock 0.008672 -0.006631 0.002234 -0.009130 -0.006365 -0.002078 0.008337 -0.005112 0.004692 -0.001146 0.006309 0.005524 -0.005333 -0.007351 0.001458 0.001693 0.001395 0.000897 0.004206 0.007523 0.007629 -0.009715 0.009704 -0.007997 0.001199 -0.007816 -0.001630 0.009224 -0.004938 0.003231 -0.004518 -0.001665 0.006861 0.005064 -0.008592 0.003311 -0.000584 0.004133 0.001422 -0.006883 0.000601 -0.007867 0.005756 0.002009 0.003309 0.005412 0.009818 0.008986 0.005080 0.005765 
Holmes 0.003940 -0.001980 0.009055 -0.000387 0.003367 -0.001695 0.002813 -0.001473 0.008451 0.003839 -0.000718 -0.000855 0.004506 -0.006342 -0.003806 0.003015 0.001813 -0.008138 -0.003525 -0.003370 -0.004316 0.007570 0.007818 -0.008406 0.006440 -0.005273 0.003114 0.004446 -0.000537 -0.007549 0.000104 -0.003192 0.004970 0.004785 0.001688 -0.004791 -0.001687 0.000832 -0.004370 -0.008828 -0.000214 -0.005315 -0.005257 0.001327 -0.005254 0.005286 -0.003159 0.007209 -0.006552 -0.003209 
know 0.004752 -0.004668 -0.008744 -0.001769 0.006251 -0.002659 0.008427 0.003670 -0.005812 0.009752 -0.009661 -0.007825 0.006384 -0.005873 0.007231 0.007822 0.005614 -0.002956 -0.005503 -0.000345 -0.000289 -0.009946 -0.007604 0.001738 0.001466 0.009738 0.006235 -0.006860 0.008719 -0.002371 0.006353 -0.002083 0.004279 0.000304 0.008050 0.005143 -0.004049 0.009329 -0.008354 0.008862 -0.003443 0.001284 0.002458 0.008170 0.003888 -0.002292 -0.009234 0.007087 0.000783 0.005145 
that -0.008076 -0.005299 -0.004973 -0.004815 0.006222 0.005068 -0.000547 0.004390 -0.001023 -0.002748 -0.008134 -0.005682 0.000502 -0.004685 -0.004920 -0.008469 0.006108 0.008319 -0.003093 0.007592 -0.003890 -0.009673 -0.009839 -0.000937 -0.004182 0.000401 -0.007348 0.007506 -0.004454 0.002605 0.007194 -0.000515 -0.009395 0.005999 0.001600 0.006562 0.001310 0.004648 0.008681 0.005298 -0.007029 -0.002387 0.006251 -0.002743 -0.004098 0.008957 -0.002879 0.009002 0.005415 0.007743 
write 0.009105 -0.007911 0.001827 0.008037 -0.004991 0.003097 -0.009567 0.008889 -0.007342 0.003574 0.001576 -0.005632 0.004862 0.000080 -0.009468 -0.006454 -0.000576 0.004192 -0.002350 0.000481 0.009164 -0.007543 0.008222 -0.005775 -0.008120 0.006451 -0.007449 -0.001151 -0.009597 -0.007278 0.005974 0.003417 -0.007453 0.002847 0.008786 0.001986 -0.008886 -0.006629 0.006308 -0.006381 0.003923 0.005889 0.008851 0.002389 -0.006225 0.006931 -0.008283 -0.002653 0.008497 0.008068 
You -0.004764 -0.007442 0.000888 0.005865 0.004709 0.007086 0.008770 0.001886 -0.009547 0.004992 -0.005047 0.002693 0.007778 -0.004660 0.007249 -0.000152 -0.003002 -0.007808 -0.001529 0.009912 0.003425 -0.005390 0.006431 -0.005550 -0.002628 0.006657 -0.006058 0.000022 -0.005850 -0.002604 0.008817 -0.001808 -0.005927 0.000888 0.003867 0.005523 0.002454 -0.003803 -0.003095 0.003576 0.009603 0.007385 -0.009256 -0.001086 -0.009165 0.003514 -0.006804 0.003100 0.006461 -0.001353 
wang -0.002925 -0.007304 0.001794 -0.008153 0.000191 0.009264 0.007147 0.007175 0.005358 -0.000632 -0.002168 -0.006305 0.000389 -0.005431 -0.005839 0.005468 -0.001905 -0.008569 0.001448 0.001559 -0.003710 -0.008485 -0.009996 0.006028 -0.002215 0.001385 -0.004858 0.007938 -0.009606 -0.007398 -0.002826 0.001352 0.006928 0.001729 0.001414 0.005333 0.005201 -0.009671 -0.001827 0.003943 0.008024 0.004964 0.002764 0.006244 0.003211 -0.002804 -0.004501 0.006299 0.003574 0.003589 
copy 0.001692 0.003170 0.006924 0.005705 -0.008346 0.000920 -0.003924 -0.009895 0.000698 0.008612 -0.001159 0.008354 0.009137 0.000307 0.008032 -0.002988 0.002283 -0.004931 0.001461 -0.002357 -0.009552 -0.003040 0.001940 -0.003191 0.008945 -0.004958 -0.002717 0.006073 -0.001913 0.003379 0.000302 0.001997 0.003186 0.001031 0.008809 0.006144 -0.005446 -0.007937 0.005617 0.005076 0.007505 0.005536 -0.001462 -0.009644 0.002350 -0.004488 0.000385 -0.001455 0.004402 0.001056 
at 0.008967 -0.008802 0.003970 0.006234 0.007114 -0.005106 -0.003621 0.000091 0.002567 0.001190 0.001940 -0.003297 0.008248 0.006675 0.005928 -0.004846 0.001954 -0.007175 -0.001289 -0.000550 0.006407 0.006292 -0.004430 -0.001287 0.009515 -0.001402 -0.003194 0.006992 0.003967 0.006327 0.007792 0.003281 0.007719 -0.008985 -0.001250 -0.008244 0.003523 -0.000758 0.005045 0.001372 -0.000833 0.002561 0.007019 0.006304 0.007510 -0.002402 0.009906 0.005489 0.006308 0.005774 
now 0.004107 0.003108 -0.001550 -0.006229 0.004880 0.008135 -0.008331 -0.006882 -0.007485 -0.005323 -0.001174 0.000361 -0.007613 0.001782 -0.002260 -0.002918 -0.005223 -0.006482 -0.008820 0.009837 -0.005013 -0.001070 0.006995 -0.009789 -0.006644 -0.007871 -0.002009 -0.005288 -0.004822 -0.007882 0.001970 0.004965 -0.009255 0.002980 0.001745 0.007481 -0.004574 -0.006187 0.005124 -0.006132 0.009489 -0.001371 0.004938 0.000649 -0.001741 -0.003486 -0.001009 0.009384 -0.007949 -0.008481 
caused -0.009896 0.006692 0.006172 -0.007262 0.006072 0.004081 0.000939 -0.005801 -0.000284 -0.001870 0.001663 -0.005023 0.008848 -0.009598 -0.001344 -0.000867 -0.003719 0.007459 0.007231 -0.004269 0.009827 0.000863 0.007701 -0.001167 0.002299 0.007178 0.005378 0.007501 -0.008491 0.007965 -0.009425 0.005798 0.000270 0.009788 -0.001396 0.002787 -0.003605 0.004208 0.009777 -0.007471 -0.007305 0.007788 0.009407 -0.005912 0.006983 0.002091 0.007806 -0.008474 0.002072 -0.006320 
by 0.000294 -0.006072 0.005754 -0.005888 0.007161 -0.004688 -0.009097 -0.000024 -0.006237 -0.005279 -0.004727 -0.007195 -0.009643 -0.003688 0.001683 -0.000866 -0.007727 0.009079 -0.002041 -0.009417 -0.000142 0.007106 -0.003088 0.003676 -0.001595 0.009434 -0.003655 0.000040 -0.001786 0.000164 -0.000889 0.006140 -0.005403 0.008329 -0.007020 -0.006383 0.007887 0.007998 -0.009226 -0.001002 0.003380 -0.001785 -0.009711 0.003848 -0.008626 0.003077 -0.005625 -0.005270 0.007217 -0.008368 
Headache -0.009232 0.003197 -0.008841 -0.002075 -0.007549 0.005840 0.008630 0.001044 -0.003002 0.004183 0.009891 0.005051 0.007347 0.004879 -0.009815 -0.001008 -0.008565 -0.000595 0.009858 -0.003081 0.001846 0.004318 -0.005752 -0.002055 -0.003403 0.001136 -0.006411 0.006157 -0.001779 -0.003445 0.003444 -0.009539 -0.005146 0.002154 0.003792 0.005038 -0.000833 -0.005740 0.000139 0.008878 0.008892 -0.005369 0.002759 0.006214 0.006966 0.009843 0.006949 0.005896 0.001098 -0.008647 
