1342 50
</s> 0.008005 0.008839 -0.007661 -0.006556 0.002733 0.006042 0.001882 0.000423 -0.007207 0.004437 -0.008713 0.002499 -0.001503 -0.001914 -0.006631 -0.003764 0.005159 0.006051 0.005938 0.003195 0.003090 -0.007605 -0.008192 0.009939 0.007603 0.006180 -0.001208 0.008031 -0.000990 0.001469 -0.000298 -0.005966 0.002625 -0.002675 -0.007651 0.009508 0.008759 -0.002190 -0.000452 0.001018 -0.007275 -0.008014 0.009109 0.000126 -0.005165 -0.006084 -0.006153 0.003394 0.000403 0.002662 
[entity_start] -0.143045 -0.206041 -0.063224 -0.146012 0.218068 0.001606 0.011782 -0.220208 -0.209445 -0.092008 0.220804 -0.051737 -0.254683 -0.076767 0.013365 0.058261 0.262875 0.027154 0.059285 0.225188 -0.224116 -0.092383 -0.157180 -0.306748 -0.027073 0.041247 -0.418711 -0.173276 0.008019 0.014777 0.041487 0.149666 0.105846 -0.229492 0.055518 0.356503 0.251821 0.077785 0.319901 -0.023723 -0.189286 0.073422 -0.163793 0.188409 -0.187348 -0.052621 0.076156 0.097028 0.031466 -0.047285 
[entity_end] -0.232782 -0.254662 0.125975 0.090841 0.056092 -0.003801 -0.019128 0.017438 0.026879 -0.042980 0.147967 -0.030271 -0.110557 -0.051869 -0.102339 0.298807 0.284343 0.036345 0.104012 0.188935 -0.162876 0.105159 -0.257343 0.060265 0.094555 0.029955 -0.131365 0.048599 -0.061942 0.014814 -0.033899 0.068199 0.069535 -0.152456 -0.061335 0.190161 0.106390 -0.006767 0.033916 -0.193037 -0.151653 0.154523 0.065462 0.166936 -0.018799 0.057487 0.007257 -0.085261 -0.117385 0.041641 
the 0.003885 -0.043333 0.032395 -0.108503 -0.107802 0.013244 -0.201124 0.049078 -0.203653 0.020473 0.195388 -0.264169 -0.142523 0.055406 -0.016386 0.209947 0.100777 0.066993 0.209628 0.055745 -0.051254 0.020139 -0.186386 0.027203 0.221670 0.059356 -0.182801 -0.071307 -0.156300 0.006966 -0.050899 0.000381 -0.027263 0.083602 -0.037765 0.246355 0.179699 -0.054691 0.091675 -0.050907 0.035087 0.041535 0.157563 0.266180 0.006493 0.175908 -0.078974 0.038040 0.034478 -0.109882 
of -0.110015 -0.129647 0.037011 0.059804 0.028891 0.009353 0.110373 0.068813 -0.260531 -0.103471 0.103875 -0.169854 -0.068405 -0.024914 0.046185 0.173839 0.125930 -0.033413 0.148521 0.139800 0.026991 0.110532 0.104113 0.071672 0.065084 -0.167529 0.039242 0.083241 0.187068 0.252880 -0.090518 0.110679 0.005558 0.024389 0.095091 0.244338 0.106202 0.073646 0.172257 -0.321236 -0.020876 -0.033516 -0.224653 -0.008970 0.111936 0.271688 -0.095540 0.056334 -0.085706 -0.031463 
a -0.403886 -0.348503 0.179689 -0.041176 0.028005 -0.095918 0.020426 -0.186040 0.002751 0.080448 0.311464 -0.265804 -0.137184 -0.174251 0.044205 0.224633 0.083381 -0.081087 0.105627 -0.028748 -0.214684 -0.007896 -0.007959 -0.317297 0.188158 -0.136134 -0.136393 -0.096845 -0.195043 -0.084046 -0.044607 0.066456 -0.084479 0.112271 0.151268 0.049021 0.072333 -0.098448 0.065263 -0.201007 -0.049177 0.104385 -0.069078 0.181110 0.075030 0.247090 -0.229545 -0.060035 -0.180068 0.042116 
and -0.239052 -0.119278 0.257643 0.060192 0.146125 -0.145365 0.070542 -0.163632 -0.263373 0.031803 -0.035084 -0.046434 0.059471 0.103532 -0.174034 0.425951 0.266463 -0.058252 0.206341 0.457623 -0.120818 0.085362 0.103417 0.026560 -0.146718 0.060854 -0.200661 -0.119309 -0.114215 -0.045263 -0.206297 0.114936 -0.175893 0.119816 0.017805 0.103881 0.202211 0.083000 0.231280 -0.246626 -0.046012 0.162688 -0.110914 0.290520 0.123177 0.130109 -0.071732 -0.133143 0.176734 0.058482 
in -0.101957 -0.135631 0.124615 -0.008354 0.111724 -0.023634 0.009066 -0.027918 -0.027919 0.018423 0.070794 -0.153139 -0.112683 0.047067 -0.221125 0.080552 0.191236 0.032699 0.145900 0.056973 -0.132157 -0.002539 -0.341261 -0.094624 0.265926 0.015057 -0.012903 -0.177578 -0.266014 -0.051660 0.062917 0.119395 -0.081203 -0.150587 0.063859 0.095472 0.179965 -0.039742 0.011495 -0.251535 -0.069277 0.048181 0.116973 0.245273 0.104907 0.052639 -0.073217 -0.020678 -0.149395 -0.096994 
to -0.193972 -0.284939 0.300992 -0.145084 0.158360 -0.050736 0.059055 -0.161475 -0.138212 -0.105627 0.019182 -0.117095 0.119301 0.023471 -0.175527 0.142770 0.094048 -0.035704 0.369587 0.034079 0.038674 -0.082472 -0.107575 -0.137817 0.068657 -0.212117 -0.187797 0.019657 0.080919 -0.012585 0.002893 0.052538 0.005229 -0.122442 0.003830 0.388888 0.062340 0.019401 0.228316 -0.307062 0.041959 0.046760 -0.169657 0.052206 0.237095 0.096893 -0.108855 0.258442 -0.072835 0.156069 
is -0.187475 -0.211395 0.128863 0.210927 0.098348 -0.093037 0.082153 0.030173 0.061662 -0.185217 0.144533 -0.094439 -0.065659 -0.055566 -0.173609 -0.049146 0.517672 0.056639 0.091669 0.334591 -0.149385 -0.075453 0.366559 0.031530 0.073054 -0.028702 -0.178360 -0.117926 0.096777 0.067123 -0.164203 0.130868 -0.245210 -0.034491 0.082304 0.009854 0.052111 0.105205 -0.082153 -0.058959 -0.055663 0.067080 -0.214785 -0.097179 -0.112156 0.203964 0.122518 0.087404 -0.144502 -0.058303 
was -0.463379 -0.465913 0.073583 -0.107346 0.282073 0.027419 -0.246036 -0.236761 0.229625 -0.056724 0.309963 -0.206347 -0.265768 -0.033323 -0.199484 0.161422 0.346837 -0.185757 -0.118836 -0.115274 -0.216943 -0.123095 0.126866 -0.125031 0.524795 0.048970 -0.401737 -0.132669 -0.181799 -0.136428 0.485176 0.063544 0.136192 0.095673 0.155298 -0.243684 -0.130835 -0.186537 -0.063091 0.119475 -0.059076 0.002102 0.061680 0.196735 0.055894 0.317933 0.148949 -0.073310 -0.228469 -0.047497 
from -0.090979 -0.233685 0.027997 0.074740 0.257593 -0.191218 0.219516 -0.021117 0.034746 -0.173894 0.057438 -0.253547 -0.208261 0.312234 -0.268736 0.009195 0.265214 -0.104636 0.154689 0.102730 0.026465 0.048176 -0.065463 0.222441 0.151055 -0.050226 -0.074192 -0.027460 0.147971 0.204850 -0.032960 0.337006 -0.087141 -0.079519 0.274198 0.284634 0.139137 0.005887 -0.097384 -0.277847 0.048836 -0.109347 -0.354186 -0.199532 -0.030412 0.089601 0.004481 -0.002356 -0.023499 -0.163308 
by -0.112312 -0.099493 -0.190832 0.150386 0.023641 0.119550 -0.369032 -0.023478 -0.283421 -0.197035 0.049523 -0.211163 -0.098954 0.079564 -0.127426 0.306517 0.670114 0.100706 0.279602 0.321260 -0.025854 -0.019565 0.086910 0.091387 0.437566 0.091969 0.032467 0.364930 -0.095484 0.106416 0.068688 0.290161 -0.276307 -0.083677 -0.004037 0.199293 0.247892 0.051571 -0.023892 -0.140403 0.013078 -0.191906 -0.278244 -0.015782 -0.162181 -0.065455 0.258963 -0.088051 0.286079 -0.134708 
with -0.219730 -0.354077 0.172834 0.185608 0.229446 -0.000737 0.156134 -0.142802 -0.129311 -0.046151 0.085283 -0.125736 0.047269 0.165186 -0.144526 0.196519 0.288593 -0.114806 0.040683 0.196709 -0.008956 0.227646 0.027861 0.136842 0.068228 -0.125060 -0.101483 -0.119256 0.018764 0.056908 0.050725 0.103807 0.039408 0.090790 0.069186 -0.015013 0.030754 -0.118790 -0.031496 -0.167673 0.125945 0.087767 -0.097519 -0.041698 0.042146 0.073776 0.210744 -0.014145 -0.161813 -0.037684 
on -0.075752 -0.509438 0.228870 -0.051897 0.053572 0.066686 -0.101341 -0.138858 -0.386505 -0.133195 0.071633 -0.267028 -0.023283 0.126114 -0.065559 0.193316 0.250801 -0.158945 -0.081053 0.228135 -0.017031 0.047223 0.116669 0.000501 0.242264 0.037597 -0.135212 -0.180390 0.053144 -0.050964 -0.030943 0.226280 0.027213 0.028457 0.138002 0.332118 0.157813 0.081386 0.290422 0.011331 0.022893 0.391031 -0.265858 0.247607 0.070544 0.067631 0.062784 0.136036 -0.009826 -0.087883 
that -0.500977 -0.067454 0.122207 -0.209667 0.152888 -0.118169 0.059302 -0.266637 -0.075804 -0.119159 0.029028 0.032618 -0.106411 0.056956 -0.142107 0.040191 0.043528 0.037677 0.162467 0.044235 -0.127474 0.000865 -0.227357 -0.094904 0.027646 -0.115683 -0.104158 0.022232 -0.077247 -0.064600 -0.023582 0.017031 0.003205 0.008126 0.007558 0.192771 0.230114 -0.023993 0.187963 -0.266682 -0.104339 0.189542 0.021614 0.017546 0.140918 0.023863 -0.096169 0.016975 -0.197774 -0.036549 
into 0.032041 -0.544617 0.036168 -0.015601 0.329327 -0.512697 0.142580 -0.394801 -0.000140 0.354801 0.225798 -0.069442 -0.056703 0.192654 0.047658 -0.018181 0.032623 -0.254354 0.088674 0.211566 -0.017765 0.059737 -0.077245 0.082796 0.036762 -0.413423 0.027394 -0.220156 0.229473 0.095713 -0.019429 0.163391 -0.056784 -0.303639 0.248170 0.088337 0.319772 -0.173266 -0.070312 -0.172745 -0.250939 0.361812 -0.180118 0.128019 0.218779 0.113320 -0.176376 -0.333418 0.330802 0.207942 
for 0.214447 -0.300237 0.089811 -0.114107 -0.166750 -0.134206 0.127943 -0.210772 -0.165923 -0.026037 -0.023044 -0.097524 -0.068434 -0.055457 -0.123135 0.314523 0.393022 -0.178279 0.120237 0.218219 0.118187 -0.012473 -0.026254 -0.062397 -0.144648 -0.218207 -0.117244 0.019111 0.001262 0.108395 -0.248160 0.194075 -0.011779 0.063036 0.035858 0.164513 0.118667 0.073207 0.230724 -0.491613 -0.061499 -0.014613 -0.183557 0.023708 0.223538 0.250465 -0.131944 0.172097 0.058717 0.102530 
an -0.231036 -0.236112 -0.026576 0.216182 -0.012762 -0.019955 -0.081060 -0.007211 0.021668 -0.111605 0.147555 -0.204207 -0.093979 -0.076290 0.031824 -0.036907 0.271590 0.138797 0.111238 0.183441 -0.054922 -0.011142 -0.036112 -0.135817 0.102803 0.029785 -0.239797 0.129108 0.133270 -0.122779 0.093685 0.272526 -0.086230 -0.038355 0.126647 -0.038790 0.047459 0.117071 -0.007412 -0.316485 -0.136226 0.155519 -0.298435 -0.083678 0.116211 0.300903 -0.128189 -0.029867 -0.296033 -0.070079 
as 0.094711 -0.305656 -0.020413 0.022719 0.221496 -0.091150 0.262717 -0.165201 -0.256723 0.104431 -0.143149 -0.246925 0.235378 -0.047015 -0.210510 0.380338 0.462397 -0.292337 0.045166 0.118330 0.245407 0.106889 -0.000282 0.035789 -0.020108 0.001025 0.269571 0.075550 0.267500 0.152674 -0.197689 0.092830 0.174871 0.058661 0.119943 0.136365 0.154265 0.191189 0.161150 -0.321170 -0.017076 0.242895 0.063222 -0.094273 0.392413 0.110504 0.053115 0.179728 0.041824 -0.296240 
this -0.130973 -0.223143 0.061950 -0.214330 0.001930 -0.028334 -0.093976 -0.118458 -0.075814 -0.084870 -0.026226 -0.157516 -0.058481 0.034066 -0.078418 0.146171 0.112519 0.145470 0.278957 0.004265 -0.046228 -0.178430 -0.278752 -0.199508 0.001286 -0.085497 -0.309968 -0.003972 0.160001 0.054307 0.046557 0.066694 -0.135414 0.026216 0.123152 0.149525 0.193318 0.104148 0.189984 -0.252790 -0.180776 -0.048309 0.076872 0.068445 0.126856 0.260415 -0.195619 0.103189 -0.057904 0.057231 
has 0.453682 -0.461524 -0.033558 0.238426 -0.038839 -0.084859 -0.130571 0.085632 -0.160268 0.136045 0.195764 -0.386779 0.134267 0.087966 0.079852 -0.159139 0.152229 -0.159114 0.149719 0.065372 0.102743 -0.121238 0.076120 -0.101339 0.188521 -0.219047 -0.249106 -0.060399 0.031634 0.024343 -0.045476 0.183947 -0.064573 -0.263116 0.091119 0.544439 0.200726 -0.092308 0.314666 -0.287874 -0.163117 0.108034 -0.079209 0.388689 0.069310 0.142091 -0.292485 0.199448 0.250106 0.512391 
are -0.299050 -0.107474 0.077160 0.166203 0.312489 0.104855 0.335771 -0.014329 -0.504209 -0.142318 0.022442 0.063402 0.330456 0.181101 -0.198637 0.191357 -0.002361 -0.110512 0.405042 0.336098 -0.105754 -0.031378 0.167882 -0.251501 -0.020794 -0.107010 -0.067701 0.076864 0.130492 -0.144502 0.288443 -0.018864 0.012318 -0.079669 -0.073282 -0.044978 0.219912 0.198826 0.227061 -0.128868 -0.067218 0.417644 -0.306331 0.044723 -0.143038 0.030462 0.012898 -0.079627 0.260227 -0.267972 
it -0.332719 -0.271279 0.057758 -0.276488 -0.162359 0.199170 0.165348 -0.241930 0.019841 -0.070062 0.123982 -0.085921 -0.101486 -0.332712 -0.238784 0.474121 0.335993 -0.073305 0.339429 0.078238 -0.286383 -0.026442 -0.283937 0.047045 -0.165523 -0.089613 -0.186367 -0.013431 -0.248197 -0.059362 -0.039095 -0.247392 0.031367 0.086640 -0.172089 0.204300 0.293775 -0.242960 -0.032598 -0.037134 -0.105543 0.054365 0.105998 0.147147 0.378467 0.300164 -0.048093 0.414204 -0.402064 -0.191558 
his -0.072623 -0.384449 0.190894 -0.173972 -0.001555 -0.030545 0.012554 -0.532692 -0.061889 0.176440 0.258055 -0.173591 -0.060930 -0.054922 0.129701 -0.091517 0.101280 -0.120613 0.026187 -0.030392 -0.196027 -0.066196 0.301047 -0.107319 -0.116465 -0.261007 -0.567046 0.050088 -0.019964 -0.021632 0.210311 0.081677 -0.054056 0.257361 0.201756 0.126371 -0.125606 -0.268757 0.128223 0.193030 -0.071036 0.041515 -0.219145 0.084925 0.101653 0.543292 -0.447179 0.196449 -0.080990 0.134861 
have 0.159937 -0.363371 0.046338 0.394713 0.114455 -0.133245 0.348216 -0.055737 -0.223729 0.147163 0.222298 -0.152524 0.468411 0.034588 0.134615 -0.200345 -0.104609 -0.123366 0.361360 0.063601 -0.016795 0.200171 -0.383004 0.004986 -0.015297 -0.479667 -0.156136 0.062825 0.017847 -0.022285 0.128422 0.063439 0.047685 -0.534886 0.112006 0.486600 0.583345 -0.244227 0.385080 -0.544815 -0.105239 0.123058 0.010068 0.399524 0.306735 -0.027237 -0.164927 0.226499 0.154645 0.240043 
at 0.009103 -0.278010 0.026560 -0.040295 0.074336 -0.025655 -0.420117 -0.161229 0.034732 -0.083428 -0.003796 -0.324011 -0.046792 0.189314 0.076677 0.094001 -0.023834 0.072451 -0.089632 0.107938 -0.076446 0.011258 0.010677 -0.108953 0.087540 0.217396 -0.194282 -0.342420 0.032826 0.010129 0.038580 0.389024 -0.226626 0.112818 0.231369 0.132625 0.050329 -0.047284 0.125146 -0.253489 0.016740 -0.220603 -0.202981 0.164942 0.027137 0.194653 -0.073272 0.143008 -0.316540 -0.156928 
caused -0.267673 0.298774 -0.141557 -0.150398 0.209980 0.087334 -0.021691 0.132497 -0.229795 -0.343679 0.178185 -0.093640 -0.237133 -0.167604 -0.068889 0.085976 0.523989 0.186867 0.279997 0.148982 0.312532 0.062219 0.274138 0.091394 0.288841 0.005854 -0.321705 0.294518 0.006951 0.184204 -0.382836 0.353439 0.166356 0.022310 0.014127 0.262693 0.243219 0.278175 0.115030 -0.264060 -0.265680 0.033305 0.423591 -0.299001 -0.178926 0.038822 0.315317 -0.192211 0.080836 -0.125767 
were -0.380764 -0.210837 0.186521 -0.000815 0.277975 0.055863 0.104571 -0.108026 -0.104042 -0.157368 -0.093555 -0.228011 0.150189 0.121466 -0.138454 0.306279 -0.109333 -0.143074 0.173528 0.007440 -0.130688 0.175998 0.050790 -0.140274 0.014202 -0.047185 0.115294 -0.116990 0.140048 -0.125089 0.183899 0.307963 -0.079984 0.066997 0.111393 0.011609 0.084052 0.149352 0.050993 -0.230804 0.078934 0.240921 -0.348179 -0.039478 0.029058 -0.052833 0.044976 -0.202981 -0.051044 -0.192728 
i -0.337052 -0.048087 0.163275 -0.285043 0.060064 -0.214143 0.353019 -0.580856 0.063521 0.030203 0.247180 0.283422 0.033552 0.073825 -0.061755 -0.129764 -0.381005 -0.153460 0.030254 -0.266394 -0.163787 0.010560 -0.063306 -0.222781 -0.219004 -0.412379 -0.513899 -0.045803 -0.222798 -0.222978 0.210239 0.042687 0.039203 -0.258861 0.138691 0.230027 0.170585 -0.468040 0.180953 -0.237767 0.048911 0.373673 -0.169319 0.317203 0.249908 0.395570 -0.071770 0.006277 -0.134751 -0.046850 
which -0.316199 0.073975 -0.198788 -0.102645 0.094387 -0.055297 -0.145954 0.095751 -0.031236 -0.036020 0.068410 -0.042196 -0.399796 -0.152062 -0.259753 0.348605 0.572072 -0.065150 0.101506 0.392108 -0.231899 -0.096099 -0.044488 -0.090189 0.107878 -0.048114 -0.157036 0.036254 -0.224745 0.129953 -0.322983 0.059142 -0.184492 -0.039961 -0.051799 0.214058 0.140921 -0.024646 0.148375 -0.230066 -0.183260 0.390572 0.028900 0.139739 -0.016774 -0.002225 0.084164 -0.148908 0.026605 0.093114 
been 0.169313 -0.194222 0.192120 0.000364 0.186791 -0.283659 -0.400418 -0.250339 -0.279342 0.217709 0.166351 0.202418 -0.040522 -0.110419 0.107169 0.033203 -0.162149 -0.035140 -0.281532 0.328662 -0.256956 -0.200448 0.032521 -0.296322 -0.052151 -0.255963 -0.249535 0.043905 -0.125505 -0.142126 0.098835 0.297767 0.139549 -0.400333 0.230430 0.098866 0.276053 0.062976 0.547795 -0.066101 -0.727564 0.527275 -0.151228 0.504813 -0.202266 0.047078 -0.327040 -0.765167 0.196807 0.811173 
one -0.158105 -0.228642 0.183898 -0.187226 0.033940 -0.118699 0.157526 0.148315 -0.001000 0.173179 0.022355 -0.062161 -0.143907 -0.088027 -0.017947 0.134922 0.132854 0.084223 0.263341 0.209556 0.024921 0.024577 -0.061618 -0.221659 0.033699 0.149844 -0.085363 -0.312592 0.079485 0.054453 -0.144288 -0.013310 -0.135486 -0.051845 -0.148526 0.245718 0.090977 0.214326 0.069623 -0.237061 0.082922 0.247481 0.017531 0.152645 0.128864 0.056248 -0.051408 0.055712 -0.166522 -0.108468 
he -0.134528 -0.242944 0.279396 -0.176970 -0.081635 0.001942 0.333094 -0.230872 -0.003189 0.257241 0.142674 -0.131553 0.043592 -0.236514 -0.045386 0.041136 -0.009784 -0.256949 0.041065 -0.027829 -0.263319 0.186192 0.108586 0.015760 -0.191906 -0.259880 -0.559839 0.171127 -0.253916 -0.007958 0.003991 0.009388 0.016042 0.291807 0.187712 0.253881 0.029154 -0.332302 0.226521 -0.013696 -0.055502 0.033710 -0.121183 0.146825 0.313188 0.431199 -0.112549 0.058547 -0.189721 0.024898 
or -0.219757 -0.077995 0.246588 0.026839 0.132973 -0.333469 0.198825 -0.087013 -0.233144 0.131844 0.172612 0.232963 -0.169296 -0.011040 -0.048573 0.436752 0.527813 0.067382 0.439452 0.487648 -0.055492 0.168637 0.147658 0.004705 -0.074471 -0.105244 0.040966 -0.069257 0.048249 -0.166492 -0.125254 -0.172902 -0.035817 0.096204 -0.096133 -0.056861 0.004540 0.057512 -0.038698 -0.073539 0.008018 0.360187 -0.143353 0.162854 0.128479 0.004097 -0.067825 -0.039375 -0.101574 -0.053267 
had 0.064544 -0.366467 0.281521 0.045213 0.035635 0.051938 0.187466 -0.242081 -0.119382 -0.022793 0.330803 -0.065047 0.136239 -0.087074 -0.068164 -0.165246 0.114665 -0.132234 0.111941 -0.234469 -0.052570 0.060263 -0.049505 0.019493 0.107346 -0.562969 -0.268632 0.019729 -0.258743 -0.069182 0.179227 0.081533 0.257021 -0.198028 0.047294 0.369442 0.165212 -0.432273 0.295960 -0.124809 -0.028375 0.035648 0.180009 0.216525 0.080103 0.163056 -0.059856 0.312543 -0.242822 0.166586 
their -0.423253 -0.334172 0.223364 -0.021555 -0.016558 0.009628 0.273905 -0.342142 -0.494219 -0.096281 0.081045 -0.156078 0.038209 0.018866 0.082107 0.350969 0.172690 -0.113184 0.205665 0.292045 -0.125561 0.303343 0.235565 -0.076347 -0.170895 0.087772 0.225908 0.006184 0.052821 -0.164655 -0.204654 0.280796 -0.000143 0.184664 0.083155 0.196535 0.322235 0.041916 0.141951 -0.009358 0.048286 0.486170 -0.336580 -0.040116 0.018570 -0.139959 -0.186305 0.016140 0.132925 -0.112754 
we -0.291343 -0.296796 0.283684 -0.421726 -0.105089 -0.157743 0.156219 -0.306100 -0.059369 -0.099427 0.018759 0.202246 -0.017368 -0.007209 -0.084763 0.372144 -0.140419 -0.087455 0.030174 -0.134579 -0.171100 -0.029323 -0.100370 -0.325125 -0.270587 -0.256732 -0.155097 -0.181899 0.053648 -0.064655 -0.110560 -0.090043 -0.081320 0.041457 0.106557 0.067414 0.381555 -0.061557 0.236059 -0.155318 -0.103822 0.371761 0.063440 0.247542 -0.050664 0.133214 -0.208478 -0.025913 -0.038208 -0.110442 
my -0.249368 -0.109326 -0.126084 -0.097559 0.310645 -0.057449 0.330110 -0.184276 0.060004 0.031202 0.195144 0.023314 -0.057664 -0.222900 -0.050771 -0.136732 -0.065068 -0.094123 0.054881 -0.053349 -0.312104 -0.082238 -0.202605 -0.133451 0.023728 -0.605330 -0.266265 -0.010289 0.037230 0.124168 0.231382 0.049011 -0.087080 -0.432327 0.210467 0.163872 0.058988 -0.177375 0.120959 -0.365259 -0.288604 0.130088 -0.206946 0.212445 0.318152 0.434407 -0.002711 -0.233842 -0.082972 -0.004982 
they -0.387903 -0.344979 0.308247 -0.119691 0.101325 0.146810 0.395158 -0.118324 -0.060002 -0.134628 0.144109 0.085828 0.112068 -0.289048 -0.151703 0.347356 -0.005972 -0.169629 0.222400 0.001976 -0.172564 0.119199 0.010850 0.010177 -0.252105 -0.280968 0.047151 0.186297 -0.165039 0.029606 -0.064941 -0.116837 0.224968 -0.062549 -0.195764 0.291967 0.126107 0.063444 0.128076 -0.056441 -0.061305 0.311447 -0.062600 0.021248 -0.075762 -0.072586 -0.028054 0.037544 -0.181861 -0.166993 
when -0.428976 -0.320126 0.169866 -0.286463 0.066903 -0.039994 0.300586 -0.375733 -0.157624 0.111977 0.217868 0.037643 -0.087901 -0.103253 -0.231854 0.109716 0.090350 -0.160534 0.139716 -0.075168 -0.232896 0.126872 -0.188194 0.102818 0.042763 -0.453437 0.187757 -0.108983 -0.251603 -0.120702 0.008072 -0.095657 0.047132 -0.011760 -0.122722 0.258902 0.300939 -0.336115 0.097119 -0.210551 0.115085 0.179522 0.060780 -0.041821 -0.083041 -0.080705 0.197641 0.035837 -0.061507 -0.245774 
after -0.172090 -0.208851 0.022513 -0.115536 -0.101932 -0.105971 0.061777 -0.190773 -0.191511 -0.014138 0.081176 -0.147695 -0.089704 -0.120302 0.065077 0.163048 0.051198 -0.012555 0.096346 0.082175 -0.091845 0.065914 -0.175051 0.003341 -0.055946 -0.156348 -0.294032 -0.084354 -0.044806 0.077916 -0.175074 0.041802 -0.079332 -0.010868 0.028837 0.129366 0.351428 -0.134043 0.068668 -0.266677 0.002908 0.054452 -0.086493 0.230796 0.203063 0.171999 -0.229130 0.032399 0.056043 -0.020057 
but -0.447943 -0.320901 0.054418 -0.428574 0.117906 0.064874 0.265145 -0.295993 -0.106128 -0.123560 0.037900 0.022532 -0.253870 -0.290887 -0.224830 0.144224 0.303754 -0.075163 -0.001595 0.125335 -0.281295 0.048937 -0.130681 0.115645 0.076302 -0.109401 -0.074316 -0.004837 -0.248239 0.052204 -0.079087 -0.142698 -0.094571 0.052997 -0.061799 0.175722 0.281520 -0.189797 0.040876 -0.071695 -0.100010 0.031288 -0.062261 0.052766 0.184587 0.172724 0.318909 0.176290 -0.280052 -0.424848 
out -0.202053 -0.419747 0.372479 0.020958 0.168928 -0.060471 0.229758 -0.368403 0.195659 -0.004133 0.069186 -0.023941 0.015480 -0.075736 -0.069307 0.161089 0.122818 -0.177373 -0.001566 -0.031845 -0.079036 0.121746 0.018827 0.029652 -0.140702 -0.187174 -0.306597 0.004466 -0.074028 0.075682 -0.015324 0.136589 0.230531 0.035383 0.183174 0.045737 -0.212580 -0.186984 0.093162 -0.027339 -0.103830 0.137311 0.106855 0.054010 0.397499 0.232740 -0.240860 0.305704 -0.216823 0.294691 
her -0.485307 -0.427614 0.199372 -0.329345 0.319698 0.066318 0.326656 -0.652084 0.462161 -0.121860 0.177454 -0.368340 -0.448254 -0.248452 -0.188228 0.237407 0.387879 -0.308602 0.137018 -0.296336 -0.420632 -0.064316 -0.192970 -0.459702 0.165290 -0.275068 -0.158381 -0.069537 -0.029480 -0.010384 0.081127 0.505021 0.004297 -0.236196 0.397282 0.243238 -0.226582 -0.266233 -0.014947 -0.093741 -0.093963 -0.071692 0.081796 -0.327835 0.319703 -0.133845 0.246037 0.197996 -0.183775 0.062488 
who -0.001897 -0.271621 0.038595 0.066342 -0.106532 -0.133896 -0.158199 -0.233302 0.165506 0.118295 0.164559 -0.274800 -0.185856 -0.056656 0.157996 0.037949 0.194311 -0.100247 -0.016707 0.013413 -0.075665 0.105761 -0.063702 -0.152167 -0.001636 0.093368 -0.234233 -0.013622 -0.037180 -0.007120 -0.274644 0.398413 -0.081056 0.051023 0.165607 0.194615 0.074088 -0.098648 -0.056073 -0.075962 -0.051761 0.119151 -0.279082 -0.080563 0.090377 0.075120 -0.308412 -0.006414 -0.060037 0.228453 
up -0.365703 -0.412648 -0.017142 -0.122817 -0.072250 -0.052653 0.021269 -0.262431 -0.130739 0.040951 0.149163 -0.201613 -0.075761 0.009650 -0.076854 0.167892 0.148899 -0.136668 -0.172808 0.038489 -0.164134 -0.065957 0.007299 0.171957 -0.088112 -0.320284 -0.027097 -0.251455 -0.031268 0.025091 -0.215547 0.126662 -0.155404 0.238805 0.032714 0.240817 0.236330 -0.159473 0.000723 -0.352013 -0.116557 0.218556 -0.297444 0.099789 0.007785 0.260706 -0.135030 0.028416 -0.194454 -0.100584 
inside -0.367427 -0.425219 -0.124713 -0.207836 0.431354 -0.150460 -0.141368 -0.224068 0.392598 0.424333 0.334841 -0.460373 -0.380022 0.072075 -0.474127 0.381922 0.317021 -0.510491 0.067164 -0.221579 -0.443978 0.109865 -0.415635 0.054473 0.344052 -0.387658 -0.042997 -0.570318 -0.194155 -0.144251 0.282255 -0.119656 0.230885 0.109553 0.288675 -0.062097 -0.021057 -0.436850 -0.192233 -0.021428 -0.090370 0.045331 0.358762 0.114304 0.085401 -0.020740 -0.038010 -0.137920 -0.255140 0.242903 
over -0.254654 -0.254300 0.041668 0.050701 -0.128071 -0.058944 -0.013620 -0.154811 -0.239047 0.122953 0.231569 -0.238020 -0.125700 -0.073641 0.101703 0.069344 0.156410 -0.087800 0.022065 0.071531 -0.047982 0.212121 0.111923 0.073240 -0.041529 -0.154656 -0.110456 0.007486 -0.013639 0.114659 -0.197436 0.179284 -0.020095 0.176243 0.096401 0.208979 0.328063 -0.184171 0.195412 -0.170846 0.036868 0.114678 -0.130150 0.007859 0.194463 0.194245 -0.277629 -0.059147 -0.128059 -0.031097 
its -0.031347 -0.166327 0.200376 0.007763 -0.000199 0.005443 -0.019789 0.072199 -0.149422 -0.101198 0.051686 -0.234058 0.046075 -0.044135 -0.025333 0.245367 0.040377 -0.050158 0.170182 0.159249 -0.000569 0.086482 0.120155 -0.218750 -0.054641 0.071873 -0.122499 -0.086350 0.035113 -0.142231 0.070208 0.017835 0.005222 -0.044788 0.083132 0.215511 0.112536 0.065295 0.274168 -0.073166 0.131045 0.054936 0.004407 0.044683 -0.014936 -0.028963 -0.025958 0.119908 -0.167650 -0.020514 
about 0.121947 -0.250901 0.153429 0.063819 0.005738 -0.272056 -0.020750 -0.237548 0.048265 -0.078897 0.090159 -0.231196 -0.030982 0.151509 0.069140 0.059567 -0.011051 -0.132101 0.065873 -0.011810 -0.134836 0.130956 -0.129090 -0.006277 -0.027151 -0.152824 -0.185962 -0.164289 0.108382 0.058210 0.001720 0.240246 -0.147815 -0.127552 0.242045 0.203898 0.205496 -0.132662 0.020631 -0.207365 0.039518 0.016476 -0.332370 0.131228 0.165360 0.198327 -0.182337 0.112990 0.056900 -0.008035 
first -0.264296 -0.148902 0.063180 -0.082684 0.077556 0.113436 0.120709 -0.148874 -0.094376 -0.108302 0.050770 -0.210509 0.030369 0.068047 -0.117834 -0.080969 -0.052970 -0.043513 0.074459 -0.078855 0.007166 0.002599 -0.115772 0.036389 0.017452 -0.159586 -0.257041 -0.091960 -0.054225 0.028714 0.146118 0.075661 0.037937 0.020182 -0.003086 0.164596 0.164926 -0.110561 0.197414 -0.417574 0.098342 0.080484 -0.164928 0.047612 0.266598 0.370188 -0.140115 0.255477 -0.226874 -0.215626 
some -0.227993 -0.195275 0.121477 -0.050200 -0.018729 -0.090376 -0.012755 -0.133931 -0.169618 -0.112976 -0.047282 0.113605 0.093523 -0.014752 -0.027760 0.017217 0.051624 0.147026 -0.060707 0.061029 -0.055923 -0.135375 -0.145972 -0.005581 -0.012678 -0.212438 -0.090228 -0.015861 -0.016952 0.002275 -0.098929 0.045183 -0.087144 0.035382 -0.025774 0.055158 0.370523 0.092683 0.114940 -0.303165 -0.229591 0.126168 -0.108415 0.169108 -0.009370 0.172288 -0.114838 -0.152366 -0.054742 -0.143727 
new 0.227588 -0.195022 0.077040 0.000463 -0.037456 -0.062038 -0.129506 -0.143318 -0.153437 -0.212964 0.074420 0.080069 -0.015086 0.105604 0.074426 0.162086 0.135942 0.069790 0.115875 0.123713 0.045467 -0.081601 0.017114 -0.104281 -0.025099 -0.189719 -0.422754 -0.126665 -0.037083 0.122652 0.105400 0.174586 -0.105904 -0.194780 0.052235 0.130642 0.322546 0.037591 0.133684 -0.182837 -0.199208 0.097669 -0.167880 0.405617 0.034896 0.356079 -0.296761 0.087564 0.133774 -0.036512 
all -0.046048 -0.077729 0.051131 -0.134548 0.154725 0.043389 0.299676 -0.163003 -0.164425 -0.035343 0.065835 0.008743 -0.055526 -0.046343 -0.085921 0.148722 0.031783 -0.159920 0.248130 0.048987 -0.087207 0.147160 -0.117050 0.033171 -0.060117 -0.347408 0.011032 0.035949 0.054394 0.082681 0.066415 0.037117 0.068246 -0.092380 0.088683 0.162289 0.110980 -0.096862 0.215030 -0.187528 -0.008190 0.200982 -0.049953 0.035164 0.390588 0.253996 -0.132726 0.149485 0.024738 -0.122403 
be -0.309142 0.149784 0.243311 -0.162528 -0.110234 0.047497 0.430217 -0.128573 -0.219303 0.071474 -0.128890 0.360781 0.222947 -0.288498 -0.261810 0.254202 0.160981 -0.150104 0.263061 0.308176 -0.001329 0.081988 0.036923 0.050073 -0.359159 0.085576 -0.067952 0.345549 -0.410369 -0.290439 -0.167227 -0.111228 0.207708 0.130578 -0.360357 0.208665 0.036211 -0.070738 0.203567 -0.038151 -0.002178 0.501830 -0.009427 0.121188 0.648618 0.168248 -0.188773 0.143723 -0.304129 -0.063928 
more 0.247410 -0.037537 0.276889 -0.019580 -0.028908 -0.215703 0.165464 -0.121430 -0.144768 -0.035533 0.236035 0.237650 -0.120440 -0.256902 0.089651 0.540624 0.519275 -0.033505 0.555689 0.195570 0.058733 0.222226 0.067784 -0.276085 -0.223343 -0.365828 0.172182 0.013554 0.034963 -0.162208 -0.085678 -0.062394 -0.101088 -0.230561 0.017573 0.270648 0.038379 0.104429 0.096274 -0.065731 0.107452 0.251001 -0.135870 -0.030811 0.302159 -0.036776 -0.153703 0.177521 -0.133199 -0.114279 
two 0.084456 -0.009769 0.062479 0.016812 0.285711 -0.203429 0.018067 -0.104727 -0.008593 -0.053586 0.141758 0.044529 -0.083797 0.018148 0.002211 0.094723 0.010914 0.065127 0.159614 0.073198 -0.021519 0.068501 0.034351 -0.113323 -0.141348 -0.185157 -0.338088 -0.114510 0.151895 0.023605 0.085104 0.054809 0.051239 -0.160272 0.154740 0.146157 0.283163 0.191677 0.078939 -0.232363 -0.188348 0.266113 -0.163349 0.186033 0.003198 0.166615 -0.139571 -0.092714 0.082311 -0.144493 
other 0.058164 -0.036295 0.260272 -0.022399 0.008411 0.009961 0.231836 -0.087247 -0.182205 -0.235191 0.069749 0.088861 0.054465 0.006922 0.002895 0.393692 0.194324 -0.013533 0.415413 0.124380 0.146786 0.148677 0.137590 -0.137767 -0.181302 -0.108382 0.137696 0.055621 0.102113 -0.027464 0.021281 0.026538 -0.055223 -0.078588 -0.101078 0.217273 0.011947 0.150736 0.029792 -0.057270 0.169153 0.324441 -0.209024 -0.069550 0.166157 -0.005395 -0.107269 0.216633 -0.043014 -0.309978 
book 0.212623 0.033838 -0.225691 0.228582 0.069627 0.040773 -0.213403 0.152788 0.022421 0.055672 0.165886 -0.352378 -0.061189 0.214207 -0.002571 0.106952 0.171891 -0.144314 0.046849 0.077903 0.111985 0.082822 -0.049397 0.097035 0.112635 0.115206 -0.553132 -0.121226 0.093526 0.069801 -0.135606 0.209077 0.054156 0.111138 0.135831 0.062669 0.021630 0.052534 0.050353 -0.096990 -0.126589 0.250502 -0.126698 0.240986 0.180075 0.442512 -0.507954 0.135768 0.036932 0.126040 
there -0.315803 -0.058787 0.076119 -0.220373 -0.077315 -0.123394 0.092853 -0.007377 -0.144777 0.135109 0.130444 0.067590 -0.114229 0.028111 -0.074570 0.242778 0.096529 0.044917 0.209402 0.125974 0.092285 0.094073 -0.108546 0.223693 -0.117016 -0.085651 0.123968 -0.065900 -0.137798 -0.078868 -0.449572 -0.118688 -0.092763 0.286783 -0.236800 0.419846 0.359697 -0.074614 0.172310 -0.291336 0.104220 0.206523 0.065852 -0.000820 -0.023014 -0.124099 -0.136702 0.030836 -0.133538 -0.067937 
through -0.298534 -0.144025 0.102197 -0.019952 0.110792 0.036325 0.118449 -0.078183 -0.168438 -0.044955 -0.008264 -0.008212 0.034633 0.011401 -0.104348 0.307117 0.327694 -0.011211 0.179356 0.372779 0.004319 0.126976 0.085147 0.313413 -0.002906 0.007036 0.043919 0.005196 -0.081015 0.212308 -0.058814 0.080162 -0.132363 0.189888 -0.093850 0.079661 0.073121 0.070096 -0.083662 -0.072512 0.028119 0.059179 -0.298618 0.131763 0.264290 0.257512 0.091493 0.080921 -0.062923 -0.356431 
put -0.432485 -0.611568 0.195769 -0.133202 0.085883 -0.244764 0.092679 -0.212149 0.165649 0.475908 0.281467 -0.148569 -0.017977 -0.168958 -0.117736 0.123454 0.182763 -0.217203 0.039374 -0.072152 -0.197586 -0.082942 -0.288861 -0.002718 0.138308 -0.289516 -0.050002 -0.199460 -0.212032 -0.092463 -0.281109 -0.268346 0.115768 0.185900 -0.197969 0.092737 0.047958 -0.271518 0.107950 -0.376610 -0.256928 0.049675 0.226373 0.175304 0.077905 0.067104 -0.016939 -0.057076 -0.217870 0.390770 
most 0.026163 0.137352 0.045875 0.044949 0.027231 -0.171557 -0.053946 0.103158 -0.291038 0.016793 -0.010796 0.201124 0.099655 0.199352 0.069062 0.164942 0.150723 0.274494 0.323063 0.320133 0.070991 0.048550 0.080793 -0.042656 -0.085708 0.045857 -0.164315 -0.165600 0.218590 -0.008268 -0.117020 -0.093942 -0.224921 0.036858 -0.149556 0.199777 0.411444 0.156840 0.124967 -0.216738 -0.018317 0.292587 -0.074664 0.225380 -0.062950 -0.015046 -0.066960 -0.044548 0.112631 -0.354824 
years 0.349013 0.070255 0.263812 -0.033312 -0.181690 -0.249026 0.089678 -0.089220 0.030535 -0.080098 0.179077 0.255002 -0.088899 -0.252666 0.121142 0.408658 0.210303 -0.027837 0.223846 0.076937 0.019370 0.062474 0.061101 -0.321020 -0.448422 -0.194113 -0.344251 -0.127386 -0.048360 -0.040774 -0.324619 -0.008723 0.041260 -0.198895 0.029936 0.263049 0.218429 0.010665 0.095765 -0.128212 -0.029997 0.255731 0.165989 0.237271 0.047702 -0.043630 -0.266007 0.185932 0.011975 0.178402 
people -0.124535 -0.335014 0.207835 -0.016112 -0.014874 -0.075023 0.079670 -0.290065 -0.166299 -0.060343 0.137544 0.086116 0.034127 -0.063798 0.037010 0.245888 0.006407 -0.104041 0.043251 0.063380 -0.144544 0.009265 -0.095803 -0.100372 -0.187115 -0.299237 -0.010678 -0.073406 -0.106967 -0.079263 -0.244399 0.084258 -0.025718 -0.046448 -0.004975 0.171974 0.309754 0.003834 0.088615 -0.143626 -0.111777 0.398569 -0.125757 0.199070 -0.133831 -0.074875 -0.250573 0.042311 0.172140 0.097315 
using 0.080678 -0.096969 -0.167896 0.100765 0.117277 -0.068926 -0.088546 0.234759 0.239294 0.110584 -0.041051 -0.364412 -0.257296 -0.065074 -0.047281 0.261130 0.399847 -0.122893 0.058941 0.411183 -0.088299 0.027218 0.033800 -0.068544 0.238227 0.399894 0.005278 -0.103958 0.178684 0.132034 -0.148118 0.285167 -0.197870 0.032157 0.118497 0.034202 -0.205351 0.309521 -0.098057 -0.289162 -0.227539 0.128665 -0.481086 0.044475 0.285413 0.338131 0.044761 -0.081507 -0.049489 -0.023672 
water -0.192680 -0.430797 0.233477 -0.273957 0.036635 -0.211806 0.240752 -0.213785 0.049386 0.267406 0.282051 0.129931 -0.112684 -0.200624 -0.159920 0.160493 0.202321 -0.116201 -0.006169 0.107067 -0.187945 0.015130 0.006280 0.020877 -0.041889 -0.291147 -0.027832 -0.342094 -0.144069 -0.115840 -0.137097 -0.288167 -0.005217 0.000250 -0.121387 0.133836 0.101927 -0.197811 0.071515 -0.117308 -0.063246 0.143395 0.184310 0.230553 0.005237 0.132397 0.094238 0.041676 -0.250848 0.012398 
also -0.205218 -0.331091 0.277430 0.004858 0.063512 0.083375 0.129389 -0.252135 -0.266802 -0.071407 0.133031 -0.215724 0.065381 -0.152498 -0.053951 0.119104 0.155048 -0.038934 0.050787 0.224593 -0.106103 0.037716 0.000105 0.100462 -0.058567 -0.220758 -0.108219 0.181139 -0.187438 0.088421 -0.063976 0.243620 0.034233 0.083002 0.130188 0.051188 0.071155 0.016630 0.279169 -0.154499 -0.149313 -0.167643 -0.038513 0.005751 0.057779 0.251180 -0.089223 0.036475 -0.095451 0.140449 
made -0.233510 -0.108668 0.123634 -0.019023 0.161479 -0.216716 0.013462 -0.258801 0.157456 0.064081 0.042392 -0.077679 -0.003905 0.111888 -0.027727 0.169163 0.035260 -0.075849 0.141884 0.056221 -0.013801 0.025082 0.083340 -0.204865 -0.096916 0.034171 -0.328407 -0.124998 -0.071525 -0.053755 -0.224617 0.068617 -0.080287 0.183748 0.032758 0.055856 0.129987 -0.075155 0.071297 -0.278939 -0.074825 0.190691 -0.076984 0.016770 0.043936 0.101554 -0.195405 -0.066335 -0.025397 0.023304 
these -0.061478 -0.057861 -0.018896 0.053848 0.165522 -0.077295 0.066820 -0.047578 -0.154347 -0.131961 0.001659 0.190975 0.069109 0.070839 -0.059338 0.388662 0.114023 -0.019947 0.354728 0.032290 0.041349 0.058317 -0.164818 -0.140755 -0.063729 -0.206991 0.111864 -0.072695 0.275029 -0.070683 -0.044210 0.069255 -0.029862 -0.229021 0.007291 0.251701 0.414181 0.170134 0.099469 -0.297604 -0.109852 0.573625 -0.147200 0.113378 0.153255 -0.085526 -0.237712 -0.026069 0.076582 -0.238883 
our -0.346724 -0.409229 0.022291 -0.209570 0.025611 -0.089156 0.115053 -0.238727 -0.368837 -0.159850 -0.010972 0.086516 -0.037136 -0.037627 0.130402 0.093683 0.029325 0.158528 0.245519 0.060374 -0.161142 -0.212158 -0.134212 -0.234163 -0.011415 -0.343668 0.135397 -0.006828 0.308019 -0.061894 0.162414 0.012535 -0.209015 -0.282986 -0.023033 0.203640 0.476008 0.132702 0.201255 -0.287607 -0.340668 0.459228 -0.554583 0.144829 0.110615 0.272332 -0.507197 -0.040455 -0.149194 -0.163091 
not -0.514062 -0.430207 0.322780 -0.477198 0.020374 -0.041785 0.332641 -0.335827 0.066331 -0.133239 -0.057579 0.103335 -0.084715 -0.193530 -0.301892 0.329463 0.247173 -0.060070 0.114285 -0.012302 -0.238990 0.083334 -0.210022 0.165884 -0.034219 -0.042873 0.068934 -0.110163 -0.229189 -0.025330 -0.217349 -0.192520 -0.014642 0.250006 -0.164075 0.066367 0.351033 -0.155400 -0.004166 -0.084096 -0.078576 0.112824 0.136150 -0.034814 0.214520 0.006427 0.287692 0.243845 -0.215269 -0.407203 
many -0.252890 -0.418617 0.172229 0.034880 -0.069578 -0.106948 -0.038458 -0.211663 -0.250459 -0.190427 -0.028254 0.150032 0.063993 0.010552 0.032030 0.351691 0.297897 0.109219 0.045670 0.213901 0.002274 -0.048371 -0.007291 0.027581 -0.006310 -0.127531 0.178116 -0.067415 0.055864 -0.042725 -0.114941 0.070058 -0.124099 0.036359 -0.014394 0.041622 0.348935 0.122455 -0.042501 -0.193906 -0.088059 0.275180 -0.366170 0.181291 0.081090 0.048461 -0.219772 0.010210 -0.002102 -0.209843 
time -0.019337 -0.081033 0.187057 -0.274503 0.020537 -0.009459 0.131790 -0.092681 -0.109999 -0.030791 -0.157652 -0.045893 0.006938 0.006693 0.019389 -0.027145 -0.056069 0.118697 0.199614 0.044939 0.005099 -0.031639 0.089386 -0.099793 -0.056637 -0.038928 -0.088910 -0.051873 0.030885 0.118171 -0.011918 -0.048323 -0.268648 0.068764 -0.012930 0.193652 0.134328 -0.065527 0.183952 -0.130020 -0.002037 0.049241 -0.077268 0.074112 0.189344 0.202450 -0.036397 0.116461 -0.079713 -0.261288 
used -0.441021 0.073307 -0.059414 -0.182199 0.145430 0.155411 0.250063 -0.180373 -0.201890 -0.099889 0.030261 0.041763 -0.059528 -0.238236 -0.162974 0.123458 0.347819 -0.057557 0.070014 0.024942 -0.025703 -0.011576 0.144767 0.087692 -0.140004 -0.202987 -0.178758 0.245767 -0.061445 0.089655 -0.196544 0.064351 0.097604 0.129237 -0.101566 0.163572 0.117823 -0.015141 0.191420 -0.228613 -0.170122 0.369269 -0.050838 -0.080581 0.342217 0.355071 -0.087033 0.085711 -0.223128 -0.214160 
cause -0.029958 -0.004476 0.045468 0.053968 0.158724 -0.296693 0.209342 0.070908 0.008681 0.196642 0.134059 0.003506 -0.184176 -0.162091 -0.249682 0.660580 0.496643 -0.279181 0.367449 0.519417 -0.121398 0.192193 0.058665 0.092551 0.002338 -0.002596 0.106058 -0.161022 0.131005 -0.050086 -0.283275 -0.220482 -0.130807 0.153538 -0.045535 0.038339 -0.062463 0.143000 -0.187984 -0.126500 -0.023618 0.382869 -0.093638 0.164267 0.137549 0.069596 0.073545 -0.085317 0.139892 -0.095415 
left -0.361503 -0.406317 0.263896 -0.173111 0.049021 0.098839 0.198528 -0.309129 -0.029378 -0.121633 0.131260 -0.187085 0.022662 -0.101069 -0.116345 0.149795 0.020287 -0.230549 -0.019996 -0.166230 -0.126639 0.061732 0.015266 -0.049702 0.074397 -0.149034 -0.155201 0.057388 -0.227387 0.143341 -0.099098 0.143060 0.086543 0.101170 0.041840 0.304811 0.152779 -0.236439 0.215662 -0.165632 0.001307 0.024717 0.041552 -0.035926 0.009624 0.050799 0.134757 0.111219 -0.101135 -0.032150 
then -0.336081 -0.219382 0.009276 -0.236329 0.236748 -0.109882 -0.039109 -0.307377 0.131425 0.257245 0.238188 -0.253651 -0.205964 -0.144260 -0.232251 0.098686 0.231861 -0.315564 0.051857 -0.137847 -0.240756 -0.074295 -0.049944 -0.057352 0.171610 -0.346955 -0.058003 -0.194844 -0.184237 -0.208262 -0.019662 -0.103224 0.141534 0.025572 0.036140 0.099328 -0.126066 -0.406112 0.075286 -0.153922 -0.028707 0.094585 0.180238 0.061952 0.171560 0.090451 -0.048518 0.050882 -0.175071 0.254245 
only -0.243622 -0.109700 0.086287 -0.178014 0.163416 0.098147 0.313415 -0.169271 -0.051198 -0.113341 -0.017146 0.195434 -0.029390 -0.202405 -0.183568 0.219288 0.224285 -0.045931 0.033907 0.067646 -0.142790 0.003026 -0.060038 0.077504 -0.189207 -0.201609 -0.154099 0.049197 -0.055361 0.050821 -0.060051 -0.014416 0.112566 0.030250 -0.023448 0.066698 0.105345 0.036211 0.063047 0.008029 -0.303175 0.331462 0.022406 0.137716 0.214357 0.208523 -0.130961 0.097392 -0.187540 -0.189097 
you -0.150601 -0.044095 0.209197 -0.162247 0.123948 -0.129523 0.472014 -0.225976 -0.104946 -0.007436 0.244414 0.297578 0.013391 -0.201252 -0.233775 0.403319 0.090057 -0.212685 0.314514 0.075661 -0.170204 0.201299 0.015784 -0.008168 -0.234546 -0.463616 -0.242012 -0.044710 0.005493 -0.057380 -0.010853 -0.303778 0.156820 -0.045788 -0.044102 0.028813 0.186592 -0.059423 0.021508 -0.023132 -0.005416 0.547057 0.013817 0.233980 0.160002 0.245950 -0.084566 0.034188 0.051695 -0.168763 
found -0.321115 -0.186190 0.190106 -0.150602 0.195722 0.073818 0.190002 -0.334569 0.315328 0.038638 0.119448 -0.050991 0.074413 -0.021436 -0.229620 0.273646 -0.080431 -0.176371 0.229589 -0.336840 -0.172364 -0.029204 -0.266188 -0.258204 -0.151355 -0.228907 -0.314666 -0.191939 -0.310086 -0.227364 0.105620 0.091827 0.153593 -0.054447 0.015523 0.133463 -0.017063 -0.268824 0.163384 -0.433741 0.060234 0.111500 0.208928 0.067604 0.169583 0.089639 -0.215962 0.028581 -0.320441 0.184586 
small -0.171640 -0.222618 0.184860 -0.124241 0.082164 -0.096745 0.032440 -0.153861 -0.019239 -0.040316 0.061538 0.030774 -0.024993 0.012273 -0.013042 0.280139 0.110416 -0.019610 0.195102 0.137533 -0.062330 0.089068 0.099393 -0.163257 -0.083029 0.019917 -0.189716 -0.205449 0.041466 -0.017740 -0.077034 0.136042 -0.104969 -0.018300 0.062413 0.288983 0.173041 0.009543 0.117996 -0.174552 -0.017718 0.248301 -0.176065 0.102245 0.010641 0.034290 0.001207 0.036231 -0.157573 -0.112696 
than -0.145813 0.374470 0.069569 -0.069682 0.143403 -0.085943 0.301954 -0.147332 0.156370 -0.057959 0.074257 0.540588 -0.209500 -0.470618 0.056838 0.763290 0.556916 0.005957 0.640866 0.152453 -0.100548 0.151654 0.160302 -0.255443 -0.260831 -0.234108 0.006397 0.132426 0.062070 -0.020826 -0.042736 -0.061361 -0.205265 -0.142784 -0.136011 -0.065536 -0.060539 0.050403 -0.303540 0.001050 -0.059637 0.483501 -0.189887 0.146809 0.725581 0.226660 -0.278812 -0.052916 -0.104644 -0.282360 
several 0.207973 -0.304587 0.292254 0.071110 -0.070214 -0.148311 0.001551 -0.097778 -0.209851 -0.047041 0.140303 -0.150522 -0.008326 0.046101 0.090340 0.106501 0.056361 -0.065703 0.066407 0.177780 -0.031437 0.109284 0.007758 -0.146840 -0.023811 0.097179 -0.134283 -0.111901 -0.016197 -0.098794 -0.098335 0.167617 0.017600 -0.104124 0.068568 0.290419 0.211825 0.099083 0.221637 -0.115071 -0.011131 0.249124 -0.264974 0.237361 -0.050773 0.080859 -0.230352 0.075112 0.112736 0.141558 
such -0.070657 -0.326790 0.250476 -0.144313 0.272206 -0.137572 0.446680 -0.105417 -0.047205 -0.063911 -0.080373 -0.069389 0.103563 0.036342 -0.140880 0.124240 0.071568 -0.088201 0.047223 0.263899 0.129578 0.028118 0.161152 -0.117297 -0.199576 0.150720 -0.260482 -0.051164 0.153776 0.139083 -0.231436 -0.017148 0.165267 0.143891 -0.008673 0.018601 0.111556 0.430683 0.210739 -0.148340 -0.288264 0.452147 -0.067679 0.070377 0.065077 0.212426 0.044441 0.025264 0.071010 -0.117724 
each -0.238723 -0.091595 0.078473 -0.083403 0.257944 -0.017179 0.005884 -0.046558 -0.186918 -0.159960 -0.087748 -0.167416 -0.066753 0.080803 -0.060064 0.098127 0.213898 0.217597 0.255482 0.157814 0.091388 -0.179931 0.006020 -0.114169 0.068284 0.021263 -0.046032 -0.053014 0.266243 0.057682 0.094709 0.024976 -0.095083 -0.010804 -0.093227 -0.051405 0.101612 0.290649 0.076734 -0.281415 -0.107491 0.161352 -0.159581 0.080343 0.338577 0.360317 -0.234151 0.044156 -0.089651 -0.165636 
so -0.327918 -0.054876 0.066762 -0.230296 0.061109 0.200904 0.369542 -0.100463 -0.031741 0.017018 0.057788 0.220443 0.092817 -0.281481 -0.275385 0.365471 0.091269 -0.171710 0.241148 -0.112880 -0.139147 0.042737 -0.008088 -0.026032 -0.155889 -0.320923 -0.091712 -0.047526 -0.122027 -0.103919 0.040077 -0.190275 0.169193 0.070790 -0.219426 0.124610 0.081974 -0.150472 0.038087 -0.134791 0.012878 0.473725 0.083396 0.111816 0.334282 0.329263 -0.057952 0.178693 -0.317472 -0.334234 
she -0.398937 -0.362267 0.345417 -0.469677 0.162853 -0.055741 0.427158 -0.520119 0.366345 -0.246839 0.044699 -0.136173 -0.298258 -0.353497 -0.241794 0.511966 0.218040 -0.356245 0.227410 -0.283711 -0.429845 0.082048 -0.288803 -0.297349 -0.109154 -0.369615 -0.016579 -0.034052 -0.088342 0.078573 -0.115611 0.182450 0.027831 -0.024633 0.300129 0.232932 -0.011003 -0.223050 0.020923 -0.123253 -0.002206 -0.094541 0.092716 -0.230729 0.183093 -0.170701 0.275114 0.249561 -0.000350 -0.124664 
body -0.281574 -0.240654 0.216338 -0.177600 0.144160 -0.078351 -0.046517 -0.220343 0.025810 0.121576 0.079796 -0.223305 -0.170085 -0.077381 -0.185682 0.230637 0.182700 -0.028658 0.135852 0.076508 -0.184668 -0.044904 -0.165905 -0.194857 0.045731 0.017308 -0.124473 -0.149848 -0.202962 -0.044219 0.017713 0.076214 0.054304 0.008543 0.079690 0.081763 0.022593 -0.060169 0.236029 -0.261649 0.073364 -0.290815 0.269463 -0.054412 -0.134217 -0.148574 0.170374 -0.102562 -0.047958 0.165676 
like -0.353918 -0.072869 0.118354 0.050820 0.062938 -0.008667 0.222529 -0.076438 -0.211401 0.030683 0.101485 -0.115783 -0.041495 -0.063159 -0.093444 0.235004 0.257300 -0.140616 0.248252 0.226697 -0.062002 0.212016 0.092328 -0.046303 0.066311 0.033264 0.205218 0.098805 -0.070113 0.001891 -0.196610 0.132610 -0.076562 -0.001836 -0.056008 0.208554 0.089007 -0.045713 0.064897 -0.145680 0.150070 0.256470 -0.136612 -0.139303 0.122463 -0.042123 0.029155 -0.011055 -0.091263 -0.120327 
box -0.361989 -0.478278 0.152475 -0.016034 0.171141 -0.060642 -0.174264 -0.386066 0.361129 0.069323 0.152004 -0.375903 -0.126097 -0.049085 -0.121203 0.247944 0.112628 -0.075803 0.009876 -0.100727 -0.404557 -0.008141 -0.318285 -0.078504 -0.048701 -0.003994 -0.179596 -0.296111 -0.182769 -0.054842 0.105975 0.149428 0.028953 0.077200 0.190076 -0.158708 -0.105411 -0.190682 -0.110475 -0.072583 0.029989 -0.344593 0.003642 0.060682 0.080233 0.008631 -0.150550 0.076000 -0.208707 0.081721 
back -0.396195 0.035604 0.024043 -0.104911 0.141242 0.050044 0.114477 -0.127731 -0.080504 -0.163983 -0.041445 0.016641 -0.052943 -0.025319 -0.086365 0.101784 0.029755 0.032054 0.036520 0.050434 -0.032920 0.048232 0.155330 0.076448 -0.100271 0.067454 0.075791 0.051423 -0.024729 0.018918 -0.118043 0.055715 -0.068825 0.086931 -0.027950 0.154942 0.107019 0.027130 0.028618 -0.059663 -0.015991 0.241562 -0.152540 -0.162405 0.144202 0.089185 0.054632 0.020152 -0.270685 -0.312148 
them -0.307294 -0.137268 0.214483 -0.103025 -0.256885 -0.027979 0.041896 -0.256283 -0.103058 -0.028112 0.087741 0.066351 0.101427 -0.160836 0.054124 0.320708 -0.048737 -0.041738 0.169536 -0.022357 -0.070694 -0.008299 -0.023511 -0.155441 -0.236160 -0.132055 -0.027915 -0.026598 -0.124431 -0.232664 -0.176268 0.035737 -0.068850 0.122660 -0.083756 0.155087 0.231167 -0.118757 0.094957 -0.240414 0.087279 0.304267 -0.243745 0.093432 0.318500 0.190970 -0.335924 0.108724 -0.197951 -0.074641 
world -0.072379 0.125449 -0.053000 -0.073497 0.035583 0.105731 -0.021717 -0.048814 0.016430 -0.242910 0.004762 -0.163509 -0.093761 -0.141289 -0.100135 0.327935 0.169124 -0.054020 0.237375 -0.044684 -0.026123 0.032798 0.071544 -0.222130 -0.069640 -0.096626 -0.204773 0.001754 0.054316 0.056160 -0.084080 0.202948 -0.046508 -0.056520 0.099377 0.120991 0.095766 0.035203 0.114049 -0.275977 -0.018232 0.224485 -0.154550 0.004227 0.240174 0.288103 -0.223898 0.145831 -0.094881 -0.121962 
company 0.072013 -0.442982 0.036966 0.015345 0.241792 -0.262738 -0.026252 -0.110203 0.219972 0.275971 0.126397 -0.250264 -0.075654 -0.000590 -0.006818 0.029632 0.099933 -0.026067 0.092700 0.192077 -0.242208 -0.114152 -0.216662 -0.231686 0.009311 -0.052630 -0.390557 -0.299004 0.164973 0.063861 0.067031 0.153676 -0.037426 -0.170040 0.180004 0.065796 0.110608 0.087870 0.063462 -0.304321 -0.409944 0.149379 -0.255187 0.301285 0.162271 0.307393 -0.237498 -0.115354 -0.067084 0.174413 
various 0.088520 -0.053426 -0.139333 -0.061992 0.050400 -0.005158 -0.237622 -0.109657 -0.001038 -0.293756 -0.093184 -0.196713 -0.128444 0.168787 0.024512 0.124439 0.081371 -0.014032 0.113772 -0.134762 0.045634 -0.179202 -0.034925 -0.311812 0.092221 -0.059282 -0.046032 -0.140101 0.171237 0.056655 0.049137 0.351184 -0.200494 -0.194890 0.171327 0.293586 0.258533 0.085276 0.098967 -0.402542 -0.065137 0.254753 -0.373421 0.007851 0.111729 0.100449 -0.236912 0.059593 0.074781 -0.182863 
between 0.119375 -0.080158 -0.057092 0.119609 0.168003 0.054600 0.030325 0.092963 0.068989 -0.285592 -0.025534 -0.062283 0.061825 0.044300 -0.280655 0.420056 0.471122 -0.054662 0.257189 0.176211 0.100485 0.064881 0.137897 0.011546 0.083295 -0.008105 -0.184099 0.009394 -0.018685 0.153732 0.018119 0.045264 -0.029243 -0.066748 -0.063249 0.091168 0.133818 0.121967 -0.084017 -0.230403 -0.025947 0.300091 -0.112695 0.167626 0.185594 0.213541 0.050330 0.237823 0.031634 -0.329657 
last -0.014106 0.083019 0.071011 -0.078220 0.116027 -0.121285 0.126456 -0.217185 -0.251573 -0.065472 0.147369 0.262729 -0.033129 -0.029131 -0.013667 0.016935 0.138422 0.064835 0.267629 0.015879 0.077653 0.016933 0.123148 -0.000779 -0.171857 -0.489750 -0.218531 0.027300 -0.117566 -0.008827 0.025834 0.037767 -0.108266 -0.292662 -0.102062 0.418451 0.431089 -0.158841 0.259269 -0.337108 -0.015326 0.416102 -0.125140 0.251344 0.296622 0.275730 -0.290057 -0.015938 -0.059347 -0.103369 
year -0.027455 -0.037347 0.027897 -0.058274 0.173595 -0.039969 0.031747 -0.066731 -0.130708 -0.199782 0.020061 -0.004035 -0.093303 -0.015203 -0.115351 0.264102 0.267585 0.035676 0.264667 -0.022810 0.114501 -0.005506 0.028756 -0.136012 -0.065274 -0.204006 -0.011834 -0.027558 0.196320 0.020830 0.039622 0.098898 0.048968 -0.175551 -0.014605 0.172560 0.129301 0.122386 0.096928 -0.274270 -0.014232 0.270891 -0.069409 -0.000267 0.247822 0.167904 -0.251818 0.106409 -0.106410 -0.095816 
man -0.338832 -0.304494 0.045727 -0.106938 0.133046 -0.031614 0.176967 -0.315643 0.218564 0.228116 0.221624 -0.250627 -0.142632 -0.096086 -0.058445 0.128431 0.209460 -0.233431 0.024779 -0.072241 -0.130180 0.115271 0.043368 0.101148 -0.140771 -0.124040 -0.393860 -0.134750 -0.099901 0.051258 -0.198174 0.132442 0.111302 0.295807 0.075602 0.141367 -0.033293 -0.192413 -0.060410 -0.102200 -0.057790 -0.071175 0.099889 -0.100675 0.160323 0.248974 -0.143046 0.110619 -0.216245 0.121563 
part -0.284026 -0.270987 -0.031556 -0.044015 -0.129551 -0.077538 0.036903 -0.004231 -0.105487 -0.144877 -0.034112 -0.063853 -0.103771 0.053267 -0.013380 0.199762 0.231139 0.115659 0.133321 0.106936 -0.008908 -0.034908 -0.204712 0.083610 0.053706 0.005061 -0.029415 -0.116143 0.187248 0.093316 -0.331904 -0.043534 -0.172037 0.171464 -0.039647 0.178906 0.419635 0.041256 0.009721 -0.315800 -0.121811 0.185229 -0.152401 0.049626 0.197077 0.118526 -0.097242 0.181542 -0.157807 -0.254385 
use -0.121616 -0.161946 0.109420 -0.140920 -0.057149 0.032134 -0.000650 -0.114323 -0.094915 -0.270919 -0.086729 -0.065415 -0.001459 0.059614 -0.050649 0.210167 0.099232 0.052034 0.170595 0.043876 0.050536 -0.034616 0.062366 -0.207499 -0.029721 0.063195 0.079686 -0.105613 0.056581 -0.009126 -0.035406 0.095081 -0.135218 0.005134 -0.036290 0.152099 0.175717 0.036166 0.096905 -0.228869 0.103871 0.118354 -0.196443 -0.050013 0.021278 0.012447 -0.046217 0.226919 -0.115210 -0.268256 
down -0.359427 -0.194485 0.258786 -0.082964 0.106014 -0.065313 0.070652 -0.357007 -0.057745 0.098472 0.088750 -0.051116 0.016112 -0.045390 -0.033878 0.203630 0.097046 -0.012418 0.151378 0.090889 -0.102227 0.121219 0.169912 -0.064212 -0.162926 -0.014397 -0.179234 -0.097757 -0.161686 -0.136119 -0.085638 0.127077 -0.029433 0.180348 0.024350 0.170305 0.128816 -0.246894 0.139128 -0.088826 0.046899 0.101363 -0.010531 -0.000181 0.171834 0.093110 -0.051768 0.016634 -0.277309 -0.012163 
three -0.124666 -0.148693 0.010129 -0.185831 0.007573 -0.183377 0.039326 -0.017457 -0.205598 -0.057212 0.048550 -0.060293 -0.166837 0.130067 -0.013186 0.141934 0.119393 -0.021928 0.210832 0.176673 0.083457 -0.039239 -0.047775 -0.016612 0.023763 0.046517 0.101597 -0.096157 0.055372 -0.043050 -0.146114 0.068950 -0.144446 -0.058612 -0.145018 0.312325 0.301852 0.099228 0.116487 -0.178823 -0.017187 0.472252 -0.275839 0.160861 0.167990 0.078522 -0.231727 0.030184 0.023304 -0.080766 
different 0.080783 -0.070660 0.017082 0.178280 0.025967 -0.176153 -0.072646 0.139558 -0.191456 0.017955 0.052377 -0.056166 0.020162 0.010946 0.112098 0.347449 0.192831 0.082601 0.207229 0.326112 0.094769 0.068869 -0.028544 -0.121934 -0.014704 0.133216 -0.023926 0.044856 0.131091 -0.016574 -0.170663 0.050973 -0.031343 0.007611 0.047658 0.105212 0.237992 0.235791 0.163366 -0.313087 -0.154169 0.161510 -0.124674 0.238868 0.137899 0.045588 -0.128881 -0.069664 0.112396 0.067074 
placed -0.251107 -0.665601 0.096499 0.003793 0.172344 -0.106733 -0.122055 -0.143811 0.317653 0.166963 0.316857 -0.317797 -0.076210 -0.103751 -0.158768 0.102225 0.173908 -0.152232 -0.016958 -0.298836 -0.263751 -0.130317 -0.499261 -0.125028 0.237684 -0.343060 -0.097424 -0.350143 -0.048599 -0.076312 0.068743 -0.075676 0.275609 -0.182350 0.108192 -0.024019 0.029541 -0.181608 0.029799 -0.281617 -0.210922 -0.048172 0.353860 0.126584 -0.023597 -0.106818 -0.185967 0.054827 -0.287407 0.450666 
work 0.082731 -0.142386 0.058270 0.073662 -0.056523 -0.063406 -0.060152 -0.047721 -0.191359 -0.007593 0.069853 -0.065413 -0.044402 -0.010772 0.149219 0.130960 0.084015 0.011993 0.080186 0.166948 -0.024426 0.053969 0.035387 -0.010653 -0.010002 -0.110235 -0.119114 0.044072 0.073443 0.067394 -0.070377 0.245977 -0.011668 -0.000594 0.146233 0.231419 0.223049 0.043397 0.189118 -0.230708 -0.154738 0.168484 -0.256280 0.176399 0.218423 0.285035 -0.321150 0.007949 -0.015469 0.113769 
off -0.177105 -0.306656 0.099668 -0.099049 0.126073 -0.008416 0.130748 -0.101865 0.099262 0.118999 0.196517 -0.056207 -0.083137 -0.172208 -0.246335 0.324362 0.204949 -0.144751 0.152117 0.103649 -0.254724 0.046599 -0.169887 0.009184 -0.075141 -0.285139 -0.186890 -0.304685 -0.066982 -0.034665 0.021716 -0.089763 0.112999 0.040543 0.032084 0.089250 0.078671 -0.060741 0.061830 -0.104624 -0.107048 0.148673 0.056532 0.194418 0.089950 0.144825 -0.017239 0.105179 -0.229962 -0.008459 
during -0.194070 -0.413046 0.259618 -0.062331 0.209256 -0.040093 -0.033519 -0.340787 -0.080360 -0.216165 0.010153 -0.087747 -0.013351 0.073297 -0.044708 0.330636 0.287913 -0.002831 0.072529 0.119625 0.016672 0.028575 0.146302 -0.022527 -0.024975 -0.031213 -0.149437 0.040880 0.053635 0.169356 0.015237 0.221555 0.008427 0.104241 0.097457 0.067972 0.084122 0.129519 0.094692 -0.051596 -0.076635 0.086707 -0.226674 0.012664 0.082055 0.142257 -0.110900 0.141242 0.039113 -0.104778 
around 0.089016 0.110226 -0.303768 0.053632 0.149355 0.135684 -0.244620 0.006704 0.097418 -0.043729 0.146957 -0.285343 -0.063584 0.042516 -0.214045 0.285258 0.411110 -0.090232 0.229638 -0.031746 0.100422 -0.020673 0.193268 -0.060185 0.180348 -0.095234 -0.255801 -0.135532 -0.022596 0.108159 0.014732 0.183580 -0.042816 -0.120433 -0.043674 0.164635 0.062615 -0.151947 -0.026384 -0.326774 0.121884 0.116207 0.086150 0.014654 -0.010393 0.210056 -0.076591 0.109756 -0.049469 -0.123695 
can -0.520068 0.084240 0.200100 -0.141473 0.096675 -0.018969 0.176665 -0.272675 -0.010192 -0.183207 0.141016 0.327015 -0.138807 -0.400126 -0.226989 0.573556 0.373322 -0.006722 0.509751 -0.015616 -0.313826 0.065011 0.041985 -0.087332 -0.111716 -0.432087 0.272478 0.064946 -0.199023 -0.285176 0.102765 -0.238444 0.029471 -0.072279 -0.165413 0.019303 0.129442 -0.252977 -0.118348 -0.033999 0.018728 0.337660 -0.127426 -0.029985 0.442306 0.107663 -0.201299 0.083745 -0.400916 -0.230223 
well -0.217723 -0.266887 0.093749 -0.204386 0.247014 0.001409 0.446604 -0.182588 0.063556 -0.035706 -0.011949 0.016507 0.030632 -0.168709 -0.109757 0.297040 0.270736 -0.239336 0.075282 0.040849 0.057355 0.135327 0.200820 -0.081451 -0.135888 -0.113910 -0.224083 0.088541 0.170501 0.203573 -0.241004 0.090349 0.107560 0.252869 0.088738 -0.015734 -0.030849 0.200547 0.055998 -0.012033 -0.280094 0.359790 0.068826 -0.078221 0.199702 0.268696 0.088996 0.133131 -0.061887 -0.181966 
long -0.004504 -0.190648 0.081139 0.092498 -0.119458 -0.032576 0.007514 -0.161561 -0.155841 -0.053688 0.103934 -0.290017 -0.105272 -0.079080 0.083328 0.032117 0.156398 -0.049051 -0.042943 0.165945 -0.196514 0.072617 -0.082765 -0.024609 -0.012557 -0.103871 -0.147202 -0.016764 -0.100285 0.032452 -0.232488 0.304767 -0.167235 0.049585 0.225930 0.192576 0.118006 -0.143852 0.090148 -0.171310 -0.103466 -0.059294 -0.260959 0.115807 0.092662 0.204265 -0.141371 0.091191 -0.037852 0.141395 
before -0.337737 -0.331474 0.198412 -0.043266 0.055648 -0.070921 0.278353 -0.254186 -0.065512 -0.026169 0.061926 -0.049464 -0.036408 -0.192079 -0.095771 0.186149 -0.020872 -0.201044 -0.049346 0.082728 -0.302509 0.095129 -0.261405 0.017687 -0.043909 -0.149382 0.008844 -0.003712 -0.143981 0.051781 -0.086724 0.147643 0.060279 0.002361 0.151224 0.101047 0.253870 -0.072926 0.143874 -0.179865 -0.217391 0.079174 -0.135192 0.047643 0.259580 0.067771 -0.044102 -0.051746 -0.092534 0.021697 
just 0.006500 0.065250 -0.021587 -0.107622 0.052849 0.037068 0.186605 -0.085075 -0.052493 0.044610 0.189507 -0.037564 -0.087689 -0.120672 -0.058443 0.175614 0.131456 -0.279667 0.107500 -0.010301 -0.062882 0.109155 0.059490 -0.008522 -0.070305 -0.295010 -0.326645 0.002822 0.039721 0.048146 -0.000793 0.077500 0.123398 0.007386 0.099576 0.084133 -0.066780 -0.084113 0.103107 -0.063614 -0.122500 0.325559 -0.046778 0.176884 0.235501 0.423038 -0.256045 0.055453 -0.041085 0.047171 
's -0.202981 -0.166991 0.098121 -0.045836 -0.001704 -0.024143 0.158894 -0.040799 -0.081543 -0.146308 -0.057718 -0.047017 -0.078539 -0.031597 -0.015271 0.323145 0.091434 -0.054226 0.160034 0.184790 0.000749 0.047126 -0.021836 0.020218 0.034398 0.072495 0.147150 0.111569 0.085985 0.091645 -0.161618 0.108911 -0.120950 0.082442 0.016614 0.096347 0.113983 0.082264 -0.032974 -0.059970 0.005952 0.177536 -0.293060 -0.050515 0.228819 0.018896 0.025640 0.071835 0.005487 -0.213456 
away -0.275456 -0.290930 0.194287 0.013521 0.375332 -0.015054 0.161962 -0.308362 0.300853 -0.191562 -0.049848 -0.113762 0.089960 0.076838 -0.106408 0.075736 0.163802 0.146892 0.205318 0.016201 0.033839 -0.006401 0.030083 -0.149572 -0.161699 0.027688 -0.438567 -0.032702 0.047091 0.189676 0.075798 0.275204 -0.093520 -0.127233 0.157553 0.281250 0.149164 -0.064982 0.023843 -0.296182 -0.080619 0.104500 -0.059397 -0.070882 0.213684 0.108043 -0.006487 0.169338 -0.285251 -0.229149 
where -0.258682 -0.151407 0.138854 0.022231 0.128987 -0.077030 0.447042 -0.146271 -0.225618 -0.047527 0.094430 0.088575 0.031464 -0.137277 -0.171036 0.014935 0.126169 -0.108585 0.152964 0.199856 -0.183515 0.066533 -0.207248 0.176973 -0.117608 -0.284202 -0.212403 0.089327 -0.179834 0.042057 -0.108720 -0.015174 0.104619 -0.053428 -0.087336 0.166227 0.388724 -0.075680 0.143015 -0.287086 -0.287186 0.359561 -0.077170 0.197915 0.354009 0.231632 -0.166743 0.007002 -0.044649 -0.020982 
bottle -0.420565 -0.173445 -0.061387 -0.137208 -0.002207 0.120394 0.117964 -0.239357 0.026199 0.253211 0.280306 0.003252 -0.101792 -0.185262 -0.179309 -0.015577 0.102682 -0.139774 -0.075009 -0.139937 -0.364295 0.001578 -0.173880 0.217081 0.022737 -0.359165 -0.244336 -0.202365 -0.398090 -0.083914 0.063149 -0.166050 0.119972 0.204708 -0.084046 -0.007329 0.096259 -0.436250 0.007245 -0.137346 -0.143474 -0.037625 0.224487 0.185296 0.102476 0.239933 -0.082029 -0.020614 -0.351477 0.076976 
team -0.296289 -0.179446 0.038080 -0.152153 0.146781 -0.073558 -0.037847 -0.232081 0.067802 -0.074987 -0.041105 -0.260349 -0.220456 -0.104357 -0.055053 0.062234 0.264470 0.077264 0.079404 0.053771 -0.187657 -0.133832 -0.055772 -0.163438 0.033033 0.006894 -0.179770 -0.012084 0.105314 0.178906 -0.042050 0.161724 -0.150545 -0.089403 0.129265 0.032328 0.061370 -0.001247 0.043270 -0.180803 -0.130408 -0.146929 -0.163011 -0.026297 0.111084 0.155545 0.030250 -0.064188 0.012923 -0.042752 
your -0.032699 0.070155 -0.009364 -0.005908 0.011031 -0.036412 0.096428 0.092682 -0.175334 0.075655 0.207158 0.048579 -0.206829 -0.165879 -0.088663 0.390298 0.280245 -0.233670 0.272332 0.247771 -0.198779 0.117792 0.006317 -0.033578 -0.013440 -0.181623 -0.067254 -0.035054 0.072363 -0.199985 0.021608 -0.045949 0.141368 0.003037 -0.058424 0.091446 -0.112453 0.090068 0.035655 0.090537 -0.139849 0.575867 -0.196876 0.237558 0.311860 0.254004 -0.323506 0.031717 -0.062974 0.156833 
now -0.302896 -0.221985 0.091682 -0.068801 0.036077 -0.113840 0.294073 -0.092227 -0.107688 0.045660 0.051966 0.035430 0.023656 -0.016793 -0.028872 0.018751 -0.050480 -0.054099 0.033682 0.091283 -0.065854 0.072003 -0.069096 -0.010189 -0.078002 -0.131432 -0.168235 0.037026 0.037947 0.010252 -0.248673 -0.046060 -0.006730 0.060895 -0.022956 0.143950 0.304820 0.035408 0.165590 -0.174855 -0.214703 0.425861 -0.124921 0.132462 0.122815 0.243038 -0.129275 0.002358 -0.067171 -0.064682 
get -0.403595 -0.145708 0.319928 -0.263517 0.041458 0.100675 0.431113 -0.258650 -0.104529 -0.013550 -0.006127 0.125383 0.118401 -0.223982 -0.176170 0.401664 0.109520 -0.109190 0.412441 0.057994 -0.092399 0.117047 0.028688 -0.015562 -0.170481 -0.116781 0.083172 0.200018 -0.110443 -0.088407 0.078795 -0.127997 0.034750 0.085663 -0.193901 0.169558 -0.050998 -0.093022 0.116387 -0.147181 0.093573 0.210577 -0.154687 0.014594 0.532510 0.332581 -0.018769 0.234272 -0.339496 -0.299760 
oil 0.007056 -0.084352 0.113202 -0.006771 0.153774 -0.101619 0.168569 -0.003646 0.106161 -0.086214 0.095503 0.186732 -0.089008 -0.103959 -0.014246 0.248499 0.257694 0.059801 0.273609 0.242679 -0.069273 0.000188 0.083208 -0.134559 -0.081463 0.010145 -0.358526 -0.016412 -0.040906 0.111611 0.050576 -0.000972 -0.129617 -0.171869 -0.077370 0.146853 0.074857 0.102454 -0.075177 0.018159 -0.144026 0.194354 -0.068354 0.234630 0.029600 0.100028 0.105045 -0.036231 0.039337 -0.140490 
same -0.050586 -0.058416 0.113154 0.028998 0.066981 0.014189 0.066324 -0.075955 -0.026977 0.037819 -0.000612 -0.050543 0.089304 -0.084589 -0.001845 0.031531 0.159084 0.044439 0.092480 0.167793 0.080276 -0.007144 0.241003 0.013112 -0.100267 0.072943 -0.226615 0.199182 -0.157201 0.026955 -0.079145 0.084416 -0.033682 0.111156 -0.026644 0.038160 -0.078188 0.058469 0.094938 -0.072390 -0.044472 -0.050014 -0.064336 0.019705 0.050185 0.191433 0.000406 0.004647 -0.059440 0.032379 
both -0.119863 -0.062303 0.000570 -0.059230 -0.074623 0.022909 0.102648 -0.067321 0.122319 -0.035560 0.011474 -0.283330 -0.201892 -0.128992 -0.088846 0.405975 0.245742 -0.297419 0.091416 0.105749 -0.085983 0.159012 -0.012163 -0.057227 -0.059214 0.143404 -0.001490 0.047517 -0.092645 -0.048248 -0.412516 0.289720 -0.039799 0.137884 0.128827 0.306506 -0.026866 -0.037837 0.043313 -0.196875 0.087059 0.105895 -0.162981 -0.168042 0.190099 0.012145 -0.020993 0.177582 -0.026332 0.067625 
day -0.144189 -0.093449 0.101640 -0.241243 0.034292 -0.006448 0.164337 -0.126525 -0.224411 -0.191166 -0.059225 -0.065416 -0.090959 -0.058467 -0.077443 0.100694 0.183426 0.112140 0.243214 0.031187 0.064224 -0.066650 0.050730 -0.053409 -0.112040 -0.102707 -0.003101 0.034665 0.035226 0.130802 -0.033323 0.057313 -0.132998 -0.131683 -0.110892 0.283711 0.327668 0.034736 0.196212 -0.309737 -0.014395 0.120827 -0.169793 0.055909 0.169884 0.251379 -0.153848 0.161302 -0.128695 -0.283339 
took 0.008574 -0.003433 -0.013185 0.007767 0.021970 0.102668 -0.015674 -0.080652 -0.083742 -0.130052 0.063200 -0.044912 0.049557 -0.021961 -0.061516 0.247391 0.199620 -0.086187 0.166354 -0.001871 -0.007697 0.055933 0.075054 -0.038380 -0.076557 -0.127785 -0.255651 0.004424 -0.083178 0.022917 -0.011842 0.159338 0.032725 -0.029327 0.034453 0.249475 0.179244 -0.066399 0.147288 -0.155210 -0.028463 0.260599 -0.139146 0.131727 0.146675 0.190588 -0.257763 0.143139 -0.058341 -0.035332 
human 0.106832 0.027965 -0.064948 0.062947 0.020461 -0.064155 0.052152 0.052918 -0.184036 -0.129650 0.024394 -0.000659 -0.008880 0.110375 -0.043362 0.112671 0.134646 -0.072545 0.115960 0.198419 -0.008234 0.031698 -0.076994 -0.022208 -0.005577 0.014719 -0.121007 0.021778 -0.029966 0.050707 -0.111932 0.127975 -0.075136 -0.131169 0.008275 0.162826 0.331970 0.082880 0.086595 -0.107751 -0.148689 0.273525 -0.068370 0.177076 -0.057564 -0.011620 -0.094070 -0.000044 0.228499 -0.012583 
large -0.017117 -0.198433 0.214313 -0.067166 0.022212 -0.136933 -0.020522 -0.020211 -0.014247 0.045433 0.117520 0.060295 -0.047688 -0.161480 0.033829 0.215080 0.252208 0.074493 0.188329 0.243815 -0.041884 0.029895 0.077431 -0.112253 0.050977 0.042165 -0.099340 -0.057940 -0.066883 -0.032344 -0.110980 -0.086014 -0.122783 -0.001290 -0.003050 0.065125 0.114261 0.019526 0.076497 -0.002721 -0.038994 0.037404 0.013359 0.191226 0.004855 0.002514 0.086406 0.022032 -0.086392 -0.033837 
way -0.100289 -0.035563 0.056609 -0.042266 -0.071899 0.011960 0.146715 -0.109118 -0.157654 0.046384 0.049914 0.135840 0.043336 -0.140110 -0.013519 0.223620 0.017010 -0.037147 0.082528 -0.004420 -0.054969 0.081890 -0.047929 0.075289 -0.263833 -0.275746 -0.101776 -0.090124 -0.046257 -0.022701 -0.165346 -0.008873 0.075071 0.096990 -0.036200 0.208678 0.235972 -0.081334 0.205559 -0.254395 -0.062393 0.160615 -0.003037 0.068946 0.177772 0.112501 -0.244794 0.078250 -0.126030 -0.036880 
since 0.086187 -0.118564 0.133939 0.026837 0.075853 -0.211717 0.140534 -0.006484 -0.159472 0.099561 0.155517 0.113486 -0.093133 -0.084272 0.069884 0.213285 -0.026315 -0.118376 0.125056 0.175249 -0.114656 0.063827 -0.223636 -0.074362 -0.111726 -0.221160 0.034306 -0.043061 0.176251 -0.012217 -0.021125 0.069037 0.083242 -0.279433 0.088944 0.188424 0.082817 0.207639 0.107459 -0.066633 -0.240354 0.328837 -0.181141 0.278739 0.190293 0.103051 -0.256077 -0.120231 0.031549 0.177024 
even -0.198887 -0.005968 0.189090 -0.192163 0.094984 -0.127411 0.305075 -0.221918 -0.085483 -0.037580 0.133712 0.184048 -0.210530 -0.342643 -0.132789 0.445671 0.308733 -0.148530 0.175778 0.227768 -0.235588 0.085100 -0.006260 -0.055078 -0.235405 -0.315555 0.091229 0.070073 -0.106877 0.000298 -0.269207 -0.019868 0.070391 -0.068956 0.010751 0.056559 0.143142 0.021256 0.057974 -0.038419 -0.167827 0.294369 0.057341 0.053830 0.032609 -0.051090 0.024877 -0.093987 0.119143 0.046042 
came -0.224871 -0.266787 0.028624 -0.073327 0.021938 0.085572 0.073289 -0.160483 0.130118 0.035041 0.148642 -0.152815 -0.045644 -0.114965 -0.062855 0.114163 0.117373 -0.096101 0.029556 -0.141339 -0.102208 -0.051943 -0.064193 -0.053472 -0.064158 -0.139397 -0.214627 -0.136665 -0.108757 -0.048023 -0.081405 0.143735 -0.001124 0.016023 -0.001423 0.230498 -0.000988 -0.183308 0.028428 -0.236579 -0.054537 0.123905 -0.118574 0.042217 0.149903 0.184753 -0.148757 0.114213 -0.303591 0.028272 
1 0.116086 0.057337 -0.094939 0.072651 0.106344 -0.025402 -0.073260 0.072500 0.049649 -0.137250 0.037413 -0.294669 -0.213645 -0.019930 -0.060042 0.318227 0.377862 -0.065483 0.272677 0.273618 0.010966 0.037571 0.047051 -0.105509 0.050192 0.179926 -0.162007 -0.107800 0.218066 0.085983 -0.031255 0.180273 -0.105869 -0.103122 0.082121 -0.007549 -0.103622 0.184971 -0.128994 -0.111527 0.072973 0.074903 -0.201030 0.003097 0.195342 0.270605 -0.062454 0.204466 -0.034020 -0.146010 
while -0.183985 -0.267417 0.361309 -0.012684 0.075410 -0.056653 0.298114 -0.157568 -0.077383 -0.013250 0.131088 -0.000523 0.058728 -0.001355 -0.071529 0.267238 0.230796 0.013469 0.257271 0.205705 0.076902 0.193336 0.156797 0.051615 -0.224315 -0.040086 -0.122386 0.004719 -0.007820 0.084965 -0.220963 -0.109086 0.010325 0.141192 -0.056798 0.061439 0.046492 0.049318 0.068256 -0.062291 0.150488 0.038515 0.114899 -0.009648 0.021830 0.075861 0.082180 0.196430 -0.024242 -0.109627 
police -0.255290 -0.357570 0.210942 -0.149393 0.220264 -0.108753 0.402654 -0.278626 -0.023680 0.047202 0.087567 -0.216071 -0.014475 0.169087 -0.075950 -0.052824 -0.095003 -0.208353 0.078752 0.007526 0.047224 0.133742 0.032731 -0.017471 -0.083278 0.037075 -0.214283 0.001767 0.050868 0.113408 -0.112225 0.156146 0.088364 0.129273 0.040204 0.277743 0.151985 -0.015914 0.184039 -0.154855 0.003984 0.175311 -0.078831 -0.085228 0.101070 0.124436 -0.061242 0.088288 0.043179 0.040388 
being -0.156556 0.155446 0.029629 -0.080353 0.102869 -0.001795 0.147168 0.025958 -0.184876 -0.013901 0.111552 0.098020 -0.170016 -0.104697 -0.098367 0.475179 0.330327 -0.147418 0.313662 0.277645 -0.045504 0.157166 0.125819 -0.041475 -0.092640 -0.090422 0.049875 0.063921 -0.005050 -0.114622 -0.130252 -0.002713 -0.004025 0.065868 -0.036523 0.088199 -0.003261 0.089819 0.090552 -0.022427 0.017230 0.376884 -0.067971 0.029695 0.168459 0.131654 -0.093124 -0.047885 -0.004059 -0.047925 
system -0.208174 -0.083513 0.103543 0.010287 -0.011941 -0.080077 0.031047 -0.001961 -0.057522 0.010171 0.107167 -0.138356 -0.177583 -0.114915 0.013587 0.357189 0.430933 -0.012354 0.305717 0.323518 0.001552 0.102881 0.170949 -0.157992 0.078943 0.167783 0.077599 0.038316 0.012772 0.030436 -0.262661 0.151286 -0.251563 0.092331 -0.002937 0.146502 -0.018821 0.106331 -0.035422 -0.106886 0.054087 0.183967 -0.280827 -0.016051 0.145522 0.110584 -0.010549 0.024097 -0.053973 -0.115216 
area -0.012776 0.038171 -0.049753 0.116788 0.119115 -0.141250 0.054332 0.048985 -0.086654 -0.040460 0.112098 -0.026097 -0.043462 0.048125 -0.070883 0.083798 0.173605 0.059402 0.249608 0.172626 -0.043431 0.088799 -0.072325 0.026537 -0.083255 -0.136286 -0.311367 -0.075827 0.042168 0.054998 -0.195727 0.006745 -0.108686 -0.076283 -0.009123 0.276985 0.418685 -0.059582 0.133896 -0.350178 -0.107920 0.327136 -0.097865 0.232240 0.265595 0.225860 -0.257180 0.024224 -0.063786 -0.088710 
him -0.225988 -0.334403 0.250401 -0.158083 -0.110342 0.024770 0.261974 -0.404887 -0.076313 0.265471 0.256833 -0.065006 0.025511 -0.330176 -0.015797 0.062921 0.039320 -0.304943 -0.060814 -0.072057 -0.265467 0.175262 0.076718 0.137384 -0.149012 -0.389607 -0.119503 0.062886 -0.323885 -0.056551 -0.064029 -0.097974 0.106734 0.227413 0.062353 0.122637 -0.005017 -0.415609 0.145498 0.109204 0.016197 -0.083433 0.023950 0.085828 0.138943 0.222370 -0.035001 0.164799 -0.163745 0.164292 
full -0.172584 -0.393063 0.102188 -0.160208 0.210890 -0.116383 0.173703 -0.235663 0.082798 0.217116 0.329912 -0.250131 -0.261858 -0.037715 -0.203861 0.060791 0.375753 -0.164026 0.156081 0.078553 -0.225485 0.052168 -0.059742 -0.007569 0.256930 -0.168118 -0.319091 -0.247969 -0.096820 -0.049502 0.096529 -0.055021 0.044875 0.075531 0.057230 0.060209 0.025129 -0.190691 -0.021306 -0.089668 -0.041410 0.036755 0.114918 0.096383 -0.008047 0.225242 0.118870 0.010473 -0.139337 0.023918 
those -0.163277 -0.048954 0.124655 -0.125561 -0.107834 0.014317 0.106418 -0.234053 -0.075366 -0.014735 -0.023608 0.163559 0.035377 -0.092198 0.093422 0.353472 -0.015981 -0.023499 0.183072 0.033986 0.001815 0.057330 0.103589 0.024193 -0.237390 -0.233619 0.008876 0.144029 -0.097740 0.042486 -0.127062 0.132182 -0.087928 0.197638 -0.031631 0.176969 0.170578 -0.083978 0.068585 -0.098300 -0.055818 0.148677 -0.190848 0.010988 0.176467 0.207875 -0.313382 0.061714 -0.040103 -0.065434 
under -0.164305 -0.166248 -0.019511 0.017637 0.143632 -0.054682 0.084200 -0.061076 0.119592 0.029806 0.092026 -0.065125 -0.136635 -0.244501 -0.103765 0.363474 0.270492 -0.123404 0.083300 0.207767 -0.240402 0.043934 -0.077131 0.057988 -0.002527 -0.156620 -0.073697 0.042708 0.047194 0.100562 -0.054134 -0.006495 -0.064577 0.042198 0.119907 -0.148370 -0.095113 0.112633 -0.109366 0.003872 -0.282144 0.108414 -0.195342 0.178378 0.213413 0.269863 -0.079738 -0.032716 -0.040956 0.042465 
city -0.059358 -0.259572 0.223103 -0.009942 0.076988 -0.057006 0.029408 -0.151512 -0.025121 -0.131449 0.022102 0.037346 0.071700 0.080804 -0.021383 0.176077 0.091368 0.080999 0.162315 0.064609 0.054648 -0.001319 -0.010915 0.023947 -0.074679 -0.124878 -0.265009 -0.099722 0.006589 0.070447 0.058413 -0.014344 -0.056149 0.029858 -0.008167 0.099063 0.225910 -0.011886 0.083561 -0.181795 -0.053856 0.130603 -0.156623 0.227311 0.210081 0.254635 -0.213253 0.218059 -0.059844 -0.159396 
still -0.112165 -0.202334 0.056727 -0.182388 -0.008527 0.064925 0.081256 -0.107969 0.201331 -0.150220 -0.007267 0.035950 -0.010571 -0.142675 -0.107842 0.132517 0.113549 0.061065 -0.014090 -0.088291 -0.050092 -0.031524 -0.118619 0.019352 -0.103590 -0.126744 -0.237916 -0.084419 -0.099398 0.113452 -0.162704 0.048271 -0.034129 0.088106 0.022836 0.171845 0.258076 -0.081663 0.033380 -0.186608 -0.162223 0.033482 0.053854 0.029754 0.009879 0.043061 0.139444 0.192977 -0.184829 -0.245976 
us -0.042787 -0.307988 0.048316 0.071890 -0.136886 -0.114070 -0.011082 -0.073670 -0.082526 -0.040321 0.089324 -0.062354 -0.019422 0.047858 0.133237 0.126633 -0.024403 -0.031531 0.054111 0.097165 -0.009834 0.026224 -0.083166 -0.054391 -0.093224 -0.016530 -0.078072 -0.077052 0.039898 -0.048273 -0.149933 0.125304 -0.077238 0.039180 0.026723 0.228848 0.229081 0.016923 0.078599 -0.190608 -0.096932 0.324667 -0.363800 0.133919 0.180531 0.140606 -0.359240 0.135845 -0.078972 0.033348 
high -0.106477 0.093227 -0.151541 0.091592 -0.070393 0.082958 -0.037015 0.059794 0.069375 -0.105050 -0.027522 0.141938 -0.000685 -0.124103 -0.039565 0.351796 0.254880 0.081817 0.166957 0.097093 -0.140156 0.059040 -0.036034 0.027424 -0.079154 -0.003822 -0.039018 -0.001549 0.081924 0.042347 0.000689 -0.075308 -0.190237 0.051977 -0.071963 -0.103068 0.057998 0.038722 -0.244912 -0.027248 -0.041984 0.128231 -0.208168 0.099708 0.255222 0.190001 -0.056011 0.084732 -0.139896 -0.428562 
set -0.090236 -0.045842 0.163013 0.022313 -0.037447 0.038022 -0.066217 -0.122160 -0.090447 -0.094248 0.051020 0.011894 0.054505 -0.004450 -0.043685 0.179538 0.192521 0.039438 0.105886 0.017550 0.045241 0.005959 0.061625 -0.014316 -0.111285 -0.129829 -0.170204 0.023520 -0.115532 -0.039717 0.078132 0.078474 0.098706 -0.001197 -0.017311 0.054522 0.017912 -0.076858 0.164813 -0.132392 -0.036490 0.116113 0.062456 0.103811 0.173191 0.195845 -0.299464 0.134278 -0.158926 0.124808 
building 0.026968 -0.174790 0.290288 -0.091627 0.119417 -0.127832 0.320973 -0.073882 -0.060407 0.006016 -0.012093 0.008289 0.116516 0.006829 -0.016099 0.151392 -0.065400 -0.104492 0.206343 0.196020 0.066083 0.054017 0.085158 -0.197125 -0.252934 0.069163 -0.257991 -0.011400 0.056852 0.007833 -0.119152 0.027737 -0.013819 -0.028217 0.023037 0.245835 0.111118 0.127216 0.267838 -0.123540 -0.026581 0.233756 -0.070338 0.140194 0.150810 0.077183 -0.036095 0.077057 0.095751 0.053221 
local -0.026159 -0.343481 0.178905 0.109811 0.129782 -0.214433 -0.114765 -0.109054 -0.085455 -0.019125 0.151317 -0.232294 -0.068204 0.067095 -0.014314 0.117637 0.125352 -0.032630 0.152816 0.172964 -0.074810 -0.017691 -0.138102 -0.210234 0.072216 -0.036679 -0.130799 -0.133738 0.066448 -0.104970 -0.010929 0.196271 -0.040923 -0.220067 0.178384 0.189200 0.163252 0.147228 0.198454 -0.246036 -0.084276 0.088607 -0.107196 0.136732 -0.049167 0.024131 -0.134810 -0.070057 0.039040 0.296513 
house -0.067563 -0.223522 0.087165 -0.095520 0.049561 -0.066253 -0.180679 -0.246111 0.052701 0.088678 0.091238 -0.174224 -0.107154 -0.018253 -0.019621 0.125182 -0.018676 -0.068360 -0.113773 -0.053388 -0.117884 -0.057264 -0.120548 -0.139570 -0.065348 -0.049217 -0.114865 -0.211081 -0.084576 -0.070750 -0.092273 0.256990 0.155578 -0.029462 0.137901 0.165686 0.009372 -0.079394 0.218049 -0.154541 -0.167883 0.065650 0.030444 0.030110 0.057942 0.007869 -0.252081 0.027775 -0.212049 0.299385 
next -0.033223 -0.130307 0.123099 -0.016743 0.004223 -0.061466 0.035972 -0.084237 -0.200775 0.070002 0.050726 -0.025280 0.072985 0.058064 -0.023127 0.004961 -0.120636 -0.052683 0.048641 0.078651 -0.044000 -0.010500 -0.098942 -0.000332 -0.052732 -0.100639 -0.083082 -0.130473 0.012850 -0.131192 0.088746 -0.058829 0.045122 -0.073771 -0.017568 0.107146 0.073202 -0.020624 0.175909 -0.102159 -0.021631 0.201605 -0.073482 0.236456 0.196747 0.160179 -0.218786 0.028470 -0.073587 0.101487 
public -0.049927 -0.111214 -0.065992 -0.131054 0.142509 -0.169275 0.048845 -0.148716 0.093369 0.046258 0.038567 -0.163105 -0.132622 -0.009425 -0.069102 0.107259 0.115507 -0.120108 0.091052 -0.020996 -0.029361 -0.039210 -0.051144 -0.117696 -0.079230 -0.081727 -0.168281 -0.161743 0.124397 0.021012 -0.177467 0.075582 -0.024947 0.019612 0.115248 0.167724 0.165287 -0.003338 0.112375 -0.272713 -0.120448 0.187920 -0.030124 0.021329 0.122086 0.130510 -0.092507 0.029558 0.002659 -0.012578 
head -0.229287 -0.216796 0.098814 -0.082141 -0.014381 0.099570 -0.092685 -0.257599 -0.057945 -0.035902 0.094574 -0.233784 -0.076812 -0.078228 -0.078354 0.192448 0.153733 -0.065818 -0.007993 -0.041012 -0.165161 0.011076 -0.070576 -0.064494 -0.063885 -0.123056 -0.111869 -0.090654 -0.160769 -0.036142 -0.080542 0.207558 0.043145 0.085975 0.096056 0.146546 0.069683 -0.152039 0.158976 -0.189029 0.010571 -0.086158 0.018685 -0.064433 0.032211 0.033897 -0.080942 0.128749 -0.198430 0.049699 
number 0.219540 -0.065848 -0.041751 -0.035359 -0.111895 -0.133793 -0.284441 0.112741 -0.027324 -0.012568 -0.020002 -0.049276 -0.113884 0.078785 0.082635 0.228031 0.150433 0.054256 0.107861 0.211870 0.079099 -0.072993 0.046856 -0.276462 -0.001399 0.152182 -0.366104 -0.195215 0.002356 -0.054701 -0.205330 0.161675 -0.220626 0.028684 0.049245 0.293250 0.216878 0.093579 0.182146 -0.265435 -0.114518 0.308397 -0.199551 0.316747 -0.001341 0.092182 -0.169400 0.016442 0.040239 0.054666 
shows 0.015495 -0.140978 0.019784 0.226812 0.132685 0.002069 -0.127129 0.083767 0.033435 0.016569 0.183513 -0.272204 -0.093249 -0.085067 -0.086945 0.333890 0.426455 -0.041817 0.203903 0.273891 -0.058829 0.126227 0.039445 -0.108650 0.142136 0.215195 -0.213768 -0.049630 0.038474 -0.027859 -0.056222 0.157673 0.078461 0.009006 0.093051 0.057243 -0.074556 0.123022 0.025014 -0.127040 -0.079288 0.073478 -0.128131 0.069982 0.084978 0.214702 -0.016426 0.066988 -0.138086 0.033532 
causes -0.189297 0.185251 0.044074 0.146637 0.036982 -0.110355 0.133662 0.132453 -0.046857 0.162787 0.116097 0.047101 -0.146518 -0.059057 -0.043028 0.451348 0.404829 -0.036394 0.373419 0.476513 0.032503 0.201705 0.271933 -0.058291 0.014379 0.171188 0.100072 -0.002107 0.091631 -0.016589 -0.282243 0.066666 -0.169200 0.164002 -0.087598 -0.046440 -0.068447 0.171389 -0.073989 -0.116079 0.079971 0.283998 -0.037825 -0.052318 0.099395 0.080435 -0.021084 -0.139693 -0.022822 -0.022183 
little -0.433846 -0.101707 0.100806 -0.168586 0.073422 0.038297 0.132554 -0.286876 -0.095786 -0.173063 0.074901 0.174595 0.030251 -0.089771 -0.069604 0.065298 0.113477 0.171931 0.242938 -0.111206 -0.000064 -0.019256 -0.034473 0.051788 -0.128741 -0.280466 -0.215642 0.049773 -0.059544 0.011982 0.063044 -0.089051 0.011648 -0.052423 -0.152571 0.152934 0.283843 -0.175098 0.066636 -0.189176 -0.034861 0.194044 -0.004754 0.053741 0.285878 0.218190 -0.210717 0.161297 -0.316289 -0.233326 
much -0.222991 -0.111283 0.099384 -0.102751 0.105272 0.166579 0.033615 -0.244085 -0.056198 -0.244156 0.004024 -0.021785 0.052296 -0.074319 -0.156157 0.305082 0.305494 0.064157 0.290296 0.009144 -0.065509 -0.000353 0.066297 -0.135141 -0.040718 -0.073430 -0.084789 0.045109 -0.069655 -0.081675 0.148855 0.114989 -0.049213 -0.038250 -0.039173 0.229655 0.080804 -0.121634 0.117822 -0.223255 0.084582 0.101343 -0.131321 -0.083551 0.185277 0.138934 0.006130 0.230536 -0.339682 -0.307379 
produced -0.075133 0.129187 0.054967 0.006620 0.224128 -0.084306 0.067476 0.081208 -0.041769 0.016687 -0.031232 0.016707 0.007121 0.063944 -0.000474 0.034389 0.185242 0.163913 0.170244 0.286174 0.100571 0.014011 0.197743 -0.060318 0.009338 0.210921 -0.168768 0.133133 0.034503 0.058442 -0.070877 0.058688 -0.118340 0.045769 -0.014544 0.071074 -0.009491 0.108432 0.120625 -0.177033 -0.145580 0.052585 -0.016202 0.058311 0.041383 0.203086 0.086848 -0.155860 -0.071803 -0.094167 
common -0.131252 0.073054 0.084391 0.006789 0.023633 -0.216362 0.061702 0.048036 -0.183341 -0.020610 0.053183 0.214527 -0.098018 0.055230 0.018955 0.366990 0.316143 0.147006 0.331779 0.398771 0.105128 0.087789 0.117109 0.023057 -0.147135 0.047076 -0.058014 -0.086996 0.087748 0.003731 -0.248280 -0.052438 -0.142337 0.087989 -0.135405 0.088366 0.282608 0.203715 -0.021191 -0.132387 -0.014635 0.271819 0.017170 0.035381 -0.031400 -0.093222 -0.065354 -0.096621 0.036293 -0.138957 
built -0.170773 -0.396775 0.167704 -0.044488 0.053899 -0.105123 -0.000146 -0.197703 0.062606 0.021006 0.127363 -0.022091 0.001798 -0.020816 0.029992 0.273539 0.107233 0.040587 0.175827 0.051112 -0.045990 -0.100678 -0.089319 -0.110543 -0.075311 -0.204491 -0.343715 -0.111439 0.017531 0.069603 -0.076236 -0.071261 -0.034795 0.040905 -0.047894 0.060252 0.111105 -0.052687 0.091207 -0.336044 -0.168393 -0.101931 -0.005538 0.208251 0.089479 0.217201 -0.156136 0.017145 -0.023517 0.246922 
poured -0.216642 -0.383940 0.272716 -0.140026 0.184276 -0.260530 0.315682 -0.252360 0.226138 0.153313 0.132071 0.240060 0.067670 -0.128439 -0.029607 -0.052554 -0.163780 0.029855 0.043954 -0.048628 -0.231257 -0.065088 -0.337054 -0.006571 -0.152627 -0.300294 -0.240887 -0.227539 -0.121507 -0.086825 0.064174 -0.237681 0.110910 -0.146751 -0.024735 -0.015961 0.224682 -0.134839 -0.000237 -0.069419 -0.308371 0.048281 0.175585 0.318221 0.168780 0.015298 -0.021416 0.032357 -0.202165 0.139683 
car -0.182470 -0.377063 0.329257 -0.035117 0.044964 -0.042767 0.142175 -0.308336 -0.076779 0.032803 0.131094 -0.118634 -0.052250 -0.079257 -0.008522 0.130605 0.113438 -0.019064 0.083006 0.127362 -0.158827 0.079012 -0.015221 -0.057574 -0.040483 -0.009507 -0.137787 0.031171 -0.241482 0.045023 -0.032218 0.193905 -0.042060 0.026487 0.082685 0.137304 0.112938 -0.095857 0.166226 -0.058240 -0.009660 -0.250337 0.016546 0.015105 -0.128657 -0.053704 0.121749 -0.038699 0.032155 0.128560 
information -0.032781 -0.097420 0.235794 0.077484 0.005501 -0.079724 0.068812 -0.048606 -0.010663 0.016462 0.026608 0.023176 0.043621 -0.077142 0.119342 0.269537 0.096834 0.079890 0.250921 0.255928 0.023570 0.051057 0.090945 -0.191026 -0.133607 0.178524 -0.216433 0.124618 0.080138 -0.054402 -0.079421 0.147305 -0.055062 0.070134 0.053497 0.051410 -0.058114 0.180855 0.079188 -0.003293 -0.099505 0.174700 -0.211082 0.158467 0.239458 0.157712 -0.171433 0.033127 -0.016819 0.119521 
every -0.247872 -0.262619 0.144920 0.042398 0.180384 -0.030089 0.091205 -0.181536 -0.100643 -0.094795 0.018117 0.051905 0.040666 0.021366 -0.090052 0.084414 0.101910 0.167206 0.062604 0.168008 -0.078890 -0.084359 -0.076942 0.017664 -0.064212 -0.139843 -0.064770 -0.087259 -0.026990 0.055028 0.095115 0.007142 -0.055929 -0.109617 -0.080271 -0.028483 0.228865 0.039327 0.065524 -0.305533 -0.178337 0.187962 -0.167021 0.214026 0.113299 0.228986 -0.169853 -0.016701 -0.169462 -0.079421 
series -0.031166 -0.027519 -0.185021 0.074027 0.145486 -0.089012 -0.064666 0.038632 0.139328 -0.014884 0.072725 -0.179821 -0.139133 0.004113 -0.050651 0.106872 0.239760 -0.018571 0.131800 0.078039 -0.088217 0.032107 -0.044500 -0.055714 0.048471 -0.035737 -0.288247 -0.085279 0.135389 0.102219 -0.109379 0.058405 -0.115187 -0.035889 0.121629 0.089410 0.129891 -0.017589 -0.055043 -0.193827 -0.132554 0.110253 -0.117921 0.070816 0.097911 0.153745 -0.079058 0.012911 -0.050132 -0.076038 
another 0.041437 -0.035106 0.136584 -0.013340 0.182667 -0.118931 0.238928 -0.019644 0.026260 0.091575 0.140001 -0.131217 -0.097404 -0.043615 -0.025043 -0.013415 0.160138 -0.016763 0.138561 0.220482 -0.022242 0.064463 0.130747 -0.114245 -0.048677 0.067412 -0.246503 -0.049777 0.001782 0.072084 -0.051183 0.120409 -0.040377 -0.141028 0.044332 0.184491 0.002183 0.131767 0.088622 -0.112897 -0.038815 0.025470 -0.020587 0.037215 -0.019188 0.121618 0.149956 -0.093259 0.006271 0.031375 
against -0.097475 -0.140432 0.125809 -0.063192 0.065919 -0.009295 0.040350 -0.062821 0.018643 -0.079274 0.134782 0.058822 -0.163509 -0.236611 -0.139034 0.477483 0.461808 -0.053876 0.240316 0.312893 -0.194343 0.116683 0.051866 -0.110299 0.043649 -0.090023 -0.162501 0.011275 -0.223958 0.019412 -0.161468 0.088570 -0.055618 -0.001591 0.015495 0.147000 0.175751 0.004686 0.060346 -0.033984 -0.142902 0.183467 -0.003385 0.142680 -0.018899 0.028526 0.173100 -0.002942 -0.012743 -0.086002 
arrived -0.186103 -0.303154 0.280118 -0.090574 0.120906 -0.083899 0.183120 -0.308132 0.049885 -0.003200 0.077882 -0.003251 0.136486 0.003681 -0.054527 -0.053152 -0.223177 0.046461 0.072733 -0.108740 -0.156513 -0.045658 -0.125295 -0.157000 -0.187541 -0.217856 -0.361187 -0.140031 -0.069981 -0.047764 0.155680 0.053318 0.046196 -0.119536 0.096421 0.232609 0.173854 -0.177940 0.286706 -0.358861 -0.091386 0.040324 -0.009228 0.164499 0.084548 0.186162 -0.117021 0.050122 -0.260453 0.039481 
young -0.398758 -0.241283 0.110029 -0.078627 0.079371 0.024412 0.135204 -0.339001 0.167759 -0.113645 0.015745 -0.132184 -0.086574 -0.066508 -0.043640 0.229272 0.066704 -0.085735 0.010676 -0.120216 -0.177366 0.081997 -0.070323 -0.059187 -0.117568 -0.026965 -0.078582 -0.028869 -0.044949 0.088108 -0.151984 0.255688 -0.029470 0.119102 0.141195 0.044928 0.148204 -0.111518 -0.039546 -0.098349 -0.067277 0.115371 -0.088392 -0.216706 0.128164 0.027660 -0.128936 0.022800 -0.163802 -0.070662 
great 0.236631 -0.062402 -0.065591 -0.100996 -0.051424 -0.015389 -0.037713 0.144008 -0.097742 -0.147938 -0.038995 -0.091967 -0.100260 -0.022399 -0.070673 0.110235 0.241953 -0.016896 0.072776 0.167667 0.086554 0.005420 0.050939 -0.093551 -0.013973 0.038905 -0.178125 -0.085133 0.018453 0.062391 -0.171967 0.101289 -0.081092 -0.059527 0.027804 0.269303 0.174613 0.108572 0.171264 -0.172892 -0.063574 0.240896 -0.080410 0.133211 0.030827 0.101452 0.007478 0.192223 -0.004485 -0.147439 
game -0.035377 -0.029360 0.023408 0.006922 0.031477 0.072204 0.014934 -0.070924 0.019988 -0.196611 0.023886 -0.111048 -0.055176 0.085246 -0.067069 0.306448 0.252780 -0.070757 0.210588 -0.005311 0.041627 0.079031 0.107492 -0.077318 0.058815 0.054200 -0.110610 0.022299 0.082548 0.054739 0.073537 0.113444 -0.027488 0.076101 0.036559 0.104580 0.008840 -0.008671 -0.050900 -0.003143 0.113150 0.148936 -0.160279 -0.057913 0.155839 0.122135 -0.031821 0.185984 -0.054229 -0.223482 
old -0.315620 -0.439312 0.209019 -0.088705 0.071954 0.030116 0.043820 -0.353280 -0.028458 -0.111978 0.033004 -0.016119 0.126693 0.030011 -0.078565 0.168571 0.090271 0.067060 0.084241 -0.154893 -0.063612 -0.092654 -0.100847 -0.044917 -0.138924 -0.224009 -0.105793 -0.178899 -0.027386 0.020836 0.073006 0.083808 0.049137 -0.020800 -0.040176 0.153093 0.277348 -0.158849 0.145285 -0.318708 -0.082817 0.123850 -0.027985 0.102328 0.135565 0.104008 -0.233855 0.199620 -0.318501 -0.136969 
front -0.326349 -0.207506 0.174605 0.041819 0.090227 0.022917 0.146524 -0.163261 -0.151704 -0.068325 0.045986 -0.025352 0.092861 0.027025 -0.067302 0.209970 0.069730 -0.020640 0.084089 0.099275 0.019391 0.062859 0.088438 0.083984 -0.087776 -0.074712 0.003545 -0.008460 -0.052450 0.004955 -0.134733 0.015708 0.047919 0.157610 -0.084393 0.090707 0.167049 0.032118 0.120653 -0.219228 -0.040491 0.171556 -0.026388 -0.023362 0.034383 0.042240 -0.068922 0.025517 -0.141443 -0.025685 
because -0.330609 -0.003841 0.102387 -0.114774 0.083564 -0.125127 0.213353 -0.014618 -0.173428 0.045446 0.027685 0.123221 -0.051884 -0.030443 -0.090955 0.119960 0.154188 0.032945 0.258077 0.160596 0.021749 0.058209 -0.007831 0.104307 -0.022007 -0.066418 0.182699 0.034400 0.099409 -0.083463 -0.207901 -0.107199 -0.029767 0.059537 -0.174117 0.123140 0.211743 0.079200 0.071037 -0.183165 -0.072077 0.382561 -0.086775 -0.020432 0.244982 0.086184 -0.084020 -0.048850 -0.119537 -0.124053 
process 0.125397 -0.098740 -0.065852 0.078887 0.060068 -0.123944 -0.063598 0.047413 -0.027713 -0.075833 0.050581 0.070293 -0.079388 0.008822 -0.016203 0.284778 0.309445 0.001903 0.183905 0.317745 -0.067954 -0.050769 0.048430 -0.078156 0.075783 0.007912 -0.224098 -0.022528 0.109848 0.117123 -0.058205 0.033114 -0.177953 -0.111387 -0.033496 0.121131 0.215542 0.174064 -0.012027 -0.093410 -0.263899 0.401594 -0.342425 0.378832 0.146154 0.244130 -0.146795 0.018480 0.169511 -0.106362 
paper 0.142953 -0.304883 0.098398 0.108338 0.159328 -0.071742 0.095316 -0.009234 -0.075911 -0.040801 0.085766 -0.263500 0.016176 0.035598 -0.108327 0.025116 0.124871 -0.058912 0.007142 0.188020 -0.015701 0.044774 -0.152194 0.020130 -0.015920 -0.099592 -0.282553 -0.130942 0.061074 0.185758 -0.120554 0.121249 0.080776 -0.141071 0.153562 0.142924 0.254921 0.119636 0.195095 -0.338838 -0.185879 -0.056816 0.054374 0.161723 -0.068824 0.153239 -0.070834 0.076058 0.095932 0.159443 
report 0.110646 -0.104030 0.034659 -0.034149 0.065751 -0.134215 -0.184226 -0.054663 -0.274899 0.126798 0.139284 -0.210101 -0.105696 0.097163 0.039855 -0.045449 0.168423 0.080818 0.123424 0.280918 0.046037 -0.133579 0.108888 -0.161502 0.029642 -0.001543 -0.411291 -0.104052 0.010773 -0.050164 -0.017684 0.102306 -0.047700 -0.085985 0.021852 0.215698 0.135599 0.050224 0.357271 -0.274367 -0.133430 0.122765 -0.137609 0.282482 0.051413 0.367582 -0.325129 -0.045476 -0.025049 0.244276 
few -0.230984 -0.424805 0.285049 -0.229210 -0.016788 0.010901 0.293909 -0.268640 0.036680 -0.125385 0.109866 -0.093960 -0.060614 -0.059514 -0.088779 0.152008 -0.028463 -0.131777 0.085549 -0.257472 -0.140971 0.070903 -0.214267 -0.114765 -0.099104 -0.186249 -0.031344 -0.183828 0.036610 -0.055779 0.065129 0.017407 0.144062 -0.035107 0.036166 0.170340 0.143633 -0.146355 0.052336 -0.051888 0.066153 0.152305 -0.026392 0.013304 0.136531 0.037620 -0.139990 0.253445 -0.256955 -0.158165 
near -0.275081 -0.223482 0.214421 -0.248221 0.278676 -0.074516 0.239793 -0.241212 0.008905 -0.028734 0.022338 -0.103366 -0.108679 -0.029985 -0.228923 0.232887 0.142962 -0.130264 0.216675 0.040416 -0.134801 0.054860 -0.126365 -0.085994 -0.050374 -0.151316 -0.057968 -0.154110 -0.071359 0.010975 -0.086235 0.057480 0.005594 -0.050889 0.033001 0.199373 0.154992 -0.059555 0.163273 -0.240084 -0.030249 0.142398 0.068848 0.054430 0.111328 -0.024886 0.060909 0.079294 -0.043566 -0.080614 
side -0.213715 -0.234891 0.203881 -0.116383 0.058510 0.014765 0.021561 -0.208391 -0.111205 0.022242 0.072220 -0.160888 0.022283 0.054332 -0.153835 0.254526 0.070360 -0.016227 0.168627 0.054639 -0.056512 0.010905 -0.002994 -0.096169 -0.043395 -0.066398 -0.080311 -0.219850 -0.069138 -0.074848 -0.060668 0.051314 0.007121 0.086891 -0.005017 0.218807 0.139758 -0.120456 0.163910 -0.195216 0.091955 0.112717 0.049332 0.013686 -0.072610 -0.011548 0.005622 0.106893 -0.214870 -0.069132 
school -0.397688 -0.367729 0.135755 -0.090476 0.227261 -0.010003 -0.057709 -0.302071 0.056648 -0.066479 0.090971 -0.401906 -0.141624 0.009629 -0.143560 0.128456 0.327908 -0.010476 0.209320 0.067173 -0.138453 -0.115931 0.006249 -0.213022 0.164889 0.030878 0.008842 -0.100582 0.030692 0.023598 0.017089 0.215068 -0.071168 -0.060813 0.095340 0.172366 -0.013856 -0.051988 0.087924 -0.303508 0.040252 -0.158153 -0.111477 -0.231133 0.091216 0.032362 0.058937 0.082160 -0.280921 -0.044001 
computer -0.060214 -0.052183 0.040140 0.023196 0.009403 0.025544 0.015417 -0.026506 -0.162350 0.043704 0.174290 -0.014436 -0.108615 -0.148551 -0.060371 0.251228 0.340571 -0.059691 0.193355 0.207245 -0.100137 0.049573 0.160597 -0.011118 -0.019946 -0.078532 -0.045162 0.026087 -0.055075 -0.033477 0.056373 0.001263 0.055921 -0.018173 -0.093344 0.091806 -0.024523 0.012260 0.020575 0.079405 -0.051793 0.263800 -0.102973 0.129351 0.093577 0.202368 -0.127371 0.042296 -0.112783 -0.036009 
group -0.169887 -0.175763 0.003226 0.075937 0.088738 -0.023334 -0.054073 -0.053310 0.123841 -0.016866 0.083563 -0.238637 -0.066155 0.038560 -0.012285 0.256921 0.264800 -0.042112 0.088395 0.170090 0.019028 0.067783 0.120738 -0.087072 0.033598 0.184849 -0.201474 -0.026570 0.093239 0.087879 -0.135558 0.127142 -0.110438 0.171412 0.072696 -0.007014 -0.104270 0.083429 -0.091660 -0.102971 0.049250 0.013524 -0.152693 -0.079190 0.032626 0.135405 -0.001220 0.057363 -0.052351 -0.065090 
early -0.138934 -0.195292 0.186253 -0.012788 -0.014935 -0.080702 0.024432 -0.206595 -0.120941 -0.060526 -0.011857 0.038020 0.053607 0.038263 0.139168 0.154066 0.060010 0.102473 0.118843 0.167805 -0.017579 0.040586 0.022968 -0.059156 -0.122837 -0.018797 -0.165439 0.088212 0.004225 0.108343 -0.062688 0.197402 -0.183928 0.071284 0.096810 0.183761 0.251912 0.020448 0.159528 -0.148434 -0.104482 0.039133 -0.201324 0.170539 0.163614 0.137994 -0.197603 0.027423 -0.016926 -0.043242 
started -0.205973 -0.167965 0.029134 -0.066999 0.172490 -0.059804 -0.042132 -0.135201 0.172861 -0.050443 0.059835 -0.297190 -0.145539 -0.060384 -0.087974 0.158486 0.120031 -0.031428 0.108253 0.067610 -0.140771 -0.028622 -0.017041 -0.195344 -0.003001 0.098627 -0.191790 -0.077024 -0.027149 0.020800 -0.082031 0.233779 -0.112118 -0.066820 0.142152 0.204965 0.046844 0.027975 0.105110 -0.283775 -0.072351 0.011727 -0.182786 -0.024386 0.133856 0.110470 0.016863 0.069387 -0.211748 -0.053482 
times -0.037042 -0.319942 0.158965 -0.017405 -0.069621 -0.148878 0.115234 -0.075324 -0.361659 -0.014859 0.085015 -0.152388 -0.049528 0.035396 0.066147 0.098549 0.098795 -0.001964 0.145402 0.244929 0.011363 0.017588 -0.092976 -0.037486 -0.076574 -0.013546 -0.034276 -0.090209 0.047674 -0.025695 -0.138966 0.067970 -0.090770 -0.066388 -0.016438 0.281571 0.387006 0.057379 0.214709 -0.258088 -0.047082 0.216612 -0.227915 0.230071 0.125072 0.122461 -0.225532 0.060146 0.021419 0.000324 
data -0.025377 -0.082797 0.034659 0.181394 0.149011 -0.077418 -0.003160 0.036654 0.019180 0.005399 0.055763 -0.248268 -0.042332 0.087612 -0.059673 0.070617 0.232083 -0.047412 0.027532 0.278533 0.066881 0.092766 0.097388 -0.012045 -0.011867 0.123085 -0.229416 -0.011675 -0.014561 0.045284 -0.167290 0.287179 -0.013258 0.020508 0.155317 0.109274 0.003169 0.106540 0.111320 -0.286780 -0.048878 0.035086 -0.069018 -0.038774 -0.017346 0.095124 -0.041866 -0.055468 -0.005156 0.211290 
bag -0.550279 -0.460169 0.146393 -0.138020 0.040008 -0.018086 -0.006447 -0.393231 0.373208 0.229832 0.257945 -0.171100 -0.206854 -0.232805 -0.224750 0.336682 0.234007 -0.260387 0.091155 -0.214290 -0.519447 -0.033077 -0.349045 -0.210459 0.102900 -0.101420 0.076453 -0.309457 -0.355724 -0.267291 0.012119 -0.001888 0.034626 0.075041 -0.013174 -0.052637 -0.023880 -0.448236 -0.222117 0.066410 0.028220 -0.006564 0.241065 0.004076 0.067660 -0.163311 -0.055342 0.024017 -0.393961 0.092692 
help -0.116449 -0.138102 0.043948 -0.011780 0.044590 -0.018070 0.060065 -0.172770 0.034097 -0.121229 -0.006077 -0.036486 -0.053381 -0.084998 -0.023879 0.258657 0.128950 -0.073749 0.067426 -0.025015 -0.112001 0.003672 -0.091202 -0.113943 -0.135186 -0.127691 -0.054460 -0.069131 0.043294 -0.036204 -0.121038 0.116449 0.041518 -0.032500 0.073975 0.054857 0.087143 -0.013415 -0.040812 -0.117251 -0.073750 0.176051 -0.140432 0.006704 0.161800 -0.000858 -0.202856 0.097735 -0.065454 0.012265 
right -0.271891 -0.338989 0.314305 -0.153044 -0.032512 0.027980 0.046058 -0.298688 -0.221650 -0.147342 0.003961 -0.005015 0.111048 -0.018745 -0.053555 0.189088 0.061448 0.083999 0.138740 0.093010 0.000951 -0.083272 0.071214 -0.087597 -0.175305 -0.056975 -0.147320 -0.081945 -0.155363 -0.000219 -0.027249 0.084040 -0.037528 0.056910 -0.056412 0.221724 0.272301 -0.040154 0.297355 -0.280028 0.050046 0.018594 -0.088510 0.004561 0.087501 0.141881 -0.069835 0.175972 -0.264031 -0.124892 
got -0.161895 -0.204155 0.132100 -0.175271 -0.053521 0.137936 0.164501 -0.295314 0.127502 -0.096319 0.098180 0.006477 0.100788 -0.132816 -0.082470 0.217364 -0.066222 -0.189935 0.114774 -0.358560 -0.093896 0.093123 -0.099871 -0.059273 -0.196860 -0.391129 -0.302742 -0.064858 -0.118485 -0.064617 0.085315 0.067367 0.149239 0.061604 0.076692 0.193360 0.117774 -0.332269 0.117022 -0.187905 0.024979 0.114632 0.133830 0.047989 0.251234 0.167998 -0.201879 0.298316 -0.287831 -0.054865 
resulted 0.072855 0.101098 0.168239 0.046421 0.099300 -0.001882 -0.074223 -0.022632 -0.077880 -0.206114 0.005615 0.047904 -0.041877 -0.032496 -0.046950 0.209528 0.288637 0.066530 0.249962 0.133239 0.045281 0.120373 0.133084 -0.213664 -0.004547 0.056578 -0.044492 0.068610 -0.148533 -0.073768 -0.018841 0.232392 -0.036582 -0.215340 0.076125 0.210856 0.086807 0.043379 0.203143 -0.172558 0.095942 0.122260 0.016617 -0.013891 -0.021886 -0.079571 0.011774 -0.044998 -0.001888 -0.012611 
room -0.093363 -0.157924 0.153752 -0.100625 0.090236 0.082227 -0.003607 -0.182235 0.153541 -0.005351 0.108368 -0.097226 -0.027238 -0.133832 -0.130511 0.234141 0.129940 -0.056386 0.156376 -0.097710 -0.223432 -0.003252 -0.102207 -0.147868 -0.059573 -0.192158 -0.249356 -0.140727 -0.199579 -0.081623 0.081602 0.074082 0.045396 -0.070018 0.039107 0.221108 0.032997 -0.196282 0.128610 -0.202882 -0.062353 0.062002 0.040301 0.113776 0.124707 0.135730 -0.116376 0.123583 -0.300809 0.065841 
here -0.337874 -0.040170 0.020727 -0.040933 0.136647 -0.043959 0.161767 -0.174295 -0.076501 -0.051245 -0.023250 0.110623 0.025998 0.009909 -0.033716 0.033743 -0.005482 0.056160 0.131114 0.002596 -0.035412 -0.005083 0.012720 0.068361 -0.109365 -0.146420 -0.023834 0.078292 0.029555 0.040191 -0.025374 -0.008751 -0.058265 0.012462 -0.073387 0.101963 0.231510 -0.033950 0.081471 -0.176311 -0.100171 0.261777 -0.132667 -0.002978 0.205382 0.144393 -0.174476 -0.050935 -0.084024 -0.155008 
issues 0.179258 -0.111474 -0.145239 0.141438 -0.133221 0.007472 -0.181053 0.078744 -0.316759 -0.108536 0.037240 -0.204009 -0.047496 0.133520 0.052888 0.211546 0.082092 -0.131429 -0.041996 0.118228 0.059231 -0.026747 -0.116024 -0.016892 0.073695 -0.019906 0.131841 -0.039231 0.187122 -0.016379 -0.070401 0.183618 -0.027820 -0.059856 0.084162 0.112750 0.203214 0.194815 0.041143 -0.090962 -0.085456 0.352276 -0.312354 0.117189 0.039539 0.067558 -0.330004 0.036553 0.184452 0.013986 
four -0.120771 -0.157280 0.125019 0.020570 0.167097 -0.225143 0.220255 -0.089235 0.030484 0.029379 0.055186 -0.008127 -0.082747 -0.024915 -0.033157 0.130464 0.115916 -0.043070 0.150472 0.252642 -0.089366 0.099559 -0.018278 -0.059653 -0.055620 0.093776 -0.127303 -0.065432 0.056006 0.092908 -0.135468 -0.011387 -0.117806 -0.066370 0.000001 0.048633 0.147956 0.057629 -0.016999 -0.137723 -0.066435 0.173607 -0.186089 0.156045 0.151211 0.138346 0.019638 -0.062345 0.095182 -0.103135 
place 0.068925 -0.126874 0.056874 0.014871 -0.094873 -0.001986 -0.046338 -0.015570 -0.169026 -0.057923 0.094595 0.128254 -0.011022 0.030938 0.024694 0.175987 0.159951 0.041235 0.031049 0.109905 0.014132 0.055510 0.018321 0.068339 -0.106471 -0.186297 -0.158699 -0.132492 -0.007060 0.035130 -0.156583 -0.001014 -0.049381 0.029498 -0.026977 0.175695 0.375797 -0.005420 0.137263 -0.093749 -0.139460 0.372792 -0.069014 0.275482 -0.001125 0.158309 -0.304350 0.098293 -0.040928 -0.060925 
how -0.232643 -0.228034 0.158261 -0.091499 0.040988 -0.103248 0.265740 -0.180840 -0.217993 0.041158 0.034144 0.059004 0.038164 -0.057298 -0.104970 0.177289 -0.034969 -0.115930 0.128044 0.125148 -0.125535 0.111354 -0.115487 -0.013167 -0.180686 -0.116443 -0.045684 -0.107479 0.019589 -0.088225 -0.073259 -0.006625 0.078475 0.018262 -0.021449 0.232456 0.303389 0.020124 0.200879 -0.222887 -0.103899 0.397649 -0.104585 0.133041 0.208195 0.142155 -0.144016 0.089254 -0.129372 -0.181212 
called -0.148607 -0.160153 0.030266 -0.083840 0.021134 0.040436 -0.024458 -0.088518 0.017994 -0.083500 0.013844 -0.197667 -0.048816 -0.016484 -0.148751 0.249471 0.261777 -0.047619 0.166497 0.050167 -0.043876 0.029507 0.019745 -0.029194 -0.064725 -0.023956 -0.181888 -0.069767 -0.081681 -0.008813 -0.133608 0.153442 -0.084496 0.140758 0.074214 0.229036 0.119746 -0.072407 0.061372 -0.246780 0.016753 0.043760 -0.086463 -0.047682 0.097903 0.102458 -0.032310 0.148206 -0.171749 -0.120369 
life -0.152428 -0.146469 0.083655 0.064732 -0.003629 0.015722 0.004387 -0.087651 -0.133786 -0.110670 0.004145 0.042760 0.112539 -0.012133 -0.022664 0.253902 0.181284 0.093644 0.161532 0.105832 0.008019 -0.010736 0.007555 -0.047402 -0.146420 -0.149523 -0.211571 -0.052624 -0.010443 0.005390 -0.082427 0.060615 -0.073243 0.048658 -0.036700 0.136345 0.295019 0.030835 0.170515 -0.327400 -0.109276 0.223003 -0.158428 0.174737 0.176619 0.234106 -0.290967 0.134526 -0.184856 -0.111480 
best -0.276190 -0.225021 0.072890 -0.144725 -0.035077 0.058132 0.091511 -0.127063 -0.140451 -0.153639 -0.009397 -0.098732 -0.100335 0.006748 0.007122 0.119175 0.136097 0.111350 0.135805 0.015723 -0.002316 -0.050805 -0.040678 0.060949 -0.008443 -0.043864 -0.025663 -0.011836 0.085898 0.147678 -0.083953 0.071274 -0.114354 0.107101 -0.020266 0.139005 0.195328 0.069884 0.036019 -0.215541 -0.042739 0.035659 -0.180175 -0.071027 0.138498 0.187793 -0.147559 0.087093 -0.108153 -0.171264 
light -0.081523 -0.103998 0.066996 -0.102082 0.233522 -0.011602 0.168278 -0.069669 0.103049 -0.048501 0.044107 -0.181845 -0.143427 -0.072282 -0.170339 0.294228 0.350260 -0.156958 0.177033 0.069149 -0.031750 0.101499 0.026489 -0.120389 0.059032 -0.076009 -0.056919 -0.023388 0.001748 0.096961 -0.173386 0.182138 0.021161 -0.000209 0.102602 0.184707 0.044204 0.047220 0.062181 -0.218978 -0.056768 0.103278 0.121604 -0.101411 0.012345 0.006721 0.196858 0.056503 0.010603 -0.087156 
children -0.433809 -0.455891 0.415017 -0.210010 0.089502 -0.041028 0.260401 -0.451469 0.031431 -0.148428 0.084614 -0.060764 -0.128118 -0.150519 -0.091200 0.412297 0.185622 -0.133304 0.136782 -0.042193 -0.196505 0.101684 -0.103855 -0.124510 -0.106736 -0.157150 0.127315 -0.027707 -0.044578 0.051370 -0.111511 0.142863 0.081334 0.071818 0.107747 0.123802 0.098668 -0.085472 0.119428 -0.088053 -0.001165 -0.046257 0.103917 -0.234084 -0.000152 -0.153845 0.100883 0.128412 -0.124579 -0.060773 
